{"learner":{"attributes":{"scikit_learn":"{\"_estimator_type\": \"regressor\"}"},"feature_names":[],"feature_types":[],"gradient_booster":{"model":{"cats":{"enc":[],"feature_segments":[],"sorted_idx":[]},"gbtree_model_param":{"num_parallel_tree":"1","num_trees":"300"},"iteration_indptr":[0,1,2,3,4,5,6,7,8,9,10,11,12,13,14,15,16,17,18,19,20,21,22,23,24,25,26,27,28,29,30,31,32,33,34,35,36,37,38,39,40,41,42,43,44,45,46,47,48,49,50,51,52,53,54,55,56,57,58,59,60,61,62,63,64,65,66,67,68,69,70,71,72,73,74,75,76,77,78,79,80,81,82,83,84,85,86,87,88,89,90,91,92,93,94,95,96,97,98,99,100,101,102,103,104,105,106,107,108,109,110,111,112,113,114,115,116,117,118,119,120,121,122,123,124,125,126,127,128,129,130,131,132,133,134,135,136,137,138,139,140,141,142,143,144,145,146,147,148,149,150,151,152,153,154,155,156,157,158,159,160,161,162,163,164,165,166,167,168,169,170,171,172,173,174,175,176,177,178,179,180,181,182,183,184,185,186,187,188,189,190,191,192,193,194,195,196,197,198,199,200,201,202,203,204,205,206,207,208,209,210,211,212,213,214,215,216,217,218,219,220,221,222,223,224,225,226,227,228,229,230,231,232,233,234,235,236,237,238,239,240,241,242,243,244,245,246,247,248,249,250,251,252,253,254,255,256,257,258,259,260,261,262,263,264,265,266,267,268,269,270,271,272,273,274,275,276,277,278,279,280,281,282,283,284,285,286,287,288,289,290,291,292,293,294,295,296,297,298,299,300],"tree_info":[0,0,0,0,0,0,0,0,0,0,0,0,0,0,0,0,0,0,0,0,0,0,0,0,0,0,0,0,0,0,0,0,0,0,0,0,0,0,0,0,0,0,0,0,0,0,0,0,0,0,0,0,0,0,0,0,0,0,0,0,0,0,0,0,0,0,0,0,0,0,0,0,0,0,0,0,0,0,0,0,0,0,0,0,0,0,0,0,0,0,0,0,0,0,0,0,0,0,0,0,0,0,0,0,0,0,0,0,0,0,0,0,0,0,0,0,0,0,0,0,0,0,0,0,0,0,0,0,0,0,0,0,0,0,0,0,0,0,0,0,0,0,0,0,0,0,0,0,0,0,0,0,0,0,0,0,0,0,0,0,0,0,0,0,0,0,0,0,0,0,0,0,0,0,0,0,0,0,0,0,0,0,0,0,0,0,0,0,0,0,0,0,0,0,0,0,0,0,0,0,0,0,0,0,0,0,0,0,0,0,0,0,0,0,0,0,0,0,0,0,0,0,0,0,0,0,0,0,0,0,0,0,0,0,0,0,0,0,0,0,0,0,0,0,0,0,0,0,0,0,0,0,0,0,0,0,0,0,0,0,0,0,0,0,0,0,0,0,0,0,0,0,0,0,0,0,0,0,0,0,0,0,0,0,0,0,0,0,0,0,0,0,0,0,0,0,0,0,0,0],"trees":[{"base_weights":[5.995507E-1,-2.7719434E2,6.9944714E2,-8.0797095E2,6.1164417E2,5.2477325E2,1.3333073E3,-9.375397E2,-2.1313734E1,4.268585E2,1.2077308E3,3.469618E2,1.2367756E3,1.1319402E3,1.6656608E3,-1.0888073E3,-1.793164E1,2.2944994E2,-5.584544E2,1.7727768E2,1.101805E3,1.1634552E3,2.2597117E3,1.702344E2,1.2639917E3,1.0756477E3,1.7564164E3,1.0502699E3,2.0495156E3,7.601621E2,1.8239961E3,-1.1517383E3,-4.5319507E2,-1.3032846E2,9.2574146E2,7.172572E1,8.422985E2,-6.232134E2,6.9333624E2,7.896745E1,9.312709E2,1.200077E3,-6.4964035E1,1.2808906E3,6.1456036E2,1.770956E3,2.5470925E3,2.9382413E2,-2.1393005E2,1.1741317E3,2.2468418E3,7.3233575E2,1.4023556E3,2.0344167E3,1.0351292E3,1.2265219E3,6.0452924E2,2.6594922E3,1.6098328E3,1.3678177E3,-2.9286523E2,2.2281477E3,1.630471E3,-6.077118E1,-2.471588E1,-4.2829137E0,-3.349217E1,-1.0833114E1,5.7684376E1,5.3620815E1,-9.309692E1,-5.0301094E0,4.0046932E1,5.0239536E1,-7.341244E1,-3.8553116E1,-2.65401E0,9.255577E1,-1.3825557E1,-5.519264E0,1.888455E1,2.813357E1,7.367004E1,2.7891562E1,6.623397E1,-4.818334E1,1.9469172E1,5.4610756E1,7.818696E1,9.438493E1,2.522661E1,1.0159231E2,2.838648E1,8.347017E1,1.386388E2,-6.1301727E0,3.0707594E1,-1.6014858E1,5.4039593E1,6.919441E1,4.1710472E1,9.1202354E1,1.27772705E2,1.049501E1,5.0131393E1,8.473246E1,4.394607E1,4.734352E1,1.04194786E2,-3.5557644E1,8.5704155E1,5.305384E1,9.044821E1,8.674929E1,2.4248108E1,9.1454765E1,1.4061488E2,-8.570126E1,8.431011E1,8.539752E1,-6.743832E1,-3.2426647E1,4.250216E0,9.787727E1,1.4789964E2,8.771145E1,4.1529915E1],"categories":[],"categories_nodes":[],"categories_segments":[],"categories_sizes":[],"default_left":[0,0,0,0,0,0,0,0,0,0,0,0,0,0,0,0,0,0,0,0,0,0,0,0,0,0,0,0,0,0,0,0,0,0,0,0,0,0,0,0,0,0,0,0,0,0,0,0,0,0,0,0,0,0,0,0,0,0,0,0,0,0,0,0,0,0,0,0,0,0,0,0,0,0,0,0,0,0,0,0,0,0,0,0,0,0,0,0,0,0,0,0,0,0,0,0,0,0,0,0,0,0,0,0,0,0,0,0,0,0,0,0,0,0,0,0,0,0,0,0,0,0,0,0,0,0,0],"id":0,"left_children":[1,3,5,7,9,11,13,15,17,19,21,23,25,27,29,31,33,35,37,39,41,43,45,47,49,51,53,55,57,59,61,63,65,67,69,71,73,75,77,79,81,83,85,87,89,91,93,95,97,99,101,103,105,107,109,111,113,115,117,119,121,123,125,-1,-1,-1,-1,-1,-1,-1,-1,-1,-1,-1,-1,-1,-1,-1,-1,-1,-1,-1,-1,-1,-1,-1,-1,-1,-1,-1,-1,-1,-1,-1,-1,-1,-1,-1,-1,-1,-1,-1,-1,-1,-1,-1,-1,-1,-1,-1,-1,-1,-1,-1,-1,-1,-1,-1,-1,-1,-1,-1,-1,-1,-1,-1,-1],"loss_changes":[7.250755E11,1.2608406E12,1.1762087E11,1.7055456E11,1.1006332E11,1.0543895E11,1.5357772E10,1.9985243E11,3.1873632E10,1.2849227E11,1.1010867E10,1.0800186E11,1.3932741E10,1.0708009E10,1.2412928E10,4.934861E10,2.152523E10,1.5593496E10,6.1056553E9,4.1277452E10,2.3610409E10,1.4625767E10,1.3367296E9,2.6528264E10,9.507373E9,1.4247887E10,7.896097E9,1.0309829E10,3.1282504E9,8.247789E9,5.7607127E9,4.700032E10,8.850237E9,2.0102842E10,8.833452E9,1.6123117E10,1.2398696E10,6.036138E9,4.1607414E9,2.7865283E10,1.2834574E10,1.5197602E10,6.5323233E9,9.973465E9,5.6013087E9,1.1097733E9,1.1860337E9,5.639062E10,1.8729695E10,7.0334054E9,1.172136E9,8.74734E9,9.95736E9,1.5278735E9,1.2995887E10,9.060942E9,5.026093E9,6.1546906E8,1.7264722E9,7.5541463E9,6.34001E8,4.7067054E9,4.9322394E9,0E0,0E0,0E0,0E0,0E0,0E0,0E0,0E0,0E0,0E0,0E0,0E0,0E0,0E0,0E0,0E0,0E0,0E0,0E0,0E0,0E0,0E0,0E0,0E0,0E0,0E0,0E0,0E0,0E0,0E0,0E0,0E0,0E0,0E0,0E0,0E0,0E0,0E0,0E0,0E0,0E0,0E0,0E0,0E0,0E0,0E0,0E0,0E0,0E0,0E0,0E0,0E0,0E0,0E0,0E0,0E0,0E0,0E0,0E0,0E0,0E0,0E0,0E0,0E0],"parents":[2147483647,0,0,1,1,2,2,3,3,4,4,5,5,6,6,7,7,8,8,9,9,10,10,11,11,12,12,13,13,14,14,15,15,16,16,17,17,18,18,19,19,20,20,21,21,22,22,23,23,24,24,25,25,26,26,27,27,28,28,29,29,30,30,31,31,32,32,33,33,34,34,35,35,36,36,37,37,38,38,39,39,40,40,41,41,42,42,43,43,44,44,45,45,46,46,47,47,48,48,49,49,50,50,51,51,52,52,53,53,54,54,55,55,56,56,57,57,58,58,59,59,60,60,61,61,62,62],"right_children":[2,4,6,8,10,12,14,16,18,20,22,24,26,28,30,32,34,36,38,40,42,44,46,48,50,52,54,56,58,60,62,64,66,68,70,72,74,76,78,80,82,84,86,88,90,92,94,96,98,100,102,104,106,108,110,112,114,116,118,120,122,124,126,-1,-1,-1,-1,-1,-1,-1,-1,-1,-1,-1,-1,-1,-1,-1,-1,-1,-1,-1,-1,-1,-1,-1,-1,-1,-1,-1,-1,-1,-1,-1,-1,-1,-1,-1,-1,-1,-1,-1,-1,-1,-1,-1,-1,-1,-1,-1,-1,-1,-1,-1,-1,-1,-1,-1,-1,-1,-1,-1,-1,-1,-1,-1,-1],"split_conditions":[1E0,1E0,1.0361455E4,8.66124E2,9.913787E3,9.273681E3,1.3556619E4,1.34079E2,3.370196E1,9.287111E3,1.6655645E4,1.0361455E4,1.4298278E4,1.6655645E4,7.67141E2,1E0,8.141077E3,1.1187388E4,8.1307E1,9.355232E3,3.5998306E1,4.9964745E1,1.6836975E4,3.560304E1,1.6655645E4,5.692478E3,2.8608622E1,4.844605E1,4.5245083E1,5.1467457E1,4.89402E1,1.348161E3,3.3461018E1,1.1603896E4,1.7090844E4,7.2706E2,6.1975E1,5.234141E3,6.0127117E1,2.21436E2,1.0497048E4,4.2133106E1,1E0,1.368826E4,4.824358E1,5.8495934E1,5.5329056E1,1.2964103E1,1E0,5.221051E1,2.42E1,1.317902E3,5.2202034E1,4.40029E3,2.9858109E1,1.3925941E4,5.4342907E1,1.6347494E4,5.2497967E1,1.1281085E4,3.4847057E1,2.3831972E1,4.9966892E1,-6.077118E1,-2.471588E1,-4.2829137E0,-3.349217E1,-1.0833114E1,5.7684376E1,5.3620815E1,-9.309692E1,-5.0301094E0,4.0046932E1,5.0239536E1,-7.341244E1,-3.8553116E1,-2.65401E0,9.255577E1,-1.3825557E1,-5.519264E0,1.888455E1,2.813357E1,7.367004E1,2.7891562E1,6.623397E1,-4.818334E1,1.9469172E1,5.4610756E1,7.818696E1,9.438493E1,2.522661E1,1.0159231E2,2.838648E1,8.347017E1,1.386388E2,-6.1301727E0,3.0707594E1,-1.6014858E1,5.4039593E1,6.919441E1,4.1710472E1,9.1202354E1,1.27772705E2,1.049501E1,5.0131393E1,8.473246E1,4.394607E1,4.734352E1,1.04194786E2,-3.5557644E1,8.5704155E1,5.305384E1,9.044821E1,8.674929E1,2.4248108E1,9.1454765E1,1.4061488E2,-8.570126E1,8.431011E1,8.539752E1,-6.743832E1,-3.2426647E1,4.250216E0,9.787727E1,1.4789964E2,8.771145E1,4.1529915E1],"split_indices":[477,247,450,175,190,75,475,415,451,295,130,375,95,405,45,332,310,100,75,155,61,116,140,276,355,475,401,371,11,81,26,85,101,0,355,295,116,300,101,340,115,311,362,195,236,196,136,281,362,441,131,165,111,35,401,420,456,400,426,395,196,246,396,0,0,0,0,0,0,0,0,0,0,0,0,0,0,0,0,0,0,0,0,0,0,0,0,0,0,0,0,0,0,0,0,0,0,0,0,0,0,0,0,0,0,0,0,0,0,0,0,0,0,0,0,0,0,0,0,0,0,0,0,0,0,0,0],"split_type":[0,0,0,0,0,0,0,0,0,0,0,0,0,0,0,0,0,0,0,0,0,0,0,0,0,0,0,0,0,0,0,0,0,0,0,0,0,0,0,0,0,0,0,0,0,0,0,0,0,0,0,0,0,0,0,0,0,0,0,0,0,0,0,0,0,0,0,0,0,0,0,0,0,0,0,0,0,0,0,0,0,0,0,0,0,0,0,0,0,0,0,0,0,0,0,0,0,0,0,0,0,0,0,0,0,0,0,0,0,0,0,0,0,0,0,0,0,0,0,0,0,0,0,0,0,0,0],"sum_hessian":[3.73489E6,2.672546E6,1.062344E6,1.673314E6,9.99232E5,8.32839E5,2.29505E5,1.436681E6,2.36633E5,7.62775E5,2.36457E5,6.66414E5,1.66425E5,1.42918E5,8.6587E4,1.233741E6,2.0294E5,1.61321E5,7.5312E4,5.56861E5,2.05914E5,2.26909E5,9.548E3,5.58737E5,1.07677E5,1.27037E5,3.9388E4,1.31239E5,1.1679E4,1.2888E4,7.3699E4,1.122594E6,1.11147E5,1.81342E5,2.1598E4,1.28302E5,3.3019E4,7.1608E4,3.704E3,4.9263E5,6.4231E4,1.89918E5,1.5996E4,1.86917E5,3.9992E4,3.538E3,6.01E3,4.22738E5,1.35999E5,9.8659E4,9.018E3,6.1946E4,6.5091E4,2.8429E4,1.0959E4,9.4049E4,3.719E4,4.89E3,6.789E3,8.172E3,4.716E3,2.386E4,4.9839E4,1.02345E6,9.9144E4,4.122E4,6.9927E4,1.69918E5,1.1424E4,2.0519E4,1.079E3,1.03778E5,2.4524E4,3.085E4,2.169E3,5.6862E4,1.4746E4,1.688E3,2.016E3,3.01511E5,1.91119E5,3.8236E4,2.5995E4,3.086E4,1.59058E5,5.371E3,1.0625E4,1.12127E5,7.479E4,3.18E3,3.6812E4,2.907E3,6.31E2,1.231E3,4.779E3,1.83799E5,2.38939E5,1.25675E5,1.0324E4,6.1009E4,3.765E4,3.808E3,5.21E3,2.1122E4,4.0824E4,4.1766E4,2.3325E4,1.238E3,2.7191E4,3.068E3,7.891E3,7.3246E4,2.0803E4,3.556E3,3.3634E4,7.62E2,4.128E3,1.52E2,6.637E3,7.263E3,9.09E2,2.429E3,2.287E3,1.7409E4,6.451E3,4.316E4,6.679E3],"tree_param":{"num_deleted":"0","num_feature":"480","num_nodes":"127","size_leaf_vector":"1"}},{"base_weights":[-2.265468E-1,-2.6282233E2,6.669664E2,-7.682697E2,5.817464E2,4.9534344E2,1.2457644E3,-9.0123553E2,-7.774658E1,4.079633E2,1.1443998E3,3.034104E2,1.1719873E3,1.0422715E3,1.5633893E3,-1.0541671E3,-6.6245834E1,-2.2864214E2,6.2698193E2,1.7784903E2,1.0612019E3,5.8943024E2,1.2223839E3,1.6433206E2,1.1225504E3,9.5482385E2,1.5617058E3,6.851749E2,1.3596968E3,1.752098E3,1.1159719E3,-1.1062505E3,-4.4133655E2,-2.0910625E2,6.561586E2,-2.6487024E2,1.4319424E3,3.3811157E2,1.4293755E3,7.368405E1,9.2670154E2,1.1229042E3,-8.332032E1,2.7862155E2,1.6193075E3,1.3395569E3,8.755387E2,7.380803E1,8.0456055E2,1.2603424E3,2.0374432E1,8.325898E2,1.7451465E3,1.8261545E3,8.534877E2,8.363408E2,2.864049E2,1.6689052E3,9.8103174E2,1.6641641E3,2.8166133E3,4.39418E2,1.5802039E3,-5.7730965E1,-1.9641066E1,-2.8705881E1,5.2633286E0,-1.6891E1,2.3997252E1,4.3285984E1,-4.0171917E1,-3.936373E-1,-2.4185715E1,-4.390491E1,7.9483284E1,2.2163698E1,-6.979897E1,3.619946E1,1.0684973E2,9.050226E0,-2.3838335E1,5.854903E1,1.9259905E-2,4.6635357E1,7.308542E1,1.02240925E1,-6.457893E1,4.226481E1,-8.905471E0,5.5028088E1,1.3634972E2,6.932049E1,-7.002454E1,-6.752834E0,5.3608173E1,7.788504E0,-2.2455952E1,5.651607E1,-2.5754322E1,2.5972763E1,7.004325E1,-2.1928324E1,4.8166782E1,2.8748823E1,5.834611E1,9.993346E1,5.2528522E1,9.4005806E1,5.0669384E1,-2.0214611E1,6.833569E1,1.9681953E1,5.890159E1,8.3166245E1,7.6610007E0,8.538709E1,-9.339462E1,3.8306293E1,1.16833855E2,8.40566E1,-8.2670555E1,1.287106E2,1.4846446E2,-2.3111433E1,4.6428265E1,1.0917565E2,5.5176723E1],"categories":[],"categories_nodes":[],"categories_segments":[],"categories_sizes":[],"default_left":[0,0,0,0,0,0,0,0,0,0,0,0,0,0,0,0,0,0,0,0,0,0,0,0,0,0,0,0,0,0,0,0,0,0,0,0,0,0,0,0,0,0,0,0,0,0,0,0,0,0,0,0,0,0,0,0,0,0,0,0,0,0,0,0,0,0,0,0,0,0,0,0,0,0,0,0,0,0,0,0,0,0,0,0,0,0,0,0,0,0,0,0,0,0,0,0,0,0,0,0,0,0,0,0,0,0,0,0,0,0,0,0,0,0,0,0,0,0,0,0,0,0,0,0,0,0,0],"id":1,"left_children":[1,3,5,7,9,11,13,15,17,19,21,23,25,27,29,31,33,35,37,39,41,43,45,47,49,51,53,55,57,59,61,63,65,67,69,71,73,75,77,79,81,83,85,87,89,91,93,95,97,99,101,103,105,107,109,111,113,115,117,119,121,123,125,-1,-1,-1,-1,-1,-1,-1,-1,-1,-1,-1,-1,-1,-1,-1,-1,-1,-1,-1,-1,-1,-1,-1,-1,-1,-1,-1,-1,-1,-1,-1,-1,-1,-1,-1,-1,-1,-1,-1,-1,-1,-1,-1,-1,-1,-1,-1,-1,-1,-1,-1,-1,-1,-1,-1,-1,-1,-1,-1,-1,-1,-1,-1,-1],"loss_changes":[6.5450784E11,1.1443372E12,1.0480429E11,1.5397762E11,9.8135605E10,1.0568435E11,1.5594324E10,1.7957152E11,2.8795423E10,1.15266E11,1.0249339E10,7.2222335E10,1.5217295E10,1.667013E10,7.953367E9,3.7936038E10,2.2466294E10,1.341783E10,1.1068539E10,4.423261E10,1.4106673E10,9.340556E9,8.438219E9,3.1408534E10,1.3974077E10,1.1154227E10,1.2049449E10,4.1720115E9,9.114829E9,6.1985587E9,8.779039E9,3.7801034E10,6.7572675E9,1.6119462E10,1.0994444E10,1.2275963E10,1.7364163E9,6.40423E9,6.308143E9,2.940809E10,1.5668728E10,1.2212257E10,3.5538125E9,5.8023286E9,3.8842204E9,1.9928711E10,1.0420396E10,2.0350292E10,2.886078E10,8.514339E9,4.4258616E9,8.613216E9,2.721497E9,2.0528497E9,1.129467E10,7.59133E9,3.4890102E9,5.8903183E9,1.0195562E10,3.4487337E9,1.7943347E8,5.0181187E9,4.7650734E9,0E0,0E0,0E0,0E0,0E0,0E0,0E0,0E0,0E0,0E0,0E0,0E0,0E0,0E0,0E0,0E0,0E0,0E0,0E0,0E0,0E0,0E0,0E0,0E0,0E0,0E0,0E0,0E0,0E0,0E0,0E0,0E0,0E0,0E0,0E0,0E0,0E0,0E0,0E0,0E0,0E0,0E0,0E0,0E0,0E0,0E0,0E0,0E0,0E0,0E0,0E0,0E0,0E0,0E0,0E0,0E0,0E0,0E0,0E0,0E0,0E0,0E0,0E0,0E0],"parents":[2147483647,0,0,1,1,2,2,3,3,4,4,5,5,6,6,7,7,8,8,9,9,10,10,11,11,12,12,13,13,14,14,15,15,16,16,17,17,18,18,19,19,20,20,21,21,22,22,23,23,24,24,25,25,26,26,27,27,28,28,29,29,30,30,31,31,32,32,33,33,34,34,35,35,36,36,37,37,38,38,39,39,40,40,41,41,42,42,43,43,44,44,45,45,46,46,47,47,48,48,49,49,50,50,51,51,52,52,53,53,54,54,55,55,56,56,57,57,58,58,59,59,60,60,61,61,62,62],"right_children":[2,4,6,8,10,12,14,16,18,20,22,24,26,28,30,32,34,36,38,40,42,44,46,48,50,52,54,56,58,60,62,64,66,68,70,72,74,76,78,80,82,84,86,88,90,92,94,96,98,100,102,104,106,108,110,112,114,116,118,120,122,124,126,-1,-1,-1,-1,-1,-1,-1,-1,-1,-1,-1,-1,-1,-1,-1,-1,-1,-1,-1,-1,-1,-1,-1,-1,-1,-1,-1,-1,-1,-1,-1,-1,-1,-1,-1,-1,-1,-1,-1,-1,-1,-1,-1,-1,-1,-1,-1,-1,-1,-1,-1,-1,-1,-1,-1,-1,-1,-1,-1,-1,-1,-1,-1,-1],"split_conditions":[1.34079E2,1E0,9.932147E3,2.68255E2,9.913787E3,9.039168E3,1.2576707E4,9.04937E2,1.972446E3,9.287111E3,8.1307E1,9.239575E3,1.3684537E4,1.0104464E4,5.6721577E1,1.814926E3,1.0418149E4,1.4938742E4,2.654055E1,9.273681E3,3.6732075E1,3.1313208E1,2.8618708E1,1.0361455E4,5.0954082E1,1.4298278E4,2.8603704E1,5.0493244E1,5.221051E1,6.0540676E1,1.4403727E4,2.66588E2,9.041936E3,8.63066E2,6.1975E1,3.4286274E1,8.4617E1,5.8895607E1,9.659259E-1,3.599356E1,4.235085E1,1.3688627E4,5.7395607E1,2.9435593E1,5.8895607E1,6.1975E1,3.171661E1,5.049322E1,4.4766556E1,4.2135136E1,1.307226E4,5.623001E3,5.123627E1,3.439729E1,2.9857693E1,4.4458645E1,3.8777702E1,1.6655645E4,1.6655645E4,1.5671858E4,5.806729E3,2.655E1,5.1474323E1,-5.7730965E1,-1.9641066E1,-2.8705881E1,5.2633286E0,-1.6891E1,2.3997252E1,4.3285984E1,-4.0171917E1,-3.936373E-1,-2.4185715E1,-4.390491E1,7.9483284E1,2.2163698E1,-6.979897E1,3.619946E1,1.0684973E2,9.050226E0,-2.3838335E1,5.854903E1,1.9259905E-2,4.6635357E1,7.308542E1,1.02240925E1,-6.457893E1,4.226481E1,-8.905471E0,5.5028088E1,1.3634972E2,6.932049E1,-7.002454E1,-6.752834E0,5.3608173E1,7.788504E0,-2.2455952E1,5.651607E1,-2.5754322E1,2.5972763E1,7.004325E1,-2.1928324E1,4.8166782E1,2.8748823E1,5.834611E1,9.993346E1,5.2528522E1,9.4005806E1,5.0669384E1,-2.0214611E1,6.833569E1,1.9681953E1,5.890159E1,8.3166245E1,7.6610007E0,8.538709E1,-9.339462E1,3.8306293E1,1.16833855E2,8.40566E1,-8.2670555E1,1.287106E2,1.4846446E2,-2.3111433E1,4.6428265E1,1.0917565E2,5.5176723E1],"split_indices":[475,242,440,385,190,75,475,160,275,300,150,365,55,390,6,85,85,5,156,135,61,461,476,470,31,100,386,381,471,466,0,310,5,270,111,166,415,336,198,26,316,285,431,386,281,201,391,341,181,381,470,475,56,421,386,461,36,440,390,375,5,301,426,0,0,0,0,0,0,0,0,0,0,0,0,0,0,0,0,0,0,0,0,0,0,0,0,0,0,0,0,0,0,0,0,0,0,0,0,0,0,0,0,0,0,0,0,0,0,0,0,0,0,0,0,0,0,0,0,0,0,0,0,0,0,0,0],"split_type":[0,0,0,0,0,0,0,0,0,0,0,0,0,0,0,0,0,0,0,0,0,0,0,0,0,0,0,0,0,0,0,0,0,0,0,0,0,0,0,0,0,0,0,0,0,0,0,0,0,0,0,0,0,0,0,0,0,0,0,0,0,0,0,0,0,0,0,0,0,0,0,0,0,0,0,0,0,0,0,0,0,0,0,0,0,0,0,0,0,0,0,0,0,0,0,0,0,0,0,0,0,0,0,0,0,0,0,0,0,0,0,0,0,0,0,0,0,0,0,0,0,0,0,0,0,0,0],"sum_hessian":[3.73573E6,2.680666E6,1.055064E6,1.677022E6,1.003644E6,8.1377E5,2.41294E5,1.406239E6,2.70783E5,7.66807E5,2.36837E5,6.33949E5,1.79821E5,1.47073E5,9.4221E4,1.188551E6,2.17688E5,2.23029E5,4.7754E4,5.67054E5,1.99753E5,2.9181E4,2.07656E5,5.41937E5,9.2012E4,1.15477E5,6.4344E4,6.9213E4,7.786E4,6.6268E4,2.7953E4,1.09545E6,9.3101E4,1.81747E5,3.5941E4,2.18268E5,4.761E3,3.5114E4,1.264E4,4.9781E5,6.9244E4,1.89535E5,1.0218E4,2.2417E4,6.764E3,1.55217E5,5.2439E4,4.74804E5,6.7133E4,8.1787E4,1.0225E4,1.00011E5,1.5466E4,4.6849E4,1.7495E4,5.0187E4,1.9026E4,4.2859E4,3.5001E4,6.1214E4,5.054E3,1.1376E4,1.6577E4,1.025896E6,6.9554E4,7.4905E4,1.8196E4,1.53141E5,2.8606E4,3.1429E4,4.512E3,1.00384E5,1.17884E5,3.04E2,4.457E3,3.3107E4,2.007E3,6.331E3,6.309E3,4.16589E5,8.1221E4,5.4794E4,1.445E4,1.21392E5,6.8143E4,8.253E3,1.965E3,1.0004E4,1.2413E4,4.608E3,2.156E3,1.52608E5,2.609E3,8.541E3,4.3898E4,4.10469E5,6.4335E4,5.3842E4,1.3291E4,1.304E4,6.8747E4,6.878E3,3.347E3,5.6488E4,4.3523E4,1.1329E4,4.137E3,4.3931E4,2.918E3,5.07E3,1.2425E4,2.1863E4,2.8324E4,1.677E3,1.7349E4,4.2394E4,4.65E2,3.0213E4,4.788E3,6.0903E4,3.11E2,1.96E3,3.094E3,4.001E3,7.375E3,7.315E3,9.262E3],"tree_param":{"num_deleted":"0","num_feature":"480","num_nodes":"127","size_leaf_vector":"1"}},{"base_weights":[-1.3857057E0,-2.5059521E2,6.2563055E2,-7.308677E2,5.498207E2,4.7411203E2,1.1867552E3,-8.35448E2,4.8231728E1,3.8395212E2,1.0867007E3,3.189588E2,1.1394772E3,1.0097839E3,1.4751727E3,-9.776244E2,-6.3393364E1,2.8120987E2,-3.773201E2,1.6347739E2,1.012441E3,5.630711E2,1.1602971E3,1.5953458E2,1.1505204E3,9.20577E2,1.499514E3,9.295335E2,1.8933534E3,1.7472568E3,9.460273E2,-1.0402366E3,-3.7280832E2,1.5542447E2,-5.2326196E2,-1.5012727E2,6.070438E2,-4.9830438E2,1.1103456E3,6.2723896E1,8.857326E2,1.0703029E3,-2.0152399E2,3.0982877E2,1.7795203E3,5.98305E2,1.232286E3,7.9754326E1,7.276485E2,1.0631324E3,2.107194E3,7.9460486E2,1.518617E3,1.7490898E3,8.3083124E2,1.0868864E3,4.5883066E2,2.3450413E3,1.3368545E3,1.6215593E3,2.2877688E3,2.1619818E2,1.6900903E3,-7.012423E1,-4.7558712E1,-3.0408894E1,2.20726E0,-1.2727595E1,1.6965021E1,-2.9404953E1,4.1207508E1,-1.3126381E1,3.0323124E1,3.2688946E1,-5.8376858E1,-2.704863E1,7.437174E1,3.553372E1,1.1049662E2,-5.319093E0,1.9614073E1,5.5563404E1,2.605344E0,3.7401688E1,6.2965343E1,6.757627E0,-6.008575E1,2.0619219E1,-9.346333E1,1.062916E2,-8.305584E1,2.4998106E1,9.980957E1,6.950228E1,4.125453E1,7.969013E0,-1.5417241E1,5.2286182E1,-2.275781E1,6.450236E1,3.7463142E1,8.746455E1,1.18490005E2,7.5132766E0,4.3452362E1,8.8105515E1,5.292281E1,8.224752E1,1.0540246E2,-5.420013E1,6.669517E1,4.5851414E1,7.735842E1,5.792392E0,4.2070343E1,5.8842194E1,1.21615166E2,9.497619E1,3.1586454E1,2.4303148E1,8.5803734E1,1.16945496E2,-5.2668587E1,-3.03262E1,1.904966E1,9.092936E1,-9.9298E0],"categories":[],"categories_nodes":[],"categories_segments":[],"categories_sizes":[],"default_left":[0,0,0,0,0,0,0,0,0,0,0,0,0,0,0,0,0,0,0,0,0,0,0,0,0,0,0,0,0,0,0,0,0,0,0,0,0,0,0,0,0,0,0,0,0,0,0,0,0,0,0,0,0,0,0,0,0,0,0,0,0,0,0,0,0,0,0,0,0,0,0,0,0,0,0,0,0,0,0,0,0,0,0,0,0,0,0,0,0,0,0,0,0,0,0,0,0,0,0,0,0,0,0,0,0,0,0,0,0,0,0,0,0,0,0,0,0,0,0,0,0,0,0,0,0,0,0],"id":2,"left_children":[1,3,5,7,9,11,13,15,17,19,21,23,25,27,29,31,33,35,37,39,41,43,45,47,49,51,53,55,57,59,61,63,65,67,69,71,73,75,77,79,81,83,85,87,89,91,93,95,97,99,101,103,105,107,109,111,113,115,117,119,121,123,125,-1,-1,-1,-1,-1,-1,-1,-1,-1,-1,-1,-1,-1,-1,-1,-1,-1,-1,-1,-1,-1,-1,-1,-1,-1,-1,-1,-1,-1,-1,-1,-1,-1,-1,-1,-1,-1,-1,-1,-1,-1,-1,-1,-1,-1,-1,-1,-1,-1,-1,-1,-1,-1,-1,-1,-1,-1,-1,-1,-1,-1,-1,-1,-1],"loss_changes":[5.836926E11,1.0275597E12,9.0325746E10,1.3611899E11,8.926626E10,8.635679E10,1.1527913E10,1.6167738E11,1.9602119E10,1.0611625E11,9.117139E9,8.9928606E10,1.2465046E10,9.924477E9,1.236453E10,4.710256E10,2.3049703E10,1.795673E10,1.2590086E10,4.125587E10,1.3970145E10,8.981756E9,8.3917865E9,2.5799287E10,9.121055E9,7.4098524E9,9.979544E9,9.504891E9,2.92651E9,3.8501745E9,1.5840078E10,3.636383E10,1.1451573E10,1.1700408E10,6.4523653E9,4.6758804E9,6.037113E9,5.481687E9,2.3104973E9,2.7727653E10,1.304893E10,1.1561861E10,3.04733E9,5.394422E9,5.989797E9,3.2374328E9,1.1811422E10,1.5424418E10,2.6370548E10,7.1209124E9,8.542454E8,3.897557E9,1.9158057E9,1.6245555E9,1.5661804E10,7.5183473E9,4.2191872E9,6.528123E8,2.0714332E9,4.9386455E9,1.8307686E9,1.9969252E9,3.5057787E9,0E0,0E0,0E0,0E0,0E0,0E0,0E0,0E0,0E0,0E0,0E0,0E0,0E0,0E0,0E0,0E0,0E0,0E0,0E0,0E0,0E0,0E0,0E0,0E0,0E0,0E0,0E0,0E0,0E0,0E0,0E0,0E0,0E0,0E0,0E0,0E0,0E0,0E0,0E0,0E0,0E0,0E0,0E0,0E0,0E0,0E0,0E0,0E0,0E0,0E0,0E0,0E0,0E0,0E0,0E0,0E0,0E0,0E0,0E0,0E0,0E0,0E0,0E0,0E0],"parents":[2147483647,0,0,1,1,2,2,3,3,4,4,5,5,6,6,7,7,8,8,9,9,10,10,11,11,12,12,13,13,14,14,15,15,16,16,17,17,18,18,19,19,20,20,21,21,22,22,23,23,24,24,25,25,26,26,27,27,28,28,29,29,30,30,31,31,32,32,33,33,34,34,35,35,36,36,37,37,38,38,39,39,40,40,41,41,42,42,43,43,44,44,45,45,46,46,47,47,48,48,49,49,50,50,51,51,52,52,53,53,54,54,55,55,56,56,57,57,58,58,59,59,60,60,61,61,62,62],"right_children":[2,4,6,8,10,12,14,16,18,20,22,24,26,28,30,32,34,36,38,40,42,44,46,48,50,52,54,56,58,60,62,64,66,68,70,72,74,76,78,80,82,84,86,88,90,92,94,96,98,100,102,104,106,108,110,112,114,116,118,120,122,124,126,-1,-1,-1,-1,-1,-1,-1,-1,-1,-1,-1,-1,-1,-1,-1,-1,-1,-1,-1,-1,-1,-1,-1,-1,-1,-1,-1,-1,-1,-1,-1,-1,-1,-1,-1,-1,-1,-1,-1,-1,-1,-1,-1,-1,-1,-1,-1,-1,-1,-1,-1,-1,-1,-1,-1,-1,-1,-1,-1,-1,-1,-1,-1,-1],"split_conditions":[1E0,1E0,1.0439348E4,1.34079E2,9.913787E3,9.039168E3,1.3556619E4,9.04937E2,3.4288395E1,9.287111E3,8.1307E1,1.0361455E4,1.3684537E4,1.6655645E4,5.1717228E1,2.66588E2,3.3814518E1,1.501E1,5.568174E3,9.273681E3,3.8091526E1,8.1307E1,4.2119324E1,1.0361455E4,1.6655645E4,1.3684537E4,2.8593334E1,5.3291553E1,4.773559E1,2.7761017E1,1.4521473E4,2.0458363E1,7.933534E-1,9.211595E0,8.1307E1,1.0189087E4,6.1434578E1,1.3044326E4,1.4648037E4,6.67527E2,4.2133106E1,1.1551301E4,5.7395607E1,1.1615779E4,6.457466E1,4.076276E3,2.8618708E1,3.842373E1,4.4766556E1,5.221051E1,2.4187037E1,9.489855E0,3.5224316E1,4.6371E2,3.2128845E1,1.3694405E4,2.7049057E1,5.301461E3,3.3068966E1,8.1307E1,9.912137E3,2.4433962E1,3.5738434E1,-7.012423E1,-4.7558712E1,-3.0408894E1,2.20726E0,-1.2727595E1,1.6965021E1,-2.9404953E1,4.1207508E1,-1.3126381E1,3.0323124E1,3.2688946E1,-5.8376858E1,-2.704863E1,7.437174E1,3.553372E1,1.1049662E2,-5.319093E0,1.9614073E1,5.5563404E1,2.605344E0,3.7401688E1,6.2965343E1,6.757627E0,-6.008575E1,2.0619219E1,-9.346333E1,1.062916E2,-8.305584E1,2.4998106E1,9.980957E1,6.950228E1,4.125453E1,7.969013E0,-1.5417241E1,5.2286182E1,-2.275781E1,6.450236E1,3.7463142E1,8.746455E1,1.18490005E2,7.5132766E0,4.3452362E1,8.8105515E1,5.292281E1,8.224752E1,1.0540246E2,-5.420013E1,6.669517E1,4.5851414E1,7.735842E1,5.792392E0,4.2070343E1,5.8842194E1,1.21615166E2,9.497619E1,3.1586454E1,2.4303148E1,8.5803734E1,1.16945496E2,-5.2668587E1,-3.03262E1,1.904966E1,9.092936E1,-9.9298E0],"split_indices":[472,237,445,420,185,80,470,160,201,295,145,370,50,400,61,330,436,246,355,130,41,350,201,470,350,105,356,381,1,266,20,151,9,476,65,345,396,10,320,335,311,280,426,280,266,75,476,266,181,431,121,406,256,195,271,420,231,345,306,65,65,306,306,0,0,0,0,0,0,0,0,0,0,0,0,0,0,0,0,0,0,0,0,0,0,0,0,0,0,0,0,0,0,0,0,0,0,0,0,0,0,0,0,0,0,0,0,0,0,0,0,0,0,0,0,0,0,0,0,0,0,0,0,0,0,0,0],"split_type":[0,0,0,0,0,0,0,0,0,0,0,0,0,0,0,0,0,0,0,0,0,0,0,0,0,0,0,0,0,0,0,0,0,0,0,0,0,0,0,0,0,0,0,0,0,0,0,0,0,0,0,0,0,0,0,0,0,0,0,0,0,0,0,0,0,0,0,0,0,0,0,0,0,0,0,0,0,0,0,0,0,0,0,0,0,0,0,0,0,0,0,0,0,0,0,0,0,0,0,0,0,0,0,0,0,0,0,0,0,0,0,0,0,0,0,0,0,0,0,0,0,0,0,0,0,0,0],"sum_hessian":[3.735429E6,2.673027E6,1.062402E6,1.670612E6,1.002415E6,8.36521E5,2.25881E5,1.472901E6,1.97711E5,7.65818E5,2.36597E5,6.78343E5,1.58178E5,1.39989E5,8.5892E4,1.243843E6,2.29058E5,1.27764E5,6.9947E4,5.66937E5,1.98881E5,2.9157E4,2.0744E5,5.69216E5,1.09127E5,9.8372E4,5.9806E4,1.28335E5,1.1654E4,5.6723E4,2.9169E4,1.127156E6,1.16687E5,1.55207E5,7.3851E4,5.4981E4,7.2783E4,6.4687E4,5.26E3,4.97533E5,6.9404E4,1.89833E5,9.048E3,2.4134E4,5.023E3,2.3556E4,1.83884E5,4.99125E5,7.0091E4,9.9995E4,9.132E3,8.1258E4,1.7114E4,4.355E4,1.6256E4,9.6181E4,3.2154E4,6.431E3,5.223E3,4.6024E4,1.0699E4,1.4726E4,1.4443E4,2.22432E5,9.04724E5,7.4584E4,4.2103E4,4.8057E4,1.0715E5,7.0461E4,3.39E3,4.787E4,7.111E3,7.0916E4,1.867E3,6.3327E4,1.36E3,3.859E3,1.401E3,3.28811E5,1.68722E5,5.4625E4,1.4779E4,7.0178E4,1.19655E5,6.77E3,2.278E3,2.305E4,1.084E3,4.564E3,4.59E2,2.2009E4,1.547E3,1.32534E5,5.135E4,4.14154E5,8.4971E4,5.5237E4,1.4854E4,5.8035E4,4.196E4,3.868E3,5.264E3,8.416E3,7.2842E4,1.119E4,5.924E3,3.3761E4,9.789E3,3.382E3,1.2874E4,7.0257E4,2.5924E4,1.6955E4,1.5199E4,4.48E2,5.983E3,2.904E3,2.319E3,3.537E3,4.2487E4,1.0538E4,1.61E2,2.457E3,1.2269E4,1.3523E4,9.2E2],"tree_param":{"num_deleted":"0","num_feature":"480","num_nodes":"127","size_leaf_vector":"1"}},{"base_weights":[2.2743024E-1,-2.3785829E2,6.055732E2,-6.945967E2,5.245196E2,4.578818E2,1.1480393E3,-7.997784E2,2.6618235E1,3.7269547E2,1.0707881E3,2.8079044E2,1.04182E3,9.887894E2,1.4261776E3,-9.348147E2,-4.601406E1,2.4506758E2,-3.6697284E2,1.7231131E2,9.735006E2,9.2658545E2,1.3590007E3,1.6243336E2,1.0247517E3,8.2700964E2,1.3844553E3,6.8418164E2,1.230923E3,1.8625612E3,1.2499556E3,-9.925959E2,-3.673583E2,1.7500955E2,-4.998503E2,-1.7144391E2,5.709008E2,-4.6610016E2,7.933757E2,6.728334E1,8.5304517E2,8.010958E2,1.2836289E3,6.8654956E2,1.3422294E3,1.4068264E3,-8.557062E2,7.708473E1,7.7549634E2,7.0006915E2,1.3692917E3,4.635417E2,1.3195138E3,1.2811967E3,2.1669878E3,8.4803674E2,2.7007437E2,1.2726023E3,-1.1436927E3,1.4003452E3,2.079587E3,1.4207562E3,7.674301E2,-5.2215557E1,-2.1807785E1,-2.7267668E1,3.893297E0,-8.238728E0,1.8889923E1,-2.8525568E1,4.112294E1,-2.665824E1,4.7038507E0,3.0233698E1,-9.402178E1,-2.5384932E1,6.943686E1,2.718928E1,9.730398E1,-6.5677223E0,1.7043686E1,2.6780481E1,6.330314E1,4.449613E1,4.6016965E0,6.6752174E1,-6.2217327E1,4.8919224E1,1.691611E1,7.051983E1,-4.761378E1,6.413691E1,1.0661236E2,-8.12707E1,1.2696478E1,-8.687636E0,1.0489206E1,5.0002842E1,-2.2019348E1,2.7359812E1,6.423867E1,8.0667336E1,4.6862347E1,-1.4384362E0,3.5283333E1,7.8991936E1,4.0936092E1,8.368719E1,4.809336E1,9.350463E1,1.2432869E2,2.015482E1,5.5790333E1,5.882491E1,2.9673078E0,6.492411E1,-6.655556E1,-8.633642E1,1.1164982E0,4.728859E1,7.591322E1,8.817716E1,1.2748318E2,2.4508127E1,7.727441E1,-8.000128E1,4.5841125E1],"categories":[],"categories_nodes":[],"categories_segments":[],"categories_sizes":[],"default_left":[0,0,0,0,0,0,0,0,0,0,0,0,0,0,0,0,0,0,0,0,0,0,0,0,0,0,0,0,0,0,0,0,0,0,0,0,0,0,0,0,0,0,0,0,0,0,0,0,0,0,0,0,0,0,0,0,0,0,0,0,0,0,0,0,0,0,0,0,0,0,0,0,0,0,0,0,0,0,0,0,0,0,0,0,0,0,0,0,0,0,0,0,0,0,0,0,0,0,0,0,0,0,0,0,0,0,0,0,0,0,0,0,0,0,0,0,0,0,0,0,0,0,0,0,0,0,0],"id":3,"left_children":[1,3,5,7,9,11,13,15,17,19,21,23,25,27,29,31,33,35,37,39,41,43,45,47,49,51,53,55,57,59,61,63,65,67,69,71,73,75,77,79,81,83,85,87,89,91,93,95,97,99,101,103,105,107,109,111,113,115,117,119,121,123,125,-1,-1,-1,-1,-1,-1,-1,-1,-1,-1,-1,-1,-1,-1,-1,-1,-1,-1,-1,-1,-1,-1,-1,-1,-1,-1,-1,-1,-1,-1,-1,-1,-1,-1,-1,-1,-1,-1,-1,-1,-1,-1,-1,-1,-1,-1,-1,-1,-1,-1,-1,-1,-1,-1,-1,-1,-1,-1,-1,-1,-1,-1,-1,-1],"loss_changes":[5.385611E11,9.3387725E11,8.450972E10,1.2722779E11,8.333348E10,8.573726E10,9.996894E9,1.4898397E11,1.8353918E10,9.465958E10,9.080865E9,5.6016556E10,1.4198899E10,1.0586522E10,6.317654E9,4.0700477E10,2.2307E10,1.863041E10,8.764029E9,4.215504E10,1.0513449E10,1.4530896E10,7.719805E9,2.8718223E10,9.766863E9,2.1227766E10,6.004474E9,4.3134935E9,7.916552E9,2.368389E9,4.824023E9,3.2419086E10,9.091181E9,1.0304792E10,6.805674E9,5.7872097E9,6.377814E9,5.416838E9,1.7242995E9,2.7759942E10,1.033182E10,7.9605514E9,9.133695E9,9.383105E9,8.3412746E9,6.4182845E9,1.3165736E9,1.6036654E10,1.8313732E10,4.017707E9,4.465246E9,8.133556E9,6.563414E9,8.2314936E9,8.1751245E8,5.4264525E9,3.442869E9,5.297709E9,9.382076E8,4.0358707E8,2.385019E9,5.01819E9,5.415597E9,0E0,0E0,0E0,0E0,0E0,0E0,0E0,0E0,0E0,0E0,0E0,0E0,0E0,0E0,0E0,0E0,0E0,0E0,0E0,0E0,0E0,0E0,0E0,0E0,0E0,0E0,0E0,0E0,0E0,0E0,0E0,0E0,0E0,0E0,0E0,0E0,0E0,0E0,0E0,0E0,0E0,0E0,0E0,0E0,0E0,0E0,0E0,0E0,0E0,0E0,0E0,0E0,0E0,0E0,0E0,0E0,0E0,0E0,0E0,0E0,0E0,0E0,0E0,0E0],"parents":[2147483647,0,0,1,1,2,2,3,3,4,4,5,5,6,6,7,7,8,8,9,9,10,10,11,11,12,12,13,13,14,14,15,15,16,16,17,17,18,18,19,19,20,20,21,21,22,22,23,23,24,24,25,25,26,26,27,27,28,28,29,29,30,30,31,31,32,32,33,33,34,34,35,35,36,36,37,37,38,38,39,39,40,40,41,41,42,42,43,43,44,44,45,45,46,46,47,47,48,48,49,49,50,50,51,51,52,52,53,53,54,54,55,55,56,56,57,57,58,58,59,59,60,60,61,61,62,62],"right_children":[2,4,6,8,10,12,14,16,18,20,22,24,26,28,30,32,34,36,38,40,42,44,46,48,50,52,54,56,58,60,62,64,66,68,70,72,74,76,78,80,82,84,86,88,90,92,94,96,98,100,102,104,106,108,110,112,114,116,118,120,122,124,126,-1,-1,-1,-1,-1,-1,-1,-1,-1,-1,-1,-1,-1,-1,-1,-1,-1,-1,-1,-1,-1,-1,-1,-1,-1,-1,-1,-1,-1,-1,-1,-1,-1,-1,-1,-1,-1,-1,-1,-1,-1,-1,-1,-1,-1,-1,-1,-1,-1,-1,-1,-1,-1,-1,-1,-1,-1,-1,-1,-1,-1,-1,-1,-1],"split_conditions":[1.34079E2,1E0,1.0266528E4,1.34079E2,1.0418953E4,9.041936E3,1.2576707E4,8.66124E2,3.4055103E1,9.287111E3,1.32718E2,1.0439348E4,1.2626248E4,1.0361455E4,4.89402E1,2.66588E2,3.357037E1,1.501E1,4.746836E3,9.355232E3,1.3688627E4,1.3684537E4,6.457466E1,1.0361455E4,1.0189087E4,8.068081E3,1.6836975E4,4.97034E1,6.457466E1,4.1620945E1,4.9966892E1,1.814926E3,8.660254E-1,1.212449E1,1E0,1.436279E3,1.6511459E4,1.3044326E4,6.385661E1,2.21436E2,9.711837E3,5.221051E1,6.457466E1,3.227647E1,6.457466E1,1.6655645E4,2.8049057E1,1.2964103E1,4.6363388E1,1.183271E4,5.221051E1,2.97113E2,5.2769257E1,5.220983E1,5.2497604E1,1.4751195E1,2.4436363E1,6.457466E1,8.1307E1,1.6918867E1,5.195101E1,5.0487164E1,5.4543583E1,-5.2215557E1,-2.1807785E1,-2.7267668E1,3.893297E0,-8.238728E0,1.8889923E1,-2.8525568E1,4.112294E1,-2.665824E1,4.7038507E0,3.0233698E1,-9.402178E1,-2.5384932E1,6.943686E1,2.718928E1,9.730398E1,-6.5677223E0,1.7043686E1,2.6780481E1,6.330314E1,4.449613E1,4.6016965E0,6.6752174E1,-6.2217327E1,4.8919224E1,1.691611E1,7.051983E1,-4.761378E1,6.413691E1,1.0661236E2,-8.12707E1,1.2696478E1,-8.687636E0,1.0489206E1,5.0002842E1,-2.2019348E1,2.7359812E1,6.423867E1,8.0667336E1,4.6862347E1,-1.4384362E0,3.5283333E1,7.8991936E1,4.0936092E1,8.368719E1,4.809336E1,9.350463E1,1.2432869E2,2.015482E1,5.5790333E1,5.882491E1,2.9673078E0,6.492411E1,-6.655556E1,-8.633642E1,1.1164982E0,4.728859E1,7.591322E1,8.817716E1,1.2748318E2,2.4508127E1,7.727441E1,-8.000128E1,4.5841125E1],"split_indices":[475,242,435,420,190,70,475,170,201,305,325,380,90,390,6,325,446,251,355,150,285,145,256,465,340,475,90,371,421,1,401,80,14,401,77,295,385,10,336,325,105,416,306,341,171,210,1,286,166,415,436,160,96,131,161,221,211,451,0,176,466,1,431,0,0,0,0,0,0,0,0,0,0,0,0,0,0,0,0,0,0,0,0,0,0,0,0,0,0,0,0,0,0,0,0,0,0,0,0,0,0,0,0,0,0,0,0,0,0,0,0,0,0,0,0,0,0,0,0,0,0,0,0,0,0,0,0],"split_type":[0,0,0,0,0,0,0,0,0,0,0,0,0,0,0,0,0,0,0,0,0,0,0,0,0,0,0,0,0,0,0,0,0,0,0,0,0,0,0,0,0,0,0,0,0,0,0,0,0,0,0,0,0,0,0,0,0,0,0,0,0,0,0,0,0,0,0,0,0,0,0,0,0,0,0,0,0,0,0,0,0,0,0,0,0,0,0,0,0,0,0,0,0,0,0,0,0,0,0,0,0,0,0,0,0,0,0,0,0,0,0,0,0,0,0,0,0,0,0,0,0,0,0,0,0,0,0],"sum_hessian":[3.736783E6,2.681956E6,1.054827E6,1.677169E6,1.004787E6,8.29099E5,2.25728E5,1.463703E6,2.13466E5,7.86263E5,2.18524E5,6.36169E5,1.9293E5,1.43545E5,8.2183E4,1.241321E6,2.22382E5,1.37276E5,7.619E4,5.89613E5,1.9665E5,1.45653E5,7.2871E4,5.48853E5,8.7316E4,1.18587E5,7.4343E4,6.3573E4,7.9972E4,2.3638E4,5.8545E4,1.126604E6,1.14717E5,1.4955E5,7.2832E4,6.0254E4,7.7022E4,7.0194E4,5.996E3,5.10804E5,7.8809E4,1.26391E5,7.0259E4,9.2333E4,5.332E4,7.1331E4,1.54E3,4.81782E5,6.7071E4,4.4955E4,4.2361E4,6.8233E4,5.0354E4,6.5679E4,8.664E3,4.5549E4,1.8024E4,7.8593E4,1.379E3,7.555E3,1.6083E4,4.3238E4,1.5307E4,1.030801E6,9.5803E4,8.1953E4,3.2764E4,5.5895E4,9.3655E4,6.9138E4,3.694E3,2.5506E4,3.4748E4,7.5976E4,1.046E3,6.8655E4,1.539E3,4.93E3,1.066E3,2.9594E5,2.14864E5,4.4562E4,3.4247E4,1.1232E5,1.4071E4,6.8859E4,1.4E3,5.0233E4,4.21E4,5.1782E4,1.538E3,6.0914E4,1.0417E4,9.09E2,6.31E2,1.66691E5,3.15091E5,5.6615E4,1.0456E4,3.5639E4,9.316E3,2.7068E4,1.5293E4,2.2495E4,4.5738E4,3.313E4,1.7224E4,2.946E4,3.6219E4,4.495E3,4.169E3,1.7114E4,2.8435E4,3.399E3,1.4625E4,7.782E4,7.73E2,9.19E2,4.6E2,1.558E3,5.997E3,9.62E3,6.463E3,5.111E3,3.8127E4,9.08E2,1.4399E4],"tree_param":{"num_deleted":"0","num_feature":"480","num_nodes":"127","size_leaf_vector":"1"}},{"base_weights":[-1.9657173E0,-2.2703699E2,5.698694E2,-6.5968097E2,4.9566144E2,4.277683E2,1.0916102E3,-7.5578235E2,1.658505E2,3.5004803E2,1.0144632E3,2.8389316E2,1.0299424E3,9.1968335E2,1.3433527E3,-8.8006665E2,-1.1186081E2,3.430925E2,-4.326885E2,1.7550192E2,9.7783044E2,8.703874E2,1.2742249E3,1.2637464E2,9.956E2,8.311235E2,1.3539741E3,8.714594E2,2.1053105E3,1.5483246E3,8.3769916E2,-9.519352E2,-2.9362244E2,-2.748542E2,3.061612E2,2.1713661E2,9.390776E2,-2.928584E2,-7.634519E2,6.521332E1,9.086883E2,7.780835E2,1.2017985E3,6.5164746E2,1.2441738E3,1.3191057E3,-1.00798486E3,2.4364215E2,-2.5832468E2,7.6554785E2,1.309916E3,7.083439E2,1.5096255E3,1.5806832E3,7.043661E2,9.738913E2,2.254435E2,1.5298405E3,2.4169543E3,1.4682079E3,2.3364036E3,3.4970908E2,1.3696212E3,-6.414099E1,-4.349574E1,-5.671332E0,-2.7087744E1,-2.3211454E1,2.2804134E1,2.9058025E0,3.503952E1,-3.5752816E0,2.0364061E1,2.7572851E1,9.3318054E1,-2.6060987E1,-4.609705E-1,-8.85264E1,-3.465378E1,8.258546E0,-2.2101717E1,6.129364E1,1.7304338E1,1.4009821E1,4.861298E1,7.31033E1,3.625163E1,4.9950977E1,1.9528547E1,6.571194E1,-5.1853035E1,8.24009E1,5.3892773E1,-7.8605774E1,-6.0439143E0,-6.266277E0,2.6489073E1,-1.5975837E1,6.1250465E1,3.526091E1,9.719814E1,6.848392E1,-5.3380085E1,4.490652E1,2.1421425E1,8.7157135E1,4.5563858E1,7.11731E1,9.171123E1,-1.9181883E1,6.961245E1,4.3189774E1,6.8564896E1,6.0081512E1,-9.3959564E-1,7.08178E1,1.3625046E2,1.1316459E2,1.286096E2,7.484747E1,-3.7983734E1,1.5521962E1,1.2561558E2,-2.3197607E1,3.4984905E1,1.0353705E2,4.6214092E1],"categories":[],"categories_nodes":[],"categories_segments":[],"categories_sizes":[],"default_left":[0,0,0,0,0,0,0,0,0,0,0,0,0,0,0,0,0,0,0,0,0,0,0,0,0,0,0,0,0,0,0,0,0,0,0,0,0,0,0,0,0,0,0,0,0,0,0,0,0,0,0,0,0,0,0,0,0,0,0,0,0,0,0,0,0,0,0,0,0,0,0,0,0,0,0,0,0,0,0,0,0,0,0,0,0,0,0,0,0,0,0,0,0,0,0,0,0,0,0,0,0,0,0,0,0,0,0,0,0,0,0,0,0,0,0,0,0,0,0,0,0,0,0,0,0,0,0],"id":4,"left_children":[1,3,5,7,9,11,13,15,17,19,21,23,25,27,29,31,33,35,37,39,41,43,45,47,49,51,53,55,57,59,61,63,65,67,69,71,73,75,77,79,81,83,85,87,89,91,93,95,97,99,101,103,105,107,109,111,113,115,117,119,121,123,125,-1,-1,-1,-1,-1,-1,-1,-1,-1,-1,-1,-1,-1,-1,-1,-1,-1,-1,-1,-1,-1,-1,-1,-1,-1,-1,-1,-1,-1,-1,-1,-1,-1,-1,-1,-1,-1,-1,-1,-1,-1,-1,-1,-1,-1,-1,-1,-1,-1,-1,-1,-1,-1,-1,-1,-1,-1,-1,-1,-1,-1,-1,-1,-1],"loss_changes":[4.8103457E11,8.3856517E11,7.826142E10,1.33094244E11,7.5869946E10,7.187785E10,9.778561E9,1.20259674E11,1.8558026E10,8.593107E10,8.2364006E9,7.507178E10,1.0306322E10,7.674962E9,9.502212E9,5.308711E10,1.6564682E10,1.0131402E10,1.848278E9,4.9617412E10,7.6313723E9,1.1575214E10,8.0443474E9,2.473515E10,8.773771E9,8.259404E9,8.958624E9,8.53744E9,9.3730816E8,4.115972E9,6.8652175E9,3.0451171E10,6.148389E9,2.4211997E10,6.6759706E9,6.115178E9,8.4625674E9,1.81964E9,8.40405E8,2.7043922E10,1.4316855E10,8.718225E9,9.978487E9,8.0998277E9,8.355275E9,6.108963E9,7.579826E8,4.4363686E10,1.1626984E10,4.980146E9,7.2879145E9,4.460241E9,2.1212447E9,1.7950884E9,1.1781401E10,4.8712663E9,4.2102702E9,2.465193E8,7.533158E7,3.7935596E9,2.1442908E9,3.929046E9,3.949437E9,0E0,0E0,0E0,0E0,0E0,0E0,0E0,0E0,0E0,0E0,0E0,0E0,0E0,0E0,0E0,0E0,0E0,0E0,0E0,0E0,0E0,0E0,0E0,0E0,0E0,0E0,0E0,0E0,0E0,0E0,0E0,0E0,0E0,0E0,0E0,0E0,0E0,0E0,0E0,0E0,0E0,0E0,0E0,0E0,0E0,0E0,0E0,0E0,0E0,0E0,0E0,0E0,0E0,0E0,0E0,0E0,0E0,0E0,0E0,0E0,0E0,0E0,0E0,0E0],"parents":[2147483647,0,0,1,1,2,2,3,3,4,4,5,5,6,6,7,7,8,8,9,9,10,10,11,11,12,12,13,13,14,14,15,15,16,16,17,17,18,18,19,19,20,20,21,21,22,22,23,23,24,24,25,25,26,26,27,27,28,28,29,29,30,30,31,31,32,32,33,33,34,34,35,35,36,36,37,37,38,38,39,39,40,40,41,41,42,42,43,43,44,44,45,45,46,46,47,47,48,48,49,49,50,50,51,51,52,52,53,53,54,54,55,55,56,56,57,57,58,58,59,59,60,60,61,61,62,62],"right_children":[2,4,6,8,10,12,14,16,18,20,22,24,26,28,30,32,34,36,38,40,42,44,46,48,50,52,54,56,58,60,62,64,66,68,70,72,74,76,78,80,82,84,86,88,90,92,94,96,98,100,102,104,106,108,110,112,114,116,118,120,122,124,126,-1,-1,-1,-1,-1,-1,-1,-1,-1,-1,-1,-1,-1,-1,-1,-1,-1,-1,-1,-1,-1,-1,-1,-1,-1,-1,-1,-1,-1,-1,-1,-1,-1,-1,-1,-1,-1,-1,-1,-1,-1,-1,-1,-1,-1,-1,-1,-1,-1,-1,-1,-1,-1,-1,-1,-1,-1,-1,-1,-1,-1,-1,-1,-1],"split_conditions":[1.34079E2,1E0,1.0439348E4,2.351633E3,1.0418953E4,9.273681E3,1.3556619E4,1.437003E3,3.6E1,9.871528E3,2.94996E2,9.239575E3,1.3684537E4,1.6836975E4,5.6721577E1,2.68255E2,6.21586E3,1.1355438E4,6.1975E1,9.208431E3,6.73113E2,1.3684537E4,6.457466E1,3.5603848E1,1.2889164E4,1.4403727E4,2.8603449E1,4.8682713E1,5.4543583E1,6.0540676E1,1.4521473E4,2.048322E1,3.691228E1,6.15541E2,4.05684E2,1.5852381E1,2.6542307E1,4.642155E3,2.8907316E1,3.599356E1,5.2202034E1,1.0348061E4,5.220983E1,2.3448149E1,6.457466E1,5.1950336E1,2.8049057E1,1.3254717E1,1E0,1.4537447E4,6.457466E1,5.2202034E1,5.123627E1,1.5087048E4,3.1703636E1,1.3694405E4,4.9964745E1,5.1467457E1,5.3291553E1,3.776041E1,1.5104462E4,2.6322866E1,5.1474323E1,-6.414099E1,-4.349574E1,-5.671332E0,-2.7087744E1,-2.3211454E1,2.2804134E1,2.9058025E0,3.503952E1,-3.5752816E0,2.0364061E1,2.7572851E1,9.3318054E1,-2.6060987E1,-4.609705E-1,-8.85264E1,-3.465378E1,8.258546E0,-2.2101717E1,6.129364E1,1.7304338E1,1.4009821E1,4.861298E1,7.31033E1,3.625163E1,4.9950977E1,1.9528547E1,6.571194E1,-5.1853035E1,8.24009E1,5.3892773E1,-7.8605774E1,-6.0439143E0,-6.266277E0,2.6489073E1,-1.5975837E1,6.1250465E1,3.526091E1,9.719814E1,6.848392E1,-5.3380085E1,4.490652E1,2.1421425E1,8.7157135E1,4.5563858E1,7.11731E1,9.171123E1,-1.9181883E1,6.961245E1,4.3189774E1,6.8564896E1,6.0081512E1,-9.3959564E-1,7.08178E1,1.3625046E2,1.1316459E2,1.286096E2,7.484747E1,-3.7983734E1,1.5521962E1,1.2561558E2,-2.3197607E1,3.4984905E1,1.0353705E2,4.6214092E1],"split_indices":[475,237,450,290,195,80,460,55,96,310,325,375,55,390,1,385,130,350,241,120,415,150,261,266,360,100,381,346,381,471,5,171,171,425,0,201,161,265,11,21,201,270,391,426,181,281,1,286,357,420,406,96,56,80,321,425,1,1,476,321,450,301,431,0,0,0,0,0,0,0,0,0,0,0,0,0,0,0,0,0,0,0,0,0,0,0,0,0,0,0,0,0,0,0,0,0,0,0,0,0,0,0,0,0,0,0,0,0,0,0,0,0,0,0,0,0,0,0,0,0,0,0,0,0,0,0,0],"split_type":[0,0,0,0,0,0,0,0,0,0,0,0,0,0,0,0,0,0,0,0,0,0,0,0,0,0,0,0,0,0,0,0,0,0,0,0,0,0,0,0,0,0,0,0,0,0,0,0,0,0,0,0,0,0,0,0,0,0,0,0,0,0,0,0,0,0,0,0,0,0,0,0,0,0,0,0,0,0,0,0,0,0,0,0,0,0,0,0,0,0,0,0,0,0,0,0,0,0,0,0,0,0,0,0,0,0,0,0,0,0,0,0,0,0,0,0,0,0,0,0,0,0,0,0,0,0,0],"sum_hessian":[3.737534E6,2.681938E6,1.055596E6,1.677626E6,1.004312E6,8.29638E5,2.25958E5,1.502695E6,1.74931E5,7.84208E5,2.20104E5,6.69644E5,1.59994E5,1.34266E5,9.1692E4,1.259581E6,2.43114E5,1.34965E5,3.9966E4,6.13605E5,1.70603E5,1.41581E5,7.8523E4,5.48294E5,1.2135E5,9.9157E4,6.0837E4,1.2902E5,5.246E3,6.5243E4,2.6449E4,1.122071E6,1.3751E5,1.74913E5,6.8201E4,1.11419E5,2.3546E4,2.8092E4,1.1874E4,5.33374E5,8.0231E4,9.018E4,8.0423E4,8.9316E4,5.2265E4,7.7009E4,1.514E3,4.20204E5,1.2809E5,7.0069E4,5.1281E4,8.3965E4,1.5192E4,4.5097E4,1.574E4,1.11362E5,1.7658E4,1.845E3,3.401E3,5.9225E4,6.018E3,1.3795E4,1.2654E4,2.22888E5,8.99183E5,7.9661E4,5.7849E4,1.38921E5,3.5992E4,4.1879E4,2.6322E4,4.4249E4,6.717E4,1.6606E4,6.94E3,1.5562E4,1.253E4,7.74E2,1.11E4,4.45571E5,8.7803E4,5.1305E4,2.8926E4,2.5303E4,6.4877E4,5.2022E4,2.8401E4,3.8323E4,5.0993E4,5.0708E4,1.557E3,3.2582E4,4.4427E4,9.25E2,5.89E2,1.83538E5,2.36666E5,1.23016E5,5.074E3,6.6658E4,3.411E3,5.0024E4,1.257E3,5.0037E4,3.3928E4,1.0926E4,4.266E3,2.784E4,1.7257E4,6.097E3,9.643E3,8.7206E4,2.4156E4,3.533E3,1.4125E4,1.687E3,1.58E2,1.717E3,1.684E3,5.8471E4,7.54E2,4.81E2,5.537E3,4.149E3,9.646E3,4.914E3,7.74E3],"tree_param":{"num_deleted":"0","num_feature":"480","num_nodes":"127","size_leaf_vector":"1"}},{"base_weights":[5.1082456E-1,-2.1467099E2,5.419866E2,-6.290126E2,4.790923E2,4.0484744E2,1.0384336E3,-7.2420654E2,4.0534603E1,3.3672067E2,9.795137E2,2.6061734E2,9.7057605E2,8.916474E2,1.3170468E3,-8.344639E2,4.0546833E1,2.8494217E2,-4.8369095E2,1.8844928E2,9.1239484E2,8.356398E2,1.2394252E3,1.2943466E2,9.4741144E2,7.8167175E2,1.273466E3,6.371904E2,1.0975944E3,1.540008E3,8.44539E2,-8.8890704E2,-3.63657E2,2.5325594E2,-3.5122778E2,-9.9200264E1,5.206879E2,-6.221298E2,-6.0940723E1,4.6642033E1,9.3034216E2,7.182904E2,1.2217806E3,4.849494E2,1.0399818E3,1.62648E3,9.6887366E2,2.658057E2,-1.891631E2,1.0592532E3,-1.16139496E2,9.887943E1,8.5301227E2,1.5012996E3,6.891583E2,7.806945E2,1.9997667E2,1.3890193E3,8.293947E2,1.3901914E3,2.06187E3,-1.1427699E2,1.2849518E3,-6.171457E1,-3.969403E1,-1.0810563E1,-3.3048985E1,-5.715422E0,2.8176996E1,-2.2780188E1,4.3967377E1,-8.400401E0,3.95878E1,3.533209E1,2.473975E0,-3.455833E1,2.3961166E1,1.4200467E1,-1.9248316E1,6.7026353E0,-1.9821186E1,5.236137E1,-9.6355814E-1,2.2367971E1,4.8748898E1,6.41539E1,-4.8367302E1,2.569784E1,-9.570455E1,5.457037E1,-6.00076E1,6.7529495E1,1.1241158E2,3.4605145E1,8.867071E1,-4.82791E0,3.156323E1,1.5293639E1,-1.9607655E1,2.3235384E1,5.876474E1,-1.668501E1,6.276966E1,1.5307091E1,-3.529901E1,5.4264313E1,2.8382257E1,6.542608E1,8.347399E1,-9.932483E0,6.6191345E1,1.6579733E1,5.07461E1,6.031335E1,1.29571E0,6.176181E1,1.0022394E2,3.4387096E1,1.0803118E2,7.609953E1,1.844216E1,1.1039801E2,7.681872E1,7.81807E1,-1.0837697E1,2.9111917E1,8.053832E1],"categories":[],"categories_nodes":[],"categories_segments":[],"categories_sizes":[],"default_left":[0,0,0,0,0,0,0,0,0,0,0,0,0,0,0,0,0,0,0,0,0,0,0,0,0,0,0,0,0,0,0,0,0,0,0,0,0,0,0,0,0,0,0,0,0,0,0,0,0,0,0,0,0,0,0,0,0,0,0,0,0,0,0,0,0,0,0,0,0,0,0,0,0,0,0,0,0,0,0,0,0,0,0,0,0,0,0,0,0,0,0,0,0,0,0,0,0,0,0,0,0,0,0,0,0,0,0,0,0,0,0,0,0,0,0,0,0,0,0,0,0,0,0,0,0,0,0],"id":5,"left_children":[1,3,5,7,9,11,13,15,17,19,21,23,25,27,29,31,33,35,37,39,41,43,45,47,49,51,53,55,57,59,61,63,65,67,69,71,73,75,77,79,81,83,85,87,89,91,93,95,97,99,101,103,105,107,109,111,113,115,117,119,121,123,125,-1,-1,-1,-1,-1,-1,-1,-1,-1,-1,-1,-1,-1,-1,-1,-1,-1,-1,-1,-1,-1,-1,-1,-1,-1,-1,-1,-1,-1,-1,-1,-1,-1,-1,-1,-1,-1,-1,-1,-1,-1,-1,-1,-1,-1,-1,-1,-1,-1,-1,-1,-1,-1,-1,-1,-1,-1,-1,-1,-1,-1,-1,-1,-1],"loss_changes":[4.352175E11,7.6837185E11,7.232019E10,1.0666515E11,7.1209255E10,6.7913884E10,9.401893E9,1.23545846E11,2.6690945E10,6.641681E10,8.277213E9,5.975499E10,9.673867E9,7.890911E9,8.3566264E9,3.2823706E10,1.53858E10,1.2866719E10,3.8767217E9,6.5096245E10,9.56955E9,1.0211148E10,8.2582815E9,2.4194925E10,1.2652405E10,5.072806E9,8.645165E9,4.226392E9,6.5038746E9,4.2111386E9,1.0741127E10,3.7671993E10,5.8188636E9,1.3647208E10,8.3450506E9,3.3126707E9,7.714818E9,3.7944238E9,1.826698E9,2.0118129E10,1.1020902E10,6.810071E9,8.24533E9,3.652016E9,1.0373472E10,5.5632773E9,1.0337051E10,5.164211E10,1.6773163E10,6.639657E9,3.0207393E9,1.6438651E9,6.249304E9,1.5127757E9,1.0267699E10,5.3346673E9,2.915989E9,3.7725225E9,8.1718047E9,5.6370217E9,9.1938E8,1.3771036E9,3.9897354E9,0E0,0E0,0E0,0E0,0E0,0E0,0E0,0E0,0E0,0E0,0E0,0E0,0E0,0E0,0E0,0E0,0E0,0E0,0E0,0E0,0E0,0E0,0E0,0E0,0E0,0E0,0E0,0E0,0E0,0E0,0E0,0E0,0E0,0E0,0E0,0E0,0E0,0E0,0E0,0E0,0E0,0E0,0E0,0E0,0E0,0E0,0E0,0E0,0E0,0E0,0E0,0E0,0E0,0E0,0E0,0E0,0E0,0E0,0E0,0E0,0E0,0E0,0E0,0E0],"parents":[2147483647,0,0,1,1,2,2,3,3,4,4,5,5,6,6,7,7,8,8,9,9,10,10,11,11,12,12,13,13,14,14,15,15,16,16,17,17,18,18,19,19,20,20,21,21,22,22,23,23,24,24,25,25,26,26,27,27,28,28,29,29,30,30,31,31,32,32,33,33,34,34,35,35,36,36,37,37,38,38,39,39,40,40,41,41,42,42,43,43,44,44,45,45,46,46,47,47,48,48,49,49,50,50,51,51,52,52,53,53,54,54,55,55,56,56,57,57,58,58,59,59,60,60,61,61,62,62],"right_children":[2,4,6,8,10,12,14,16,18,20,22,24,26,28,30,32,34,36,38,40,42,44,46,48,50,52,54,56,58,60,62,64,66,68,70,72,74,76,78,80,82,84,86,88,90,92,94,96,98,100,102,104,106,108,110,112,114,116,118,120,122,124,126,-1,-1,-1,-1,-1,-1,-1,-1,-1,-1,-1,-1,-1,-1,-1,-1,-1,-1,-1,-1,-1,-1,-1,-1,-1,-1,-1,-1,-1,-1,-1,-1,-1,-1,-1,-1,-1,-1,-1,-1,-1,-1,-1,-1,-1,-1,-1,-1,-1,-1,-1,-1,-1,-1,-1,-1,-1,-1,-1,-1,-1,-1,-1,-1],"split_conditions":[1E0,1E0,1.0266528E4,7.69037E2,1.0420431E4,9.039168E3,1.3556619E4,1.34079E2,3.370196E1,9.871528E3,6.67527E2,9.239575E3,1.3684537E4,9.814719E3,5.1717228E1,1.348161E3,3.4288395E1,1.8201923E1,5.178722E3,9.208431E3,1.3691529E4,9.443593E3,5.1950336E1,3.3694546E1,3.8094593E1,9.750725E0,2.8607407E1,5.0493244E1,5.221051E1,2.7228231E1,1.3265172E4,2.2739527E1,3.5867237E1,1.5852381E1,6.000363E3,1.1093193E4,4.9966667E1,8.1307E1,5.80079E2,3.599356E1,5.8895607E1,6.73113E2,6.457466E1,1.7090844E4,9.459214E3,2.4811262E1,1.6655645E4,1.3797334E1,4.4758446E1,4.190877E1,1.3925941E4,1.184E1,5.2202034E1,1.4634547E4,3.018425E1,4.3505424E1,3.897E1,2.464932E1,1.6836975E4,2.4884E1,8.1307E1,1.0788743E4,1.4521473E4,-6.171457E1,-3.969403E1,-1.0810563E1,-3.3048985E1,-5.715422E0,2.8176996E1,-2.2780188E1,4.3967377E1,-8.400401E0,3.95878E1,3.533209E1,2.473975E0,-3.455833E1,2.3961166E1,1.4200467E1,-1.9248316E1,6.7026353E0,-1.9821186E1,5.236137E1,-9.6355814E-1,2.2367971E1,4.8748898E1,6.41539E1,-4.8367302E1,2.569784E1,-9.570455E1,5.457037E1,-6.00076E1,6.7529495E1,1.1241158E2,3.4605145E1,8.867071E1,-4.82791E0,3.156323E1,1.5293639E1,-1.9607655E1,2.3235384E1,5.876474E1,-1.668501E1,6.276966E1,1.5307091E1,-3.529901E1,5.4264313E1,2.8382257E1,6.542608E1,8.347399E1,-9.932483E0,6.6191345E1,1.6579733E1,5.07461E1,6.031335E1,1.29571E0,6.176181E1,1.0022394E2,3.4387096E1,1.0803118E2,7.609953E1,1.844216E1,1.1039801E2,7.681872E1,7.81807E1,-1.0837697E1,2.9111917E1,8.053832E1],"split_indices":[477,247,445,190,210,80,475,425,456,315,335,365,60,400,66,95,211,36,315,135,290,160,296,271,101,406,391,376,471,271,5,361,361,246,365,110,196,95,130,26,211,420,321,225,285,6,255,276,11,376,465,306,96,80,376,471,46,186,390,311,345,460,20,0,0,0,0,0,0,0,0,0,0,0,0,0,0,0,0,0,0,0,0,0,0,0,0,0,0,0,0,0,0,0,0,0,0,0,0,0,0,0,0,0,0,0,0,0,0,0,0,0,0,0,0,0,0,0,0,0,0,0,0,0,0,0,0],"split_type":[0,0,0,0,0,0,0,0,0,0,0,0,0,0,0,0,0,0,0,0,0,0,0,0,0,0,0,0,0,0,0,0,0,0,0,0,0,0,0,0,0,0,0,0,0,0,0,0,0,0,0,0,0,0,0,0,0,0,0,0,0,0,0,0,0,0,0,0,0,0,0,0,0,0,0,0,0,0,0,0,0,0,0,0,0,0,0,0,0,0,0,0,0,0,0,0,0,0,0,0,0,0,0,0,0,0,0,0,0,0,0,0,0,0,0,0,0,0,0,0,0,0,0,0,0,0,0],"sum_hessian":[3.735266E6,2.673014E6,1.062252E6,1.673523E6,9.99491E5,8.3233E5,2.29922E5,1.465205E6,2.08318E5,7.78116E5,2.21375E5,6.63241E5,1.69089E5,1.50589E5,7.9333E4,1.280579E6,1.84626E5,1.42078E5,6.624E4,6.18751E5,1.59365E5,1.42499E5,7.8876E4,5.56875E5,1.06366E5,1.04142E5,6.4947E4,6.7363E4,8.3226E4,5.3898E4,2.5435E4,1.147844E6,1.32735E5,1.19659E5,6.4967E4,5.4033E4,8.8045E4,4.9899E4,1.6341E4,5.19461E5,9.929E4,9.7929E4,6.1436E4,5.2464E4,9.0035E4,3.2449E4,4.6427E4,3.89959E5,1.66916E5,9.6245E4,1.0121E4,9.852E3,9.429E4,4.6726E4,1.8221E4,5.0716E4,1.6647E4,3.9884E4,4.3342E4,4.1879E4,1.2019E4,8.006E3,1.7429E4,2.47665E5,9.00179E5,8.8733E4,4.4002E4,5.4774E4,6.4885E4,5.9888E4,5.079E3,5.016E4,3.873E3,6.3131E4,2.4914E4,4.6956E4,2.943E3,7.915E3,8.426E3,4.33866E5,8.5595E4,8.8408E4,1.0882E4,4.7644E4,5.0285E4,5.9763E4,1.673E3,5.1838E4,6.26E2,8.8015E4,2.02E3,2.2478E4,9.971E3,3.4545E4,1.1882E4,1.95809E5,1.9415E5,4.854E4,1.18376E5,1.5718E4,8.0527E4,8.736E3,1.385E3,7.835E3,2.017E3,5.1979E4,4.2311E4,2.1775E4,2.4951E4,7.596E3,1.0625E4,1.7385E4,3.3331E4,2.454E3,1.4193E4,3.1913E4,7.971E3,3.9175E4,4.167E3,3.7092E4,4.787E3,9.402E3,2.617E3,4.6E2,7.546E3,5.522E3,1.1907E4],"tree_param":{"num_deleted":"0","num_feature":"480","num_nodes":"127","size_leaf_vector":"1"}},{"base_weights":[-3.7648245E-3,-2.035108E2,5.182052E2,-5.942562E2,4.514174E2,3.8567902E2,9.9474164E2,-6.913717E2,-2.4987602E0,3.10206E2,9.038936E2,2.5805264E2,9.725878E2,1.0432428E3,2.46112E1,-8.142732E2,-2.8783434E1,1.9470506E2,-4.2413068E2,1.4179922E2,8.6016473E2,7.831188E2,1.1731398E3,1.22802826E2,1.0062422E3,7.672912E2,1.2515579E3,8.5878564E2,1.3318068E3,-3.4099493E2,1.0323472E3,-8.616818E2,-3.3399683E2,-1.2988568E2,6.197691E2,5.6862274E1,6.7305994E2,-5.442255E2,7.561607E1,3.5295372E1,7.775313E2,9.245957E2,-2.3534537E2,5.3852075E2,1.0984177E3,1.5555923E3,9.0616125E2,2.170119E2,-2.3297621E2,9.223646E2,1.7551537E3,5.5936926E2,1.01141235E3,1.4573289E3,7.131279E2,7.9675995E2,1.6214062E3,1.4604211E3,8.40901E2,-1.617239E2,-1.3309417E3,6.784709E2,2.432201E3,-4.546548E1,-1.49937E1,-2.1857931E1,2.554824E0,-9.016311E0,4.5051464E1,1.773041E1,7.352094E1,-4.65347E0,3.7109657E1,4.090903E1,-7.201498E1,-2.9964033E1,2.7573395E1,-1.2852557E0,1.21996605E2,-5.443873E0,1.5504755E1,4.7057377E1,-1.9403666E0,1.9929646E1,5.0409924E1,1.6400527E0,-6.1014282E1,3.856192E1,7.6428704E0,5.673167E1,-1.0773704E2,6.1692963E1,1.10591286E2,3.056574E1,8.428394E1,-5.5280695E0,2.227181E1,-1.4732697E1,6.927033E1,5.4137337E1,2.218032E1,9.9022484E1,6.538973E1,-1.2990936E0,3.3852554E1,6.3102943E1,3.2462845E1,6.640547E1,9.301188E1,-2.4866592E1,6.193891E1,4.6054832E1,1.4363337E1,1.0045373E2,5.5322517E1,7.368019E1,-7.5263176E1,1.2176904E2,3.273421E1,9.425626E1,-1.3018638E1,-7.824806E1,-4.6496304E1,8.986518E1,1.2846567E1,1.14093895E2,1.290952E2],"categories":[],"categories_nodes":[],"categories_segments":[],"categories_sizes":[],"default_left":[0,0,0,0,0,0,0,0,0,0,0,0,0,0,0,0,0,0,0,0,0,0,0,0,0,0,0,0,0,0,0,0,0,0,0,0,0,0,0,0,0,0,0,0,0,0,0,0,0,0,0,0,0,0,0,0,0,0,0,0,0,0,0,0,0,0,0,0,0,0,0,0,0,0,0,0,0,0,0,0,0,0,0,0,0,0,0,0,0,0,0,0,0,0,0,0,0,0,0,0,0,0,0,0,0,0,0,0,0,0,0,0,0,0,0,0,0,0,0,0,0,0,0,0,0,0,0],"id":6,"left_children":[1,3,5,7,9,11,13,15,17,19,21,23,25,27,29,31,33,35,37,39,41,43,45,47,49,51,53,55,57,59,61,63,65,67,69,71,73,75,77,79,81,83,85,87,89,91,93,95,97,99,101,103,105,107,109,111,113,115,117,119,121,123,125,-1,-1,-1,-1,-1,-1,-1,-1,-1,-1,-1,-1,-1,-1,-1,-1,-1,-1,-1,-1,-1,-1,-1,-1,-1,-1,-1,-1,-1,-1,-1,-1,-1,-1,-1,-1,-1,-1,-1,-1,-1,-1,-1,-1,-1,-1,-1,-1,-1,-1,-1,-1,-1,-1,-1,-1,-1,-1,-1,-1,-1,-1,-1,-1],"loss_changes":[3.939866E11,6.86473E11,6.652815E10,9.655294E10,6.404676E10,6.173827E10,1.0785243E10,1.1752735E11,1.969405E10,7.075567E10,7.7520896E9,6.850792E10,8.4304527E9,1.1618681E10,4.021814E9,2.7719434E10,1.4806929E10,1.0640867E10,4.5300644E9,3.960016E10,1.2641665E10,1.2693152E10,7.5369185E9,1.9217779E10,6.509093E9,4.3042324E9,6.9134664E9,6.2982963E9,5.373477E9,1.4213094E9,1.4379098E9,2.9648486E10,4.3452713E9,1.0159017E10,6.8688814E9,1.2872837E10,1.1072763E10,3.6713185E9,3.5035592E9,1.984684E10,1.1209318E10,7.4379264E9,2.6276526E9,8.3189617E9,8.4738294E9,6.404907E9,9.992327E9,3.3920336E10,1.1982481E10,7.1564984E9,1.04943616E9,3.1551672E9,3.540054E9,2.3483105E9,1.098151E10,7.801946E9,1.9972915E9,2.6393313E9,5.2464476E9,1.3701092E9,1.1378688E8,1.0941967E9,7.295488E6,0E0,0E0,0E0,0E0,0E0,0E0,0E0,0E0,0E0,0E0,0E0,0E0,0E0,0E0,0E0,0E0,0E0,0E0,0E0,0E0,0E0,0E0,0E0,0E0,0E0,0E0,0E0,0E0,0E0,0E0,0E0,0E0,0E0,0E0,0E0,0E0,0E0,0E0,0E0,0E0,0E0,0E0,0E0,0E0,0E0,0E0,0E0,0E0,0E0,0E0,0E0,0E0,0E0,0E0,0E0,0E0,0E0,0E0,0E0,0E0,0E0,0E0,0E0,0E0],"parents":[2147483647,0,0,1,1,2,2,3,3,4,4,5,5,6,6,7,7,8,8,9,9,10,10,11,11,12,12,13,13,14,14,15,15,16,16,17,17,18,18,19,19,20,20,21,21,22,22,23,23,24,24,25,25,26,26,27,27,28,28,29,29,30,30,31,31,32,32,33,33,34,34,35,35,36,36,37,37,38,38,39,39,40,40,41,41,42,42,43,43,44,44,45,45,46,46,47,47,48,48,49,49,50,50,51,51,52,52,53,53,54,54,55,55,56,56,57,57,58,58,59,59,60,60,61,61,62,62],"right_children":[2,4,6,8,10,12,14,16,18,20,22,24,26,28,30,32,34,36,38,40,42,44,46,48,50,52,54,56,58,60,62,64,66,68,70,72,74,76,78,80,82,84,86,88,90,92,94,96,98,100,102,104,106,108,110,112,114,116,118,120,122,124,126,-1,-1,-1,-1,-1,-1,-1,-1,-1,-1,-1,-1,-1,-1,-1,-1,-1,-1,-1,-1,-1,-1,-1,-1,-1,-1,-1,-1,-1,-1,-1,-1,-1,-1,-1,-1,-1,-1,-1,-1,-1,-1,-1,-1,-1,-1,-1,-1,-1,-1,-1,-1,-1,-1,-1,-1,-1,-1,-1,-1,-1,-1,-1,-1],"split_conditions":[1.34079E2,1E0,1.0439348E4,8.66124E2,9.913787E3,9.039168E3,4.4758446E1,8.4617E1,3.3701023E1,9.871528E3,2.94996E2,1.1281085E4,1.3684537E4,1.3556619E4,1.2795875E4,1.348161E3,3.421339E3,1.1256941E4,5.234141E3,8.961925E3,3.7221016E1,1.3044326E4,5.220983E1,3.600714E1,1.6655645E4,-9.6592575E-1,2.8602034E1,1.6655645E4,5.8495934E1,5.463686E3,1.6836975E4,2.66588E2,9.208431E3,1.3265172E4,2.6542307E1,7.2706E2,6.1975E1,8.1307E1,1.5098278E4,7.67141E2,4.2133106E1,4.2133106E1,5.7395607E1,3.2553402E1,1.5268546E4,2.4809435E1,1.6655645E4,1.2964103E1,6.710714E3,5.1471188E1,4.2770607E1,1.983133E3,5.1467457E1,7.507215E3,3.1703636E1,4.9966892E1,4.773559E1,1.6194628E4,5.1471188E1,5.4031082E1,5.611284E1,7.66937E3,3.4734814E1,-4.546548E1,-1.49937E1,-2.1857931E1,2.554824E0,-9.016311E0,4.5051464E1,1.773041E1,7.352094E1,-4.65347E0,3.7109657E1,4.090903E1,-7.201498E1,-2.9964033E1,2.7573395E1,-1.2852557E0,1.21996605E2,-5.443873E0,1.5504755E1,4.7057377E1,-1.9403666E0,1.9929646E1,5.0409924E1,1.6400527E0,-6.1014282E1,3.856192E1,7.6428704E0,5.673167E1,-1.0773704E2,6.1692963E1,1.10591286E2,3.056574E1,8.428394E1,-5.5280695E0,2.227181E1,-1.4732697E1,6.927033E1,5.4137337E1,2.218032E1,9.9022484E1,6.538973E1,-1.2990936E0,3.3852554E1,6.3102943E1,3.2462845E1,6.640547E1,9.301188E1,-2.4866592E1,6.193891E1,4.6054832E1,1.4363337E1,1.0045373E2,5.5322517E1,7.368019E1,-7.5263176E1,1.2176904E2,3.273421E1,9.425626E1,-1.3018638E1,-7.824806E1,-4.6496304E1,8.986518E1,1.2846567E1,1.14093895E2,1.290952E2],"split_indices":[475,247,455,175,200,90,166,400,446,300,335,385,70,475,20,75,280,115,295,140,56,160,286,261,360,59,371,405,1,140,15,325,10,25,161,295,116,75,230,345,326,311,436,361,245,1,245,281,350,336,1,475,111,160,316,366,6,385,446,51,1,95,246,0,0,0,0,0,0,0,0,0,0,0,0,0,0,0,0,0,0,0,0,0,0,0,0,0,0,0,0,0,0,0,0,0,0,0,0,0,0,0,0,0,0,0,0,0,0,0,0,0,0,0,0,0,0,0,0,0,0,0,0,0,0,0,0],"split_type":[0,0,0,0,0,0,0,0,0,0,0,0,0,0,0,0,0,0,0,0,0,0,0,0,0,0,0,0,0,0,0,0,0,0,0,0,0,0,0,0,0,0,0,0,0,0,0,0,0,0,0,0,0,0,0,0,0,0,0,0,0,0,0,0,0,0,0,0,0,0,0,0,0,0,0,0,0,0,0,0,0,0,0,0,0,0,0,0,0,0,0,0,0,0,0,0,0,0,0,0,0,0,0,0,0,0,0,0,0,0,0,0,0,0,0,0,0,0,0,0,0,0,0,0,0,0,0],"sum_hessian":[3.735914E6,2.682474E6,1.05344E6,1.680092E6,1.002382E6,8.24223E5,2.29217E5,1.443237E6,2.36855E5,7.63962E5,2.3842E5,6.77006E5,1.47217E5,2.18303E5,1.0914E4,1.217421E6,2.25816E5,1.61377E5,7.5478E4,5.84867E5,1.79095E5,1.64593E5,7.3827E4,5.73361E5,1.03645E5,8.4809E4,6.2408E4,1.33177E5,8.5126E4,8.009E3,2.905E3,1.108044E6,1.09377E5,1.95362E5,3.0454E4,1.25278E5,3.6099E4,6.0854E4,1.4624E4,5.00945E5,8.3922E4,1.69147E5,9.948E3,9.269E4,7.1903E4,3.0348E4,4.3479E4,4.53323E5,1.20038E5,9.3208E4,1.0437E4,4.5802E4,3.9007E4,4.5151E4,1.7257E4,1.23162E5,1.0015E4,6.7452E4,1.7674E4,6.782E3,1.227E3,2.32E3,5.85E2,1.021449E6,8.6595E4,8.6267E4,2.311E4,1.8625E5,9.112E3,2.3218E4,7.236E3,1.02791E5,2.2487E4,3.378E4,2.319E3,5.7943E4,2.911E3,1.4024E4,6E2,3.28565E5,1.7238E5,6.991E4,1.4012E4,2.3198E4,1.45949E5,7.82E3,2.128E3,5.7807E4,3.4883E4,7.1112E4,7.91E2,2.0366E4,9.982E3,3.1548E4,1.1931E4,1.86242E5,2.67081E5,1.15632E5,4.406E3,6.9818E4,2.339E4,6.939E3,3.498E3,7.667E3,3.8135E4,2.3051E4,1.5956E4,3.419E4,1.0961E4,5.225E3,1.2032E4,9.9001E4,2.4161E4,5.712E3,4.303E3,6.7154E4,2.98E2,1.847E3,1.5827E4,3.11E2,6.471E3,7.73E2,4.54E2,6.34E2,1.686E3,3E2,2.85E2],"tree_param":{"num_deleted":"0","num_feature":"480","num_nodes":"127","size_leaf_vector":"1"}},{"base_weights":[-7.2560465E-1,-1.9349278E2,4.896455E2,-5.6629083E2,4.2989954E2,3.5471494E2,9.066391E2,-6.5201465E2,1.5252E2,-1.3985934E2,5.355809E2,2.3273271E2,9.187561E2,1.0086225E3,-1.7848177E2,-7.6043036E2,-9.232982E1,3.11616E2,-3.502787E2,-2.0812419E2,9.938488E2,6.486172E2,-1.3145424E2,8.0935486E1,9.141798E2,8.5163983E2,1.727506E3,8.18533E2,1.2546398E3,-3.826428E2,1.1664674E3,-8.220559E2,-2.497267E2,-2.1981345E2,3.0242728E2,2.011892E2,8.227406E2,-3.893762E2,1.3985009E3,-6.336351E2,-1.1989532E2,-2.1273422E2,1.3831296E3,4.8398294E2,8.9488617E2,-3.8028867E2,5.1823834E2,1.5647687E2,-2.736185E2,7.0106525E2,1.2001361E3,9.53464E2,4.0522525E2,1.9879968E3,1.3311661E3,9.794603E2,4.893124E2,1.4172689E3,9.3682697E2,1.6524648E2,-5.4707635E2,1.6461664E3,-2.2737349E2,-5.6211628E1,-3.738584E1,-6.4458916E1,-1.0257772E1,-1.8465782E1,1.9676249E1,3.5846176E0,3.4604183E1,-4.749353E0,2.0685179E1,4.6609707E1,-9.903175E1,-2.655633E1,-5.2918696E0,8.104832E0,1.0136791E2,-5.822231E1,-1.5934667E1,-7.0741053E0,7.9514854E1,2.0535181E1,-6.6230255E1,1.03004776E2,6.024242E1,1.4949611E1,5.054354E1,4.366466E1,9.5944084E1,-2.5954542E1,4.8646156E1,3.4471027E1,-1.9937696E0,-5.4769063E0,1.7615839E1,-1.9419556E1,6.483904E1,4.1914642E1,2.0861715E1,7.063522E1,3.6522324E1,4.874035E1,-7.282944E1,2.4328087E1,-5.5928047E1,5.8800953E1,1.0881243E2,7.2699E1,-1.201186E1,3.608865E1,6.773271E1,3.6233234E0,3.563764E1,6.447738E1,9.1516014E1,1.55793E1,6.324587E1,-5.9162474E0,7.754584E1,-4.90329E1,-1.874146E1,-2.1005568E1,9.914197E1,-2.4987452E1,9.62893E0],"categories":[],"categories_nodes":[],"categories_segments":[],"categories_sizes":[],"default_left":[0,0,0,0,0,0,0,0,0,0,0,0,0,0,0,0,0,0,0,0,0,0,0,0,0,0,0,0,0,0,0,0,0,0,0,0,0,0,0,0,0,0,0,0,0,0,0,0,0,0,0,0,0,0,0,0,0,0,0,0,0,0,0,0,0,0,0,0,0,0,0,0,0,0,0,0,0,0,0,0,0,0,0,0,0,0,0,0,0,0,0,0,0,0,0,0,0,0,0,0,0,0,0,0,0,0,0,0,0,0,0,0,0,0,0,0,0,0,0,0,0,0,0,0,0,0,0],"id":7,"left_children":[1,3,5,7,9,11,13,15,17,19,21,23,25,27,29,31,33,35,37,39,41,43,45,47,49,51,53,55,57,59,61,63,65,67,69,71,73,75,77,79,81,83,85,87,89,91,93,95,97,99,101,103,105,107,109,111,113,115,117,119,121,123,125,-1,-1,-1,-1,-1,-1,-1,-1,-1,-1,-1,-1,-1,-1,-1,-1,-1,-1,-1,-1,-1,-1,-1,-1,-1,-1,-1,-1,-1,-1,-1,-1,-1,-1,-1,-1,-1,-1,-1,-1,-1,-1,-1,-1,-1,-1,-1,-1,-1,-1,-1,-1,-1,-1,-1,-1,-1,-1,-1,-1,-1,-1,-1,-1],"loss_changes":[3.531056E11,6.231579E11,5.930736E10,1.033948E11,6.042049E10,5.479333E10,2.8517466E10,9.096777E10,1.4302023E10,1.2151048E10,6.3821332E10,6.7731436E10,7.6848906E9,1.1014717E10,6.07951E9,3.9525876E10,1.2243099E10,7.665483E9,2.9388698E9,5.5594573E9,4.1886054E9,2.9345186E10,1.9829324E10,1.4342472E10,7.268557E9,5.9432223E9,1.1175404E9,7.039787E9,5.305303E9,1.7318267E9,1.9514194E9,2.5173295E10,6.2648975E9,1.6862292E10,5.339278E9,7.0298097E9,7.405573E9,1.6894444E9,7.3054195E8,4.2512128E9,4.528385E9,1.5089088E9,8.112118E8,4.228151E10,6.4104366E9,1.6658662E10,3.2453007E9,2.2997555E10,1.6952685E10,2.661841E9,5.0844795E9,5.477974E9,3.0106614E9,9.978839E8,8.313636E8,8.628347E9,4.0637501E9,3.5805102E9,7.129504E9,1.7440357E9,1.1038228E9,1.5111112E9,8.565598E7,0E0,0E0,0E0,0E0,0E0,0E0,0E0,0E0,0E0,0E0,0E0,0E0,0E0,0E0,0E0,0E0,0E0,0E0,0E0,0E0,0E0,0E0,0E0,0E0,0E0,0E0,0E0,0E0,0E0,0E0,0E0,0E0,0E0,0E0,0E0,0E0,0E0,0E0,0E0,0E0,0E0,0E0,0E0,0E0,0E0,0E0,0E0,0E0,0E0,0E0,0E0,0E0,0E0,0E0,0E0,0E0,0E0,0E0,0E0,0E0,0E0,0E0,0E0,0E0],"parents":[2147483647,0,0,1,1,2,2,3,3,4,4,5,5,6,6,7,7,8,8,9,9,10,10,11,11,12,12,13,13,14,14,15,15,16,16,17,17,18,18,19,19,20,20,21,21,22,22,23,23,24,24,25,25,26,26,27,27,28,28,29,29,30,30,31,31,32,32,33,33,34,34,35,35,36,36,37,37,38,38,39,39,40,40,41,41,42,42,43,43,44,44,45,45,46,46,47,47,48,48,49,49,50,50,51,51,52,52,53,53,54,54,55,55,56,56,57,57,58,58,59,59,60,60,61,61,62,62],"right_children":[2,4,6,8,10,12,14,16,18,20,22,24,26,28,30,32,34,36,38,40,42,44,46,48,50,52,54,56,58,60,62,64,66,68,70,72,74,76,78,80,82,84,86,88,90,92,94,96,98,100,102,104,106,108,110,112,114,116,118,120,122,124,126,-1,-1,-1,-1,-1,-1,-1,-1,-1,-1,-1,-1,-1,-1,-1,-1,-1,-1,-1,-1,-1,-1,-1,-1,-1,-1,-1,-1,-1,-1,-1,-1,-1,-1,-1,-1,-1,-1,-1,-1,-1,-1,-1,-1,-1,-1,-1,-1,-1,-1,-1,-1,-1,-1,-1,-1,-1,-1,-1,-1,-1,-1,-1,-1],"split_conditions":[1.34079E2,1E0,1.0361455E4,2.504809E3,1.1575E1,1.0361455E4,4.4766556E1,1.437003E3,3.627619E1,1.5776E1,3.599356E1,9.039168E3,1.6655645E4,8.38705E2,1.2484271E4,1E0,5.987538E3,1.1281085E4,8.1307E1,1.438065E3,9.489855E0,6.963078E3,1E0,3.842603E1,1.3684537E4,5.124088E1,4.2337074E1,5.2202034E1,5.2202034E1,5.1243877E1,3.4835594E1,2.048322E1,2.1739655E1,6.15541E2,2.66588E2,1.8970371E1,1.7642398E4,4.642155E3,2.9698639E1,1.348161E3,1.2484271E4,3.7408165E1,6.43615E2,1.1341717E4,1.6655645E4,6.268361E3,5.5329056E1,1.3254717E1,7.585507E3,5.2202034E1,2.8774576E1,6.457466E1,6.457466E1,5.5329056E1,6.1434578E1,1.4179859E4,2.6879662E1,2.4436363E1,1.2941819E4,3.2278717E1,3.497288E1,7.690762E3,1.2795168E4,-5.6211628E1,-3.738584E1,-6.4458916E1,-1.0257772E1,-1.8465782E1,1.9676249E1,3.5846176E0,3.4604183E1,-4.749353E0,2.0685179E1,4.6609707E1,-9.903175E1,-2.655633E1,-5.2918696E0,8.104832E0,1.0136791E2,-5.822231E1,-1.5934667E1,-7.0741053E0,7.9514854E1,2.0535181E1,-6.6230255E1,1.03004776E2,6.024242E1,1.4949611E1,5.054354E1,4.366466E1,9.5944084E1,-2.5954542E1,4.8646156E1,3.4471027E1,-1.9937696E0,-5.4769063E0,1.7615839E1,-1.9419556E1,6.483904E1,4.1914642E1,2.0861715E1,7.063522E1,3.6522324E1,4.874035E1,-7.282944E1,2.4328087E1,-5.5928047E1,5.8800953E1,1.0881243E2,7.2699E1,-1.201186E1,3.608865E1,6.773271E1,3.6233234E0,3.563764E1,6.447738E1,9.1516014E1,1.55793E1,6.324587E1,-5.9162474E0,7.754584E1,-4.90329E1,-1.874146E1,-2.1005568E1,9.914197E1,-2.4987452E1,9.62893E0],"split_indices":[475,237,475,295,476,385,186,55,106,51,21,95,360,105,50,382,140,345,200,210,461,185,317,281,85,331,1,31,86,476,361,171,431,425,0,221,340,265,86,240,175,131,55,285,115,110,256,281,360,126,351,431,406,366,351,435,266,321,20,361,261,465,40,0,0,0,0,0,0,0,0,0,0,0,0,0,0,0,0,0,0,0,0,0,0,0,0,0,0,0,0,0,0,0,0,0,0,0,0,0,0,0,0,0,0,0,0,0,0,0,0,0,0,0,0,0,0,0,0,0,0,0,0,0,0,0,0],"split_type":[0,0,0,0,0,0,0,0,0,0,0,0,0,0,0,0,0,0,0,0,0,0,0,0,0,0,0,0,0,0,0,0,0,0,0,0,0,0,0,0,0,0,0,0,0,0,0,0,0,0,0,0,0,0,0,0,0,0,0,0,0,0,0,0,0,0,0,0,0,0,0,0,0,0,0,0,0,0,0,0,0,0,0,0,0,0,0,0,0,0,0,0,0,0,0,0,0,0,0,0,0,0,0,0,0,0,0,0,0,0,0,0,0,0,0,0,0,0,0,0,0,0,0,0,0,0,0],"sum_hessian":[3.73548E6,2.681407E6,1.054073E6,1.677961E6,1.003446E6,7.96382E5,2.57691E5,1.499173E6,1.78788E5,1.57002E5,8.46444E5,6.54778E5,1.41604E5,2.35553E5,2.2138E4,1.255895E6,2.43278E5,1.35814E5,4.2974E4,1.48086E5,8.916E3,7.2379E5,1.22654E5,5.35494E5,1.19284E5,1.30755E5,1.0849E4,1.32883E5,1.0267E5,1.9221E4,2.917E3,1.120666E6,1.35229E5,1.83892E5,5.9386E4,1.11686E5,2.4128E4,4.2035E4,9.39E2,2.5431E4,1.22655E5,2.175E3,6.741E3,4.33795E5,2.89995E5,8.8687E4,3.3967E4,4.41441E5,9.4053E4,6.8349E4,5.0935E4,1.06469E5,2.4286E4,6.544E3,4.305E3,8.9253E4,4.363E4,6.7914E4,3.4756E4,4.437E3,1.4784E4,2.17E3,7.47E2,2.21261E5,8.99405E5,5.559E3,1.2967E5,1.47853E5,3.6039E4,3.73E4,2.2086E4,4.6659E4,6.5027E4,2.3222E4,9.06E2,2.8024E4,1.4011E4,3.17E2,6.22E2,9.469E3,1.5962E4,1.21127E5,1.528E3,1.394E3,7.81E2,1.403E3,5.338E3,3.21069E5,1.12726E5,2.84008E5,5.987E3,8.0437E4,8.25E3,2.5994E4,7.973E3,1.87184E5,2.54257E5,8.7648E4,6.405E3,4.6072E4,2.2277E4,3.5064E4,1.5871E4,1.05535E5,9.34E2,2.3056E4,1.23E3,1.233E3,5.311E3,3.993E3,3.12E2,5.2914E4,3.6339E4,1.5226E4,2.8404E4,5.1877E4,1.6037E4,1.1962E4,2.2794E4,3.684E3,7.53E2,4.202E3,1.0582E4,3.04E2,1.866E3,4.53E2,2.94E2],"tree_param":{"num_deleted":"0","num_feature":"480","num_nodes":"127","size_leaf_vector":"1"}},{"base_weights":[1.6290249E0,-1.8182117E2,4.6852985E2,-5.3681335E2,4.1278217E2,3.3632468E2,8.6768207E2,-6.215928E2,2.7054619E1,2.8181778E2,8.2876465E2,2.1674121E2,8.9418896E2,9.624862E2,-1.0360268E2,-7.3368005E2,-2.1166475E1,2.3307185E2,-4.107984E2,1.3493634E2,8.0293146E2,7.0228424E2,1.0623528E3,7.9250626E1,9.0721405E2,8.3048645E2,1.6452755E3,7.791806E2,1.1917456E3,-3.34303E2,1.2533926E3,-7.832998E2,-2.737032E2,1.8420688E2,-3.1341107E2,-6.649743E1,4.462826E2,-5.388424E2,3.5337856E1,2.8191172E1,7.848042E2,5.435003E2,9.8177576E2,5.0756375E2,1.0852096E3,1.0972374E3,-1.5876849E3,1.4989027E2,-2.8150772E2,8.286662E2,1.7333451E3,9.32515E2,3.8748065E2,1.2852384E3,1.8795544E3,5.714069E2,1.0349583E3,1.3212358E3,8.9541565E2,1.5248322E2,-4.880892E2,1.6090875E3,-3.6587723E2,-5.3921112E1,-3.5394054E1,-1.9810947E1,1.8918875E0,-9.410065E0,2.2475664E1,-1.7798695E1,5.421719E1,-7.494789E0,3.8959488E1,6.1342567E1,1.6297777E1,-2.9796085E1,2.1458344E1,5.2715144E0,-8.51645E1,4.3281407E0,-2.5966017E1,-4.083379E0,4.641744E1,2.9148993E1,-1.13799965E2,5.966936E1,2.8318808E1,2.6685535E1,-9.901149E1,5.731316E1,-7.063076E1,7.2227715E1,4.402926E1,-9.29955E1,8.2278883E-1,-5.3373513E0,1.6502245E1,-1.9398415E1,6.633021E1,4.693957E1,2.1446007E1,6.0131084E1,9.6048134E1,3.6648685E1,6.1306652E1,2.3071768E1,-4.931993E1,5.477901E1,8.8282364E1,1.1545487E2,7.518673E1,-5.156612E1,3.08173E1,7.036059E1,3.4801086E1,5.4000668E1,7.7313934E1,2.0686493E1,6.4537315E1,3.462622E1,-1.7570662E1,-4.7809566E1,-1.5614967E1,2.0439133E1,9.69079E1,-1.5835688E1,-2.0756578E1],"categories":[],"categories_nodes":[],"categories_segments":[],"categories_sizes":[],"default_left":[0,0,0,0,0,0,0,0,0,0,0,0,0,0,0,0,0,0,0,0,0,0,0,0,0,0,0,0,0,0,0,0,0,0,0,0,0,0,0,0,0,0,0,0,0,0,0,0,0,0,0,0,0,0,0,0,0,0,0,0,0,0,0,0,0,0,0,0,0,0,0,0,0,0,0,0,0,0,0,0,0,0,0,0,0,0,0,0,0,0,0,0,0,0,0,0,0,0,0,0,0,0,0,0,0,0,0,0,0,0,0,0,0,0,0,0,0,0,0,0,0,0,0,0,0,0,0],"id":8,"left_children":[1,3,5,7,9,11,13,15,17,19,21,23,25,27,29,31,33,35,37,39,41,43,45,47,49,51,53,55,57,59,61,63,65,67,69,71,73,75,77,79,81,83,85,87,89,91,93,95,97,99,101,103,105,107,109,111,113,115,117,119,121,123,125,-1,-1,-1,-1,-1,-1,-1,-1,-1,-1,-1,-1,-1,-1,-1,-1,-1,-1,-1,-1,-1,-1,-1,-1,-1,-1,-1,-1,-1,-1,-1,-1,-1,-1,-1,-1,-1,-1,-1,-1,-1,-1,-1,-1,-1,-1,-1,-1,-1,-1,-1,-1,-1,-1,-1,-1,-1,-1,-1,-1,-1,-1,-1,-1],"loss_changes":[3.1996055E11,5.660786E11,5.560433E10,8.027619E10,5.4618194E10,5.280497E10,2.4141283E10,9.8243576E10,1.979871E10,5.8363343E10,7.091634E9,6.187987E10,6.6838856E9,1.0036937E10,7.299396E9,2.8076409E10,1.3783059E10,9.533282E9,4.0117985E9,4.1264312E10,7.7786235E9,1.1611734E10,7.797031E9,1.3852652E10,7.022412E9,5.8213827E9,9.189294E8,7.053402E9,4.0709816E9,1.4919043E9,1.9519616E9,2.4713363E10,4.571897E9,1.3325251E10,5.6388925E9,4.3772124E9,8.18945E9,3.0152632E9,1.9088239E9,1.6328643E10,1.043807E10,7.6172227E9,8.723202E9,6.7167027E9,8.007463E9,6.261383E9,4.7863987E8,2.1017035E10,1.523907E10,4.350968E9,9.33376E8,6.132785E9,2.4504532E9,3.906734E8,1.0643927E9,5.2759E9,7.5052687E9,4.0073052E9,6.14544E9,1.3023607E9,1.2458644E9,1.0964756E9,1.348072E6,0E0,0E0,0E0,0E0,0E0,0E0,0E0,0E0,0E0,0E0,0E0,0E0,0E0,0E0,0E0,0E0,0E0,0E0,0E0,0E0,0E0,0E0,0E0,0E0,0E0,0E0,0E0,0E0,0E0,0E0,0E0,0E0,0E0,0E0,0E0,0E0,0E0,0E0,0E0,0E0,0E0,0E0,0E0,0E0,0E0,0E0,0E0,0E0,0E0,0E0,0E0,0E0,0E0,0E0,0E0,0E0,0E0,0E0,0E0,0E0,0E0,0E0,0E0,0E0],"parents":[2147483647,0,0,1,1,2,2,3,3,4,4,5,5,6,6,7,7,8,8,9,9,10,10,11,11,12,12,13,13,14,14,15,15,16,16,17,17,18,18,19,19,20,20,21,21,22,22,23,23,24,24,25,25,26,26,27,27,28,28,29,29,30,30,31,31,32,32,33,33,34,34,35,35,36,36,37,37,38,38,39,39,40,40,41,41,42,42,43,43,44,44,45,45,46,46,47,47,48,48,49,49,50,50,51,51,52,52,53,53,54,54,55,55,56,56,57,57,58,58,59,59,60,60,61,61,62,62],"right_children":[2,4,6,8,10,12,14,16,18,20,22,24,26,28,30,32,34,36,38,40,42,44,46,48,50,52,54,56,58,60,62,64,66,68,70,72,74,76,78,80,82,84,86,88,90,92,94,96,98,100,102,104,106,108,110,112,114,116,118,120,122,124,126,-1,-1,-1,-1,-1,-1,-1,-1,-1,-1,-1,-1,-1,-1,-1,-1,-1,-1,-1,-1,-1,-1,-1,-1,-1,-1,-1,-1,-1,-1,-1,-1,-1,-1,-1,-1,-1,-1,-1,-1,-1,-1,-1,-1,-1,-1,-1,-1,-1,-1,-1,-1,-1,-1,-1,-1,-1,-1,-1,-1,-1,-1,-1,-1],"split_conditions":[1.34079E2,1E0,1.0266528E4,7.69037E2,9.917393E3,1.0439348E4,4.4766556E1,2.68255E2,3.357049E1,9.871528E3,6.67527E2,1.0143348E4,1.6655645E4,7.67141E2,1.2484271E4,1.348161E3,3.4054718E1,1.7465626E1,5.238897E3,9.208431E3,6.73113E2,1.3684537E4,6.457466E1,3.842603E1,1.6836975E4,5.124088E1,2.42E1,1.3273034E4,5.2202034E1,5.1243877E1,3.722549E1,2.0497269E1,5.4342373E1,1.4751195E1,1.4938742E4,1.1187388E4,2.4595564E1,8.1307E1,3.8289528E1,4.9964745E1,8.1307E1,1.7090844E4,5.220983E1,1.3269636E4,6.457466E1,5.1467457E1,3.0791187E1,1.3254717E1,6.289423E3,2.8607407E1,5.5329056E1,1.3694405E4,6.457466E1,6.0127117E1,2.4659386E1,2.8798986E1,4.923142E1,2.66588E2,1.4403727E4,7.69037E2,3.497288E1,6.053096E3,1.4170955E4,-5.3921112E1,-3.5394054E1,-1.9810947E1,1.8918875E0,-9.410065E0,2.2475664E1,-1.7798695E1,5.421719E1,-7.494789E0,3.8959488E1,6.1342567E1,1.6297777E1,-2.9796085E1,2.1458344E1,5.2715144E0,-8.51645E1,4.3281407E0,-2.5966017E1,-4.083379E0,4.641744E1,2.9148993E1,-1.13799965E2,5.966936E1,2.8318808E1,2.6685535E1,-9.901149E1,5.731316E1,-7.063076E1,7.2227715E1,4.402926E1,-9.29955E1,8.2278883E-1,-5.3373513E0,1.6502245E1,-1.9398415E1,6.633021E1,4.693957E1,2.1446007E1,6.0131084E1,9.6048134E1,3.6648685E1,6.1306652E1,2.3071768E1,-4.931993E1,5.477901E1,8.8282364E1,1.1545487E2,7.518673E1,-5.156612E1,3.08173E1,7.036059E1,3.4801086E1,5.4000668E1,7.7313934E1,2.0686493E1,6.4537315E1,3.462622E1,-1.7570662E1,-4.7809566E1,-1.5614967E1,2.0439133E1,9.69079E1,-1.5835688E1,-2.0756578E1],"split_indices":[475,247,475,185,205,385,186,390,451,310,330,90,360,105,50,65,176,26,305,130,410,155,286,276,90,331,131,435,91,476,291,391,51,251,10,110,51,90,476,106,160,315,391,280,211,291,1,286,355,396,86,390,406,391,216,476,21,135,25,180,261,455,15,0,0,0,0,0,0,0,0,0,0,0,0,0,0,0,0,0,0,0,0,0,0,0,0,0,0,0,0,0,0,0,0,0,0,0,0,0,0,0,0,0,0,0,0,0,0,0,0,0,0,0,0,0,0,0,0,0,0,0,0,0,0,0,0],"split_type":[0,0,0,0,0,0,0,0,0,0,0,0,0,0,0,0,0,0,0,0,0,0,0,0,0,0,0,0,0,0,0,0,0,0,0,0,0,0,0,0,0,0,0,0,0,0,0,0,0,0,0,0,0,0,0,0,0,0,0,0,0,0,0,0,0,0,0,0,0,0,0,0,0,0,0,0,0,0,0,0,0,0,0,0,0,0,0,0,0,0,0,0,0,0,0,0,0,0,0,0,0,0,0,0,0,0,0,0,0,0,0,0,0,0,0,0,0,0,0,0,0,0,0,0,0,0,0],"sum_hessian":[3.73554E6,2.681824E6,1.053716E6,1.679264E6,1.00256E6,7.91546E5,2.6217E5,1.459781E6,2.19483E5,7.62502E5,2.40058E5,6.51823E5,1.39723E5,2.38856E5,2.3314E4,1.230139E6,2.29642E5,1.49256E5,7.0227E4,5.94841E5,1.67661E5,1.55736E5,8.4322E4,5.43583E5,1.0824E5,1.28801E5,1.0922E4,1.32733E5,1.06123E5,1.9927E4,3.387E3,1.110359E6,1.1978E5,1.34866E5,9.4776E4,6.206E4,8.7196E4,5.4566E4,1.5661E4,5.1092E5,8.3921E4,6.8418E4,9.9243E4,1.0324E5,5.2496E4,8.3227E4,1.095E3,4.54574E5,8.9009E4,9.8844E4,9.396E3,1.04689E5,2.4112E4,4.308E3,6.614E3,7.3241E4,5.9492E4,7.3849E4,3.2274E4,4.784E3,1.5143E4,2.777E3,6.1E2,2.25996E5,8.84363E5,8.5971E4,3.3809E4,5.6108E4,7.8758E4,9.1976E4,2.8E3,5.649E4,5.57E3,1.1645E4,7.5551E4,5.1528E4,3.038E3,1.5055E4,6.06E2,4.61698E5,4.9222E4,1.1927E4,7.1994E4,6.7474E4,9.44E2,6.5748E4,3.3495E4,1.02167E5,1.073E3,5.1244E4,1.252E3,3.197E4,5.1257E4,9.36E2,1.59E2,1.87489E5,2.67085E5,8.3483E4,5.526E3,7.7494E4,2.135E4,2.456E3,6.94E3,6.2332E4,4.2357E4,2.2881E4,1.231E3,3.091E3,1.217E3,3.084E3,3.53E3,1.997E3,7.1244E4,2.8351E4,3.1141E4,3.5646E4,3.8203E4,1.4549E4,1.7725E4,2.309E3,2.475E3,4.133E3,1.101E4,5.98E2,2.179E3,3.09E2,3.01E2],"tree_param":{"num_deleted":"0","num_feature":"480","num_nodes":"127","size_leaf_vector":"1"}},{"base_weights":[8.095017E-1,-1.747741E2,4.476851E2,-5.1059875E2,3.8616446E2,3.2942322E2,8.563925E2,-5.831626E2,1.4183553E2,-1.00486946E2,4.9172043E2,1.1919082E2,6.6357825E2,9.538417E2,6.1839514E2,-6.925875E2,-6.3206966E1,2.9270895E2,-3.3203537E2,-1.8142967E2,1.1103866E3,6.0102026E2,-1.3590355E2,7.772433E0,5.6254285E2,5.5908657E1,7.927278E2,4.7640485E2,1.037851E3,3.3844244E2,1.2452072E3,-7.4624677E2,-2.5099066E2,-2.0659572E2,3.1868222E2,1.9885323E2,7.7857574E2,-5.1814276E2,-8.359085E1,-2.2523106E2,6.970282E2,3.06364E2,1.3355367E3,4.3909015E2,8.0483655E2,-3.124738E2,5.2614417E2,1.7177443E2,-2.8803845E2,3.0390543E2,1.0134492E3,-2.0810704E2,3.526112E2,9.105197E2,5.0064282E2,7.114965E2,1.8862578E2,1.1335221E3,5.901105E2,1.7305205E3,2.8656354E2,1.7467239E3,8.618116E2,-5.1114834E1,-3.38979E1,-6.9143364E1,-1.0776237E1,-1.7022116E1,2.2215263E1,1.9595758E1,-4.31385E1,-4.53315E0,1.9080435E1,4.5175396E1,-9.4858925E1,-4.801063E1,-2.0465122E1,4.885248E1,-1.2847994E1,-3.433484E1,-8.092403E0,6.340872E1,-4.19786E1,3.494506E1,-7.228376E-2,1.8704514E1,7.240046E1,1.39536085E1,4.8822598E1,4.0874416E1,-4.5405262E1,-2.2673529E1,4.572564E1,7.323875E1,1.4756282E1,-4.252171E0,2.8709885E1,5.2378116E0,-2.4774199E1,9.858707E0,4.3542324E1,3.3562817E1,6.913046E1,-1.4079582E1,4.4001495E1,1.2308291E1,6.0024933E1,4.0008667E1,6.5055405E1,7.722585E0,4.229481E1,2.6986835E1,6.5566765E1,3.757509E0,7.3908165E1,4.8457706E1,7.270873E1,7.368933E1,2.0103334E1,9.69253E1,-1.8159178E1,9.493295E0,5.6064037E1,6.1329967E1,9.25934E1,7.5662384E1,2.8469486E1],"categories":[],"categories_nodes":[],"categories_segments":[],"categories_sizes":[],"default_left":[0,0,0,0,0,0,0,0,0,0,0,0,0,0,0,0,0,0,0,0,0,0,0,0,0,0,0,0,0,0,0,0,0,0,0,0,0,0,0,0,0,0,0,0,0,0,0,0,0,0,0,0,0,0,0,0,0,0,0,0,0,0,0,0,0,0,0,0,0,0,0,0,0,0,0,0,0,0,0,0,0,0,0,0,0,0,0,0,0,0,0,0,0,0,0,0,0,0,0,0,0,0,0,0,0,0,0,0,0,0,0,0,0,0,0,0,0,0,0,0,0,0,0,0,0,0,0],"id":9,"left_children":[1,3,5,7,9,11,13,15,17,19,21,23,25,27,29,31,33,35,37,39,41,43,45,47,49,51,53,55,57,59,61,63,65,67,69,71,73,75,77,79,81,83,85,87,89,91,93,95,97,99,101,103,105,107,109,111,113,115,117,119,121,123,125,-1,-1,-1,-1,-1,-1,-1,-1,-1,-1,-1,-1,-1,-1,-1,-1,-1,-1,-1,-1,-1,-1,-1,-1,-1,-1,-1,-1,-1,-1,-1,-1,-1,-1,-1,-1,-1,-1,-1,-1,-1,-1,-1,-1,-1,-1,-1,-1,-1,-1,-1,-1,-1,-1,-1,-1,-1,-1,-1,-1,-1,-1,-1,-1],"loss_changes":[2.9309216E11,5.0516984E11,5.0928583E10,7.941538E10,5.1587645E10,5.7409225E10,5.483643E9,8.588729E10,1.2003527E10,1.7544344E10,5.6611996E10,2.4778854E10,2.4767693E10,6.728532E9,1.205437E10,2.9550707E10,1.4371627E10,5.8070886E9,1.8746967E9,6.456172E9,2.0299745E9,2.3196647E10,1.4308704E10,1.9448072E10,1.1748588E10,4.333361E9,8.95438E9,1.6983306E9,6.110462E9,3.4291348E9,4.076544E9,2.0961362E10,5.4238305E9,1.6623688E10,6.199066E9,5.6472965E9,6.893728E9,1.1149614E9,3.193549E9,4.6744177E9,6.9948436E9,2.966307E8,9.469481E8,3.3678975E10,6.7445883E9,1.6717688E10,5.587996E9,2.665357E10,1.1650724E10,3.873882E9,4.6379377E9,2.3408758E9,2.350543E9,7.992918E9,8.94036E9,1.4228326E9,1.6518203E9,6.1938565E9,4.1734267E9,7.435986E8,3.6952515E9,5.0020147E8,2.2892595E9,0E0,0E0,0E0,0E0,0E0,0E0,0E0,0E0,0E0,0E0,0E0,0E0,0E0,0E0,0E0,0E0,0E0,0E0,0E0,0E0,0E0,0E0,0E0,0E0,0E0,0E0,0E0,0E0,0E0,0E0,0E0,0E0,0E0,0E0,0E0,0E0,0E0,0E0,0E0,0E0,0E0,0E0,0E0,0E0,0E0,0E0,0E0,0E0,0E0,0E0,0E0,0E0,0E0,0E0,0E0,0E0,0E0,0E0,0E0,0E0,0E0,0E0,0E0,0E0],"parents":[2147483647,0,0,1,1,2,2,3,3,4,4,5,5,6,6,7,7,8,8,9,9,10,10,11,11,12,12,13,13,14,14,15,15,16,16,17,17,18,18,19,19,20,20,21,21,22,22,23,23,24,24,25,25,26,26,27,27,28,28,29,29,30,30,31,31,32,32,33,33,34,34,35,35,36,36,37,37,38,38,39,39,40,40,41,41,42,42,43,43,44,44,45,45,46,46,47,47,48,48,49,49,50,50,51,51,52,52,53,53,54,54,55,55,56,56,57,57,58,58,59,59,60,60,61,61,62,62],"right_children":[2,4,6,8,10,12,14,16,18,20,22,24,26,28,30,32,34,36,38,40,42,44,46,48,50,52,54,56,58,60,62,64,66,68,70,72,74,76,78,80,82,84,86,88,90,92,94,96,98,100,102,104,106,108,110,112,114,116,118,120,122,124,126,-1,-1,-1,-1,-1,-1,-1,-1,-1,-1,-1,-1,-1,-1,-1,-1,-1,-1,-1,-1,-1,-1,-1,-1,-1,-1,-1,-1,-1,-1,-1,-1,-1,-1,-1,-1,-1,-1,-1,-1,-1,-1,-1,-1,-1,-1,-1,-1,-1,-1,-1,-1,-1,-1,-1,-1,-1,-1,-1,-1,-1,-1,-1,-1],"split_conditions":[1.34079E2,1E0,9.932147E3,2.349011E3,1.2715909E1,2.095299E3,5.1238174E1,1.102085E3,3.6737736E1,1.1256941E4,3.599356E1,6.972575E3,1.2964103E1,4.2138645E1,1.6009955E4,1.34079E2,6.42567E3,1.1281085E4,4.642155E3,1.3960378E1,9.490385E0,6.710714E3,5.178722E3,3.3938984E1,8.15105E3,4.510768E3,2.8436054E1,3.4603848E1,5.7395607E1,5.1717567E1,4.2765385E1,2.0481228E1,2.2940878E1,6.15541E2,6.1434578E1,1.8970371E1,1.7642398E4,4.7456757E1,4.92339E1,1.065194E3,4.000794E1,1.2025581E1,7.3328357E0,1.1551301E4,6.457466E1,6.268361E3,5.3291187E1,2.1107822E1,4.6092567E1,1.183271E4,2.2248465E1,9.48815E2,1.154433E4,1.3776182E4,3.1984211E1,1.3797334E1,7.799112E3,2.4436363E1,5.195101E1,3.0177965E1,1.6511459E4,5.304905E3,8.1307E1,-5.1114834E1,-3.38979E1,-6.9143364E1,-1.0776237E1,-1.7022116E1,2.2215263E1,1.9595758E1,-4.31385E1,-4.53315E0,1.9080435E1,4.5175396E1,-9.4858925E1,-4.801063E1,-2.0465122E1,4.885248E1,-1.2847994E1,-3.433484E1,-8.092403E0,6.340872E1,-4.19786E1,3.494506E1,-7.228376E-2,1.8704514E1,7.240046E1,1.39536085E1,4.8822598E1,4.0874416E1,-4.5405262E1,-2.2673529E1,4.572564E1,7.323875E1,1.4756282E1,-4.252171E0,2.8709885E1,5.2378116E0,-2.4774199E1,9.858707E0,4.3542324E1,3.3562817E1,6.913046E1,-1.4079582E1,4.4001495E1,1.2308291E1,6.0024933E1,4.0008667E1,6.5055405E1,7.722585E0,4.229481E1,2.6986835E1,6.5566765E1,3.757509E0,7.3908165E1,4.8457706E1,7.270873E1,7.368933E1,2.0103334E1,9.69253E1,-1.8159178E1,9.493295E0,5.6064037E1,6.1329967E1,9.25934E1,7.5662384E1,2.8469486E1],"split_indices":[475,242,425,295,471,95,371,55,106,160,26,370,286,441,375,380,135,355,270,26,471,200,320,271,330,475,336,1,1,436,11,166,416,430,126,221,345,336,166,220,186,1,26,280,286,115,341,286,11,405,221,175,25,35,321,296,40,246,441,126,395,450,275,0,0,0,0,0,0,0,0,0,0,0,0,0,0,0,0,0,0,0,0,0,0,0,0,0,0,0,0,0,0,0,0,0,0,0,0,0,0,0,0,0,0,0,0,0,0,0,0,0,0,0,0,0,0,0,0,0,0,0,0,0,0,0,0],"split_type":[0,0,0,0,0,0,0,0,0,0,0,0,0,0,0,0,0,0,0,0,0,0,0,0,0,0,0,0,0,0,0,0,0,0,0,0,0,0,0,0,0,0,0,0,0,0,0,0,0,0,0,0,0,0,0,0,0,0,0,0,0,0,0,0,0,0,0,0,0,0,0,0,0,0,0,0,0,0,0,0,0,0,0,0,0,0,0,0,0,0,0,0,0,0,0,0,0,0,0,0,0,0,0,0,0,0,0,0,0,0,0,0,0,0,0,0,0,0,0,0,0,0,0,0,0,0,0],"sum_hessian":[3.735368E6,2.681694E6,1.053674E6,1.677439E6,1.004255E6,8.17211E5,2.36463E5,1.509547E6,1.67892E5,1.79E5,8.25255E5,5.0162E5,3.15591E5,1.67767E5,6.8696E4,1.247095E6,2.62452E5,1.27347E5,4.0545E4,1.67785E5,1.1215E4,7.02854E5,1.22401E5,4.00877E5,1.00743E5,5.5317E4,2.60274E5,2.5104E4,1.42663E5,4.7488E4,2.1208E4,1.111976E6,1.35119E5,1.90809E5,7.1643E4,1.06731E5,2.0616E4,2.318E4,1.7365E4,1.59817E5,7.968E3,2.454E3,8.761E3,3.91675E5,3.11179E5,9.663E4,2.5771E4,2.57896E5,1.42981E5,6.4022E4,3.6721E4,2.9271E4,2.6046E4,1.85474E5,7.48E4,1.3816E4,1.1288E4,1.17545E5,2.5118E4,1.705E3,4.5783E4,9.187E3,1.2021E4,2.20523E5,8.91453E5,4.104E3,1.31015E5,1.58265E5,3.2544E4,6.7462E4,4.181E3,4.1302E4,6.5429E4,1.9697E4,9.19E2,4.578E3,1.8602E4,2.439E3,1.4926E4,1.9299E4,1.40518E5,5.809E3,2.159E3,1.078E3,1.376E3,9.18E2,7.843E3,3.01804E5,8.9871E4,3.08898E5,2.281E3,8.6671E4,9.959E3,5.089E3,2.0682E4,1.57429E5,1.00467E5,4.9415E4,9.3566E4,5.388E4,1.0142E4,1.9058E4,1.7663E4,2.742E4,1.851E3,2.3142E4,2.904E3,1.4462E5,4.0854E4,3.735E4,3.745E4,1.0742E4,3.074E3,1.0376E4,9.12E2,7.7713E4,3.9832E4,4.406E3,2.0712E4,1.551E3,1.54E2,4.1031E4,4.752E3,1.547E3,7.64E3,3.723E3,8.298E3],"tree_param":{"num_deleted":"0","num_feature":"480","num_nodes":"127","size_leaf_vector":"1"}},{"base_weights":[1.3623004E0,-1.6661719E2,4.2873975E2,-4.9487787E2,3.8097943E2,2.991995E2,7.704942E2,-5.780519E2,4.5631336E1,-1.4826736E2,4.7164468E2,1.5776361E2,8.204862E2,2.5483206E2,9.0579626E2,-6.7340625E2,-4.0926483E1,-3.638089E1,7.3819904E2,-1.9641833E2,9.9589655E2,5.7548413E2,-1.3883307E2,9.151966E1,8.6808154E2,7.663958E2,1.67834E3,5.683697E2,-2.4287068E2,7.796496E2,1.1495597E3,-9.403267E2,-5.984837E2,1.13814804E2,-4.0525534E2,-1.1009102E2,6.4816644E2,1.00267E3,-6.290696E2,-5.430184E2,-1.12242256E2,5.878479E2,1.7185654E3,4.3314062E2,7.9995905E2,-2.4226202E2,9.433204E2,3.4842186E1,6.3876794E2,9.6725555E2,-2.7164247E0,8.715267E2,3.2232358E2,1.7488829E3,2.4171901E2,-3.441739E2,9.0028375E2,-3.995662E2,2.042485E2,1.1820706E3,6.7399744E2,1.2462742E3,5.746963E2,-4.8492928E1,2.520126E1,-1.1232352E1,-3.4751854E1,-1.0210289E1,1.24562235E1,-2.3500221E1,1.8316046E1,2.4223835E0,-1.8006954E1,2.3867699E1,7.586384E1,5.77435E1,-1.00571556E2,4.0409554E1,-7.104528E1,-6.4463394E1,-1.2312708E1,6.529077E-1,-1.3539492E1,9.882838E1,2.6429197E1,8.861794E1,5.111867E1,1.1866958E1,4.4208664E1,4.0483982E1,-7.5394615E1,-2.378652E1,2.0788177E1,1.5580241E2,3.5218517E1,6.902395E0,-1.3322017E1,2.4309732E1,7.596468E1,3.3802536E1,6.0860676E1,7.999976E1,-1.394239E1,3.9457355E1,6.9793785E1,2.0204283E1,-4.5612934E1,6.7152565E1,1.0291964E2,6.643607E1,-1.4683243E1,-3.1216337E1,4.8967472E1,6.407571E1,-1.3203063E0,-1.3355725E1,-4.3163383E1,-1.1665814E0,6.0540554E1,7.444848E1,4.11101E1,3.1770731E1,8.0562035E1,7.468195E1,5.494507E1,-3.3386395E1,4.8638176E1],"categories":[],"categories_nodes":[],"categories_segments":[],"categories_sizes":[],"default_left":[0,0,0,0,0,0,0,0,0,0,0,0,0,0,0,0,0,0,0,0,0,0,0,0,0,0,0,0,0,0,0,0,0,0,0,0,0,0,0,0,0,0,0,0,0,0,0,0,0,0,0,0,0,0,0,0,0,0,0,0,0,0,0,0,0,0,0,0,0,0,0,0,0,0,0,0,0,0,0,0,0,0,0,0,0,0,0,0,0,0,0,0,0,0,0,0,0,0,0,0,0,0,0,0,0,0,0,0,0,0,0,0,0,0,0,0,0,0,0,0,0,0,0,0,0,0,0],"id":10,"left_children":[1,3,5,7,9,11,13,15,17,19,21,23,25,27,29,31,33,35,37,39,41,43,45,47,49,51,53,55,57,59,61,63,65,67,69,71,73,75,77,79,81,83,85,87,89,91,93,95,97,99,101,103,105,107,109,111,113,115,117,119,121,123,125,-1,-1,-1,-1,-1,-1,-1,-1,-1,-1,-1,-1,-1,-1,-1,-1,-1,-1,-1,-1,-1,-1,-1,-1,-1,-1,-1,-1,-1,-1,-1,-1,-1,-1,-1,-1,-1,-1,-1,-1,-1,-1,-1,-1,-1,-1,-1,-1,-1,-1,-1,-1,-1,-1,-1,-1,-1,-1,-1,-1,-1,-1,-1,-1],"loss_changes":[2.6821052E11,4.8208305E11,4.6666318E10,7.5380785E10,4.8231154E10,5.6356577E10,2.021448E10,7.442602E10,1.2700969E10,8.099247E9,5.4398763E10,2.8291297E10,7.5682693E9,9.397692E9,7.0565724E9,2.467863E10,1.2351113E10,1.0088506E10,8.5619364E9,4.115776E9,1.7497165E9,2.3433314E10,1.3962661E10,1.7057956E10,4.429345E9,7.1639695E9,9.8007654E8,1.1191041E10,1.6308348E9,6.4297206E9,4.3506893E9,1.1537236E10,3.478097E10,6.61701E9,3.2630354E9,7.1555297E9,2.8846449E9,9.103389E9,4.36908E9,6.1044526E9,2.2549422E9,3.1137E8,7.840717E7,3.963469E10,6.385615E9,1.7493066E10,5.6479693E9,1.5495767E10,6.933199E9,3.350745E9,2.321668E9,5.3586575E9,2.9657413E9,1.1556024E9,2.6460162E8,3.6547348E9,9.571508E9,1.0583708E9,1.3838621E9,3.472216E9,4.331053E9,2.4406098E9,5.5759186E9,0E0,0E0,0E0,0E0,0E0,0E0,0E0,0E0,0E0,0E0,0E0,0E0,0E0,0E0,0E0,0E0,0E0,0E0,0E0,0E0,0E0,0E0,0E0,0E0,0E0,0E0,0E0,0E0,0E0,0E0,0E0,0E0,0E0,0E0,0E0,0E0,0E0,0E0,0E0,0E0,0E0,0E0,0E0,0E0,0E0,0E0,0E0,0E0,0E0,0E0,0E0,0E0,0E0,0E0,0E0,0E0,0E0,0E0,0E0,0E0,0E0,0E0,0E0,0E0],"parents":[2147483647,0,0,1,1,2,2,3,3,4,4,5,5,6,6,7,7,8,8,9,9,10,10,11,11,12,12,13,13,14,14,15,15,16,16,17,17,18,18,19,19,20,20,21,21,22,22,23,23,24,24,25,25,26,26,27,27,28,28,29,29,30,30,31,31,32,32,33,33,34,34,35,35,36,36,37,37,38,38,39,39,40,40,41,41,42,42,43,43,44,44,45,45,46,46,47,47,48,48,49,49,50,50,51,51,52,52,53,53,54,54,55,55,56,56,57,57,58,58,59,59,60,60,61,61,62,62],"right_children":[2,4,6,8,10,12,14,16,18,20,22,24,26,28,30,32,34,36,38,40,42,44,46,48,50,52,54,56,58,60,62,64,66,68,70,72,74,76,78,80,82,84,86,88,90,92,94,96,98,100,102,104,106,108,110,112,114,116,118,120,122,124,126,-1,-1,-1,-1,-1,-1,-1,-1,-1,-1,-1,-1,-1,-1,-1,-1,-1,-1,-1,-1,-1,-1,-1,-1,-1,-1,-1,-1,-1,-1,-1,-1,-1,-1,-1,-1,-1,-1,-1,-1,-1,-1,-1,-1,-1,-1,-1,-1,-1,-1,-1,-1,-1,-1,-1,-1,-1,-1,-1,-1,-1,-1,-1,-1],"split_conditions":[1.34079E2,1E0,9.239575E3,1.34079E2,1.0321622E1,1.0361455E4,8.1307E1,9.04937E2,8.785825E3,1.1256941E4,3.599356E1,1.256554E4,1.6655645E4,5.7395607E1,1.3694405E4,2.2739527E1,3.497059E1,8.66124E2,8.743669E3,1.441206E3,1.2723122E4,7.17209E3,6.82621E3,1.0266528E4,4.447798E3,5.124088E1,4.211695E1,2.6718868E1,3.346599E1,7.5183994E-1,3.520345E1,5.4031082E1,2.9998333E1,9.211111E0,1.0865825E4,3.428793E1,1.2344493E4,6.457466E1,1.4417605E4,1.438065E3,3.295272E1,1E0,1E0,1.042457E4,6.457466E1,5.44327E2,4.4436844E1,4.823919E1,3.256264E3,1.4403727E4,4.101613E1,1.3691529E4,6.457466E1,2.4397287E1,-9.8078537E-1,8.1307E1,8.1307E1,5.974407E1,1.0854162E4,5.1717228E1,1.6655645E4,4.923142E1,5.556746E1,-4.8492928E1,2.520126E1,-1.1232352E1,-3.4751854E1,-1.0210289E1,1.24562235E1,-2.3500221E1,1.8316046E1,2.4223835E0,-1.8006954E1,2.3867699E1,7.586384E1,5.77435E1,-1.00571556E2,4.0409554E1,-7.104528E1,-6.4463394E1,-1.2312708E1,6.529077E-1,-1.3539492E1,9.882838E1,2.6429197E1,8.861794E1,5.111867E1,1.1866958E1,4.4208664E1,4.0483982E1,-7.5394615E1,-2.378652E1,2.0788177E1,1.5580241E2,3.5218517E1,6.902395E0,-1.3322017E1,2.4309732E1,7.596468E1,3.3802536E1,6.0860676E1,7.999976E1,-1.394239E1,3.9457355E1,6.9793785E1,2.0204283E1,-4.5612934E1,6.7152565E1,1.0291964E2,6.643607E1,-1.4683243E1,-3.1216337E1,4.8967472E1,6.407571E1,-1.3203063E0,-1.3355725E1,-4.3163383E1,-1.1665814E0,6.0540554E1,7.444848E1,4.11101E1,3.1770731E1,8.0562035E1,7.468195E1,5.494507E1,-3.3386395E1,4.8638176E1],"split_indices":[455,217,475,400,476,370,40,140,285,115,6,75,335,41,475,336,416,475,400,180,130,165,95,400,450,316,6,226,381,214,346,31,6,456,265,181,15,331,315,220,211,52,3,255,231,295,191,6,30,65,161,330,386,106,3,105,170,116,95,106,405,41,431,0,0,0,0,0,0,0,0,0,0,0,0,0,0,0,0,0,0,0,0,0,0,0,0,0,0,0,0,0,0,0,0,0,0,0,0,0,0,0,0,0,0,0,0,0,0,0,0,0,0,0,0,0,0,0,0,0,0,0,0,0,0,0,0],"split_type":[0,0,0,0,0,0,0,0,0,0,0,0,0,0,0,0,0,0,0,0,0,0,0,0,0,0,0,0,0,0,0,0,0,0,0,0,0,0,0,0,0,0,0,0,0,0,0,0,0,0,0,0,0,0,0,0,0,0,0,0,0,0,0,0,0,0,0,0,0,0,0,0,0,0,0,0,0,0,0,0,0,0,0,0,0,0,0,0,0,0,0,0,0,0,0,0,0,0,0,0,0,0,0,0,0,0,0,0,0,0,0,0,0,0,0,0,0,0,0,0,0,0,0,0,0,0,0],"sum_hessian":[3.736007E6,2.681896E6,1.054111E6,1.676754E6,1.005142E6,7.64379E5,2.89732E5,1.453143E6,2.23611E5,1.47007E5,8.58135E5,6.01249E5,1.6313E5,6.0221E4,2.29511E5,1.234063E6,2.1908E5,1.99936E5,2.3675E4,1.41071E5,5.936E3,7.33389E5,1.24746E5,5.49961E5,5.1288E4,1.53456E5,9.674E3,3.6946E4,2.3275E4,1.51246E5,7.8265E4,2.7047E5,9.63593E5,1.5377E5,6.531E4,1.80501E5,1.9435E4,1.9838E4,3.837E3,2.7565E4,1.13506E5,3.795E3,2.141E3,4.488E5,2.84589E5,1.13864E5,1.0882E4,4.98349E5,5.1612E4,4.6044E4,5.244E3,1.2408E5,2.9376E4,9.221E3,4.53E2,9.854E3,2.7092E4,1.7235E4,6.04E3,3.1449E4,1.19797E5,6.6993E4,1.1272E4,2.65051E5,5.419E3,1.9779E5,7.65803E5,4.5897E4,1.07873E5,6.0254E4,5.056E3,1.10464E5,7.0037E4,1.6244E4,3.191E3,1.8885E4,9.53E2,1.363E3,2.474E3,7.842E3,1.9723E4,6.3401E4,5.0105E4,1.54E2,3.641E3,1.986E3,1.55E2,3.12946E5,1.35854E5,2.83396E5,1.193E3,8.4045E4,2.9819E4,1.077E3,9.805E3,3.71195E5,1.27154E5,4.3991E4,7.621E3,2.1269E4,2.4775E4,7.7E2,4.474E3,1.07235E5,1.6845E4,2.7552E4,1.824E3,3.992E3,5.229E3,1.49E2,3.04E2,8.133E3,1.721E3,1.9195E4,7.897E3,1.3407E4,3.828E3,4.927E3,1.113E3,1.6972E4,1.4477E4,1.15062E5,4.735E3,2.5008E4,4.1985E4,2.735E3,8.537E3],"tree_param":{"num_deleted":"0","num_feature":"480","num_nodes":"127","size_leaf_vector":"1"}},{"base_weights":[-5.9984523E-1,-1.5968147E2,4.0394653E2,-4.6479718E2,3.5003217E2,2.964928E2,7.80438E2,-5.3252515E2,1.1722502E2,-8.8366844E1,4.4915045E2,1.998867E2,7.805655E2,8.3802277E2,-5.0389645E1,-6.322985E2,-4.3236195E1,2.4240913E2,-3.418779E2,-1.6320439E2,9.811509E2,5.495928E2,-1.2286531E2,8.0798E1,7.624244E2,7.237864E2,1.5648767E3,9.640545E2,5.4845087E2,-3.5311322E2,9.971448E2,-6.7516754E2,-2.213998E2,-1.5955801E2,3.3617868E2,6.007872E1,4.8923657E2,-5.9946234E2,-1.6522389E2,-2.0759041E2,6.704504E2,2.7959793E2,1.1648096E3,4.126516E2,7.43584E2,-3.1203372E2,4.4809357E2,1.5986331E2,-2.1656218E2,7.923686E2,-8.8648E2,6.879989E2,1.5381818E3,1.0136382E3,1.7313832E3,3.9340033E2,1.0495969E3,1.0251282E3,2.711966E2,1.0940675E3,-4.5421542E2,4.053787E2,1.602751E3,-4.6876408E1,-3.0532026E1,-6.344285E1,-8.882058E0,-1.2635635E1,2.4734415E1,2.2087717E1,-3.3226646E1,4.858394E0,-8.137295E1,4.517403E1,1.9820921E0,-3.5689007E1,-7.0301337E0,-4.9202652E1,-3.4184406E0,-2.4675297E1,-6.36503E0,5.7331787E1,-3.291657E1,2.5587677E1,4.939912E0,2.0201017E1,6.220981E1,1.2468824E1,4.2705326E1,3.5880234E1,8.2012825E1,-2.2415976E1,4.2858566E1,-1.2748396E1,2.9408371E1,-5.292203E0,1.7471157E1,-1.836904E1,1.6671314E1,1.3943168E1,4.3275047E1,-8.396525E1,-3.661862E0,4.1883694E1,2.303334E1,6.43491E1,1.04561195E2,8.57246E1,4.7939083E1,5.4046425E1,9.453001E1,-7.082253E1,2.477967E1,4.8805855E1,6.343539E1,-2.4289007E1,5.9149395E1,9.461179E0,5.690277E1,9.900447E1,-8.776427E0,-2.9277327E1,1.0180986E1,4.5839672E1,-9.2586355E0,4.0108658E1,9.500536E1],"categories":[],"categories_nodes":[],"categories_segments":[],"categories_sizes":[],"default_left":[0,0,0,0,0,0,0,0,0,0,0,0,0,0,0,0,0,0,0,0,0,0,0,0,0,0,0,0,0,0,0,0,0,0,0,0,0,0,0,0,0,0,0,0,0,0,0,0,0,0,0,0,0,0,0,0,0,0,0,0,0,0,0,0,0,0,0,0,0,0,0,0,0,0,0,0,0,0,0,0,0,0,0,0,0,0,0,0,0,0,0,0,0,0,0,0,0,0,0,0,0,0,0,0,0,0,0,0,0,0,0,0,0,0,0,0,0,0,0,0,0,0,0,0,0,0,0],"id":11,"left_children":[1,3,5,7,9,11,13,15,17,19,21,23,25,27,29,31,33,35,37,39,41,43,45,47,49,51,53,55,57,59,61,63,65,67,69,71,73,75,77,79,81,83,85,87,89,91,93,95,97,99,101,103,105,107,109,111,113,115,117,119,121,123,125,-1,-1,-1,-1,-1,-1,-1,-1,-1,-1,-1,-1,-1,-1,-1,-1,-1,-1,-1,-1,-1,-1,-1,-1,-1,-1,-1,-1,-1,-1,-1,-1,-1,-1,-1,-1,-1,-1,-1,-1,-1,-1,-1,-1,-1,-1,-1,-1,-1,-1,-1,-1,-1,-1,-1,-1,-1,-1,-1,-1,-1,-1,-1,-1],"loss_changes":[2.4037428E11,4.1693312E11,4.2648273E10,6.610636E10,4.362117E10,3.8353093E10,1.1198792E10,7.333452E10,1.004666E10,1.4816618E10,4.7040954E10,4.580195E10,6.075048E9,7.988314E9,4.8119127E9,2.197894E10,1.1229523E10,6.1815163E9,1.7041372E9,6.401888E9,1.5594875E9,1.8501304E10,1.3208795E10,1.3265951E10,5.8985595E9,3.7072282E9,8.4358144E8,7.444775E9,8.773085E9,1.722896E9,1.2185498E9,1.91276E10,5.4029307E9,1.1868587E10,6.307961E9,4.944718E9,1.0868299E10,7.991163E8,1.7619927E9,3.7707756E9,5.534756E9,1.0542923E8,5.789409E8,2.9426745E10,6.712312E9,1.4637907E10,2.9974047E9,2.2450366E10,9.830844E9,4.4055757E9,1.3738587E9,4.146729E9,7.41247E8,8.05929E7,7.3035776E8,3.678332E9,2.134229E9,5.8231194E9,2.9823457E9,8.6538797E8,9.5080064E8,5.2024243E8,3.9864883E8,0E0,0E0,0E0,0E0,0E0,0E0,0E0,0E0,0E0,0E0,0E0,0E0,0E0,0E0,0E0,0E0,0E0,0E0,0E0,0E0,0E0,0E0,0E0,0E0,0E0,0E0,0E0,0E0,0E0,0E0,0E0,0E0,0E0,0E0,0E0,0E0,0E0,0E0,0E0,0E0,0E0,0E0,0E0,0E0,0E0,0E0,0E0,0E0,0E0,0E0,0E0,0E0,0E0,0E0,0E0,0E0,0E0,0E0,0E0,0E0,0E0,0E0,0E0,0E0],"parents":[2147483647,0,0,1,1,2,2,3,3,4,4,5,5,6,6,7,7,8,8,9,9,10,10,11,11,12,12,13,13,14,14,15,15,16,16,17,17,18,18,19,19,20,20,21,21,22,22,23,23,24,24,25,25,26,26,27,27,28,28,29,29,30,30,31,31,32,32,33,33,34,34,35,35,36,36,37,37,38,38,39,39,40,40,41,41,42,42,43,43,44,44,45,45,46,46,47,47,48,48,49,49,50,50,51,51,52,52,53,53,54,54,55,55,56,56,57,57,58,58,59,59,60,60,61,61,62,62],"right_children":[2,4,6,8,10,12,14,16,18,20,22,24,26,28,30,32,34,36,38,40,42,44,46,48,50,52,54,56,58,60,62,64,66,68,70,72,74,76,78,80,82,84,86,88,90,92,94,96,98,100,102,104,106,108,110,112,114,116,118,120,122,124,126,-1,-1,-1,-1,-1,-1,-1,-1,-1,-1,-1,-1,-1,-1,-1,-1,-1,-1,-1,-1,-1,-1,-1,-1,-1,-1,-1,-1,-1,-1,-1,-1,-1,-1,-1,-1,-1,-1,-1,-1,-1,-1,-1,-1,-1,-1,-1,-1,-1,-1,-1,-1,-1,-1,-1,-1,-1,-1,-1,-1,-1,-1,-1,-1],"split_conditions":[1.34079E2,1E0,1.0439348E4,2.735301E3,1.2721052E1,9.039168E3,4.502027E1,1.437003E3,3.6737736E1,1.1256941E4,3.599356E1,1.0266528E4,1.6836975E4,4.97034E1,1.5268186E4,2.68255E2,9.04938E2,3.1152632E1,2.742105E3,1.3960378E1,9.490385E0,6.769431E3,5.41607E2,3.722549E1,6.457466E1,1.6836975E4,5.5329056E1,4.213885E1,5.1717228E1,4.1032787E1,1.5087048E4,2.048919E1,2.3448149E1,6.15541E2,5.8895607E1,1.2489897E4,5.1238174E1,6.1434578E1,2.891698E1,1.438065E3,4.000794E1,1.2025581E1,7.3328357E0,1.1351608E4,1.6655645E4,6.82621E3,3.169322E1,1.2964103E1,8.4617E1,4.2135136E1,3.6154E1,5.220983E1,6.1434578E1,1.5268186E4,1.3776182E4,8.1307E1,1.4403727E4,5.3291553E1,1.6655645E4,5.1947636E1,3.346599E1,1.4740053E4,5.9351013E1,-4.6876408E1,-3.0532026E1,-6.344285E1,-8.882058E0,-1.2635635E1,2.4734415E1,2.2087717E1,-3.3226646E1,4.858394E0,-8.137295E1,4.517403E1,1.9820921E0,-3.5689007E1,-7.0301337E0,-4.9202652E1,-3.4184406E0,-2.4675297E1,-6.36503E0,5.7331787E1,-3.291657E1,2.5587677E1,4.939912E0,2.0201017E1,6.220981E1,1.2468824E1,4.2705326E1,3.5880234E1,8.2012825E1,-2.2415976E1,4.2858566E1,-1.2748396E1,2.9408371E1,-5.292203E0,1.7471157E1,-1.836904E1,1.6671314E1,1.3943168E1,4.3275047E1,-8.396525E1,-3.661862E0,4.1883694E1,2.303334E1,6.43491E1,1.04561195E2,8.57246E1,4.7939083E1,5.4046425E1,9.453001E1,-7.082253E1,2.477967E1,4.8805855E1,6.343539E1,-2.4289007E1,5.9149395E1,9.461179E0,5.690277E1,9.900447E1,-8.776427E0,-2.9277327E1,1.0180986E1,4.5839672E1,-9.2586355E0,4.0108658E1,9.500536E1],"split_indices":[475,242,460,310,476,95,166,60,116,160,26,375,95,401,60,395,195,226,290,26,471,190,320,286,416,50,91,476,1,436,45,186,431,445,101,410,221,196,41,205,186,1,26,290,125,115,101,281,405,386,146,131,71,105,70,10,5,416,425,1,381,70,26,0,0,0,0,0,0,0,0,0,0,0,0,0,0,0,0,0,0,0,0,0,0,0,0,0,0,0,0,0,0,0,0,0,0,0,0,0,0,0,0,0,0,0,0,0,0,0,0,0,0,0,0,0,0,0,0,0,0,0,0,0,0,0,0],"split_type":[0,0,0,0,0,0,0,0,0,0,0,0,0,0,0,0,0,0,0,0,0,0,0,0,0,0,0,0,0,0,0,0,0,0,0,0,0,0,0,0,0,0,0,0,0,0,0,0,0,0,0,0,0,0,0,0,0,0,0,0,0,0,0,0,0,0,0,0,0,0,0,0,0,0,0,0,0,0,0,0,0,0,0,0,0,0,0,0,0,0,0,0,0,0,0,0,0,0,0,0,0,0,0,0,0,0,0,0,0,0,0,0,0,0,0,0,0,0,0,0,0,0,0,0,0,0,0],"sum_hessian":[3.735076E6,2.680867E6,1.054209E6,1.677007E6,1.00386E6,8.20137E5,2.34072E5,1.502201E6,1.74806E5,1.85112E5,8.18748E5,6.83694E5,1.36443E5,2.189E5,1.5172E4,1.247763E6,2.54438E5,1.37354E5,3.7452E4,1.73007E5,1.2105E4,6.96455E5,1.22293E5,5.64245E5,1.19449E5,1.27234E5,9.209E3,1.52517E5,6.6383E4,1.1771E4,3.401E3,1.129882E6,1.17881E5,1.94736E5,5.9702E4,7.8999E4,5.8355E4,1.5235E4,2.2217E4,1.64262E5,8.745E3,2.512E3,9.593E3,4.08261E5,2.88194E5,9.1859E4,3.0434E4,4.4573E5,1.18515E5,1.17319E5,2.13E3,1.2188E5,5.354E3,2.138E3,7.071E3,1.9883E4,1.32634E5,2.4411E4,4.1972E4,7.68E2,1.1003E4,1.721E3,1.68E3,2.23034E5,9.06848E5,4.726E3,1.13155E5,1.70465E5,2.4271E4,5.4005E4,5.697E3,7.7301E4,1.698E3,3.0371E4,2.7984E4,1.2196E4,3.039E3,2.349E3,1.9868E4,3.6013E4,1.28249E5,6.438E3,2.307E3,1.099E3,1.413E3,9.07E2,8.686E3,2.98033E5,1.10228E5,2.80081E5,8.113E3,8.227E4,9.589E3,5.056E3,2.5378E4,1.85589E5,2.60141E5,9.301E4,2.5505E4,1.4626E4,1.02693E5,1.078E3,1.052E3,7.3491E4,4.8389E4,3.684E3,1.67E3,1.53E2,1.985E3,1.392E3,5.679E3,1.062E3,1.8821E4,9.9329E4,3.3305E4,2.309E3,2.2102E4,3.8347E4,3.625E3,4.52E2,3.16E2,9.172E3,1.831E3,9.22E2,7.99E2,4.56E2,1.224E3],"tree_param":{"num_deleted":"0","num_feature":"480","num_nodes":"127","size_leaf_vector":"1"}},{"base_weights":[-3.206533E-1,-1.5301472E2,3.8382013E2,-4.4869318E2,3.4020847E2,2.3252567E2,6.276471E2,-5.153157E2,1.0498506E2,-9.0580696E1,4.2871146E2,9.5711044E1,7.541739E2,4.3083214E1,7.0364716E2,-6.0111316E2,-3.574172E1,-1.486083E2,3.008713E2,-1.2772948E2,1.4072449E3,5.2889844E2,-1.517058E2,2.2757607E1,7.115355E2,6.904688E2,1.4991832E3,-7.4401276E2,1.5808652E2,7.879894E2,7.9033646E1,-6.4439044E2,-2.044722E2,-1.2914214E2,3.940882E2,-5.013913E1,-5.707211E2,1.2748258E2,6.862007E2,-2.1713478E2,2.1232356E2,1.5971975E3,1.2573005E3,4.4455548E2,8.4404395E2,-3.2986835E2,4.386875E2,-7.2350105E1,3.2980045E2,7.900408E2,-2.52323E2,8.5997217E2,4.003426E2,1.1444165E3,1.7390247E3,-1.2772479E3,-5.0837027E2,1.2847371E2,1.4363885E3,8.593403E2,4.98028E2,-1.8537729E2,9.138945E2,-4.4519787E1,-2.9243805E1,-6.1822205E1,-8.459307E0,-1.2288133E1,9.625994E0,8.289668E0,5.217712E1,-6.736693E-1,-7.577292E1,-6.2634686E1,-2.0736403E1,9.248805E0,-9.123289E1,2.1575697E1,9.794602E1,-4.228394E1,-7.7407823E0,2.3333824E1,-4.5875754E0,7.6232925E1,8.988318E1,6.776863E1,4.3727375E1,1.1691007E1,3.544354E1,4.304744E1,-9.573818E1,-2.197242E1,3.9832836E1,8.774171E1,1.5650072E1,1.4767383E0,-1.667161E1,3.7695332E0,2.9219706E1,2.861775E1,5.4388496E1,2.64997E1,-6.1034473E1,2.1217634E1,5.039418E1,1.7468042E0,3.5817986E1,4.873361E1,8.751542E1,1.0915045E2,7.063143E1,-7.03388E1,-5.7230244E1,4.7069583E0,-3.236506E1,9.766494E0,-2.3165134E1,8.335712E1,5.9873016E1,6.0229744E1,3.9987984E1,1.7143606E1,6.979041E1,8.572304E1,-1.3839043E1,3.6639626E1,9.805783E1],"categories":[],"categories_nodes":[],"categories_segments":[],"categories_sizes":[],"default_left":[0,0,0,0,0,0,0,0,0,0,0,0,0,0,0,0,0,0,0,0,0,0,0,0,0,0,0,0,0,0,0,0,0,0,0,0,0,0,0,0,0,0,0,0,0,0,0,0,0,0,0,0,0,0,0,0,0,0,0,0,0,0,0,0,0,0,0,0,0,0,0,0,0,0,0,0,0,0,0,0,0,0,0,0,0,0,0,0,0,0,0,0,0,0,0,0,0,0,0,0,0,0,0,0,0,0,0,0,0,0,0,0,0,0,0,0,0,0,0,0,0,0,0,0,0,0,0],"id":12,"left_children":[1,3,5,7,9,11,13,15,17,19,21,23,25,27,29,31,33,35,37,39,41,43,45,47,49,51,53,55,57,59,61,63,65,67,69,71,73,75,77,79,81,83,85,87,89,91,93,95,97,99,101,103,105,107,109,111,113,115,117,119,121,123,125,-1,-1,-1,-1,-1,-1,-1,-1,-1,-1,-1,-1,-1,-1,-1,-1,-1,-1,-1,-1,-1,-1,-1,-1,-1,-1,-1,-1,-1,-1,-1,-1,-1,-1,-1,-1,-1,-1,-1,-1,-1,-1,-1,-1,-1,-1,-1,-1,-1,-1,-1,-1,-1,-1,-1,-1,-1,-1,-1,-1,-1,-1,-1,-1],"loss_changes":[2.191976E11,3.8997452E11,3.921099E10,6.16698E10,3.821141E10,4.6812983E10,1.8081808E10,6.1401465E10,8.919869E9,9.504566E9,4.8347644E10,2.3345684E10,6.467322E9,4.238924E9,1.8974425E10,2.1728297E10,9.09158E9,3.2526484E9,6.768478E9,5.067512E9,1.157376E8,1.8846056E10,1.2873751E10,1.3567456E10,4.1648886E9,6.174073E9,9.1142554E8,7.494984E8,1.5464968E9,6.5647247E9,9.459149E9,1.6708927E10,4.5343483E9,6.978703E9,5.9935227E9,3.409174E9,1.5741619E9,7.842228E9,1.0189945E10,5.169567E9,2.6838236E9,2.3725056E7,8.571366E7,3.1155503E10,6.9830656E9,1.160637E10,4.692784E9,9.435859E9,7.116877E9,3.2978862E9,3.1415304E9,5.105963E9,5.3469153E9,4.439291E8,9.248072E8,2.9814016E7,3.4677606E8,1.580075E9,4.900224E7,5.237506E9,8.728778E9,5.651805E9,1.9534008E9,0E0,0E0,0E0,0E0,0E0,0E0,0E0,0E0,0E0,0E0,0E0,0E0,0E0,0E0,0E0,0E0,0E0,0E0,0E0,0E0,0E0,0E0,0E0,0E0,0E0,0E0,0E0,0E0,0E0,0E0,0E0,0E0,0E0,0E0,0E0,0E0,0E0,0E0,0E0,0E0,0E0,0E0,0E0,0E0,0E0,0E0,0E0,0E0,0E0,0E0,0E0,0E0,0E0,0E0,0E0,0E0,0E0,0E0,0E0,0E0,0E0,0E0,0E0,0E0],"parents":[2147483647,0,0,1,1,2,2,3,3,4,4,5,5,6,6,7,7,8,8,9,9,10,10,11,11,12,12,13,13,14,14,15,15,16,16,17,17,18,18,19,19,20,20,21,21,22,22,23,23,24,24,25,25,26,26,27,27,28,28,29,29,30,30,31,31,32,32,33,33,34,34,35,35,36,36,37,37,38,38,39,39,40,40,41,41,42,42,43,43,44,44,45,45,46,46,47,47,48,48,49,49,50,50,51,51,52,52,53,53,54,54,55,55,56,56,57,57,58,58,59,59,60,60,61,61,62,62],"right_children":[2,4,6,8,10,12,14,16,18,20,22,24,26,28,30,32,34,36,38,40,42,44,46,48,50,52,54,56,58,60,62,64,66,68,70,72,74,76,78,80,82,84,86,88,90,92,94,96,98,100,102,104,106,108,110,112,114,116,118,120,122,124,126,-1,-1,-1,-1,-1,-1,-1,-1,-1,-1,-1,-1,-1,-1,-1,-1,-1,-1,-1,-1,-1,-1,-1,-1,-1,-1,-1,-1,-1,-1,-1,-1,-1,-1,-1,-1,-1,-1,-1,-1,-1,-1,-1,-1,-1,-1,-1,-1,-1,-1,-1,-1,-1,-1,-1,-1,-1,-1,-1,-1,-1,-1,-1,-1],"split_conditions":[1E0,1E0,7.182901E3,2.742105E3,1.1575E1,1.0439348E4,9.489855E0,2.009794E3,1.977921E3,1.2484271E4,3.599356E1,1.1433387E4,1.6655645E4,8.1307E1,4.4766556E1,2.68255E2,8.4231E2,7.28088E2,1.34079E2,1.3189474E1,1.119864E1,1.1551301E4,5.162068E3,6.774602E3,5.8495934E1,5.221051E1,2.418396E1,2.7881132E1,1.2949653E4,5.124088E1,9.912137E3,2.0457483E1,2.2759483E1,5.987538E3,4.502027E1,1.5467971E4,5.3790203E1,1.5104462E4,3.4847458E1,1.285129E3,3.4054718E1,3.354423E1,1.1813559E4,6.768724E3,6.457466E1,6.268361E3,2.8618708E1,4.8680405E1,1.5575472E1,1.4170955E4,9.448258E3,4.213413E1,2.7222221E1,6.0540676E1,2.6698076E1,1.2469048E1,8.743669E3,1.1546342E1,1.683591E3,7.518399E-1,1.6836975E4,2.6332314E1,1.6836975E4,-4.4519787E1,-2.9243805E1,-6.1822205E1,-8.459307E0,-1.2288133E1,9.625994E0,8.289668E0,5.217712E1,-6.736693E-1,-7.577292E1,-6.2634686E1,-2.0736403E1,9.248805E0,-9.123289E1,2.1575697E1,9.794602E1,-4.228394E1,-7.7407823E0,2.3333824E1,-4.5875754E0,7.6232925E1,8.988318E1,6.776863E1,4.3727375E1,1.1691007E1,3.544354E1,4.304744E1,-9.573818E1,-2.197242E1,3.9832836E1,8.774171E1,1.5650072E1,1.4767383E0,-1.667161E1,3.7695332E0,2.9219706E1,2.861775E1,5.4388496E1,2.64997E1,-6.1034473E1,2.1217634E1,5.039418E1,1.7468042E0,3.5817986E1,4.873361E1,8.751542E1,1.0915045E2,7.063143E1,-7.03388E1,-5.7230244E1,4.7069583E0,-3.236506E1,9.766494E0,-2.3165134E1,8.335712E1,5.9873016E1,6.0229744E1,3.9987984E1,1.7143606E1,6.979041E1,8.572304E1,-1.3839043E1,3.6639626E1,9.805783E1],"split_indices":[462,222,475,290,476,365,351,40,260,145,6,80,345,50,186,370,475,100,425,61,1,260,300,395,41,436,116,1,445,401,45,146,411,120,101,345,216,300,216,220,191,61,90,170,291,95,476,1,281,65,0,361,171,366,146,196,465,251,95,343,420,421,50,0,0,0,0,0,0,0,0,0,0,0,0,0,0,0,0,0,0,0,0,0,0,0,0,0,0,0,0,0,0,0,0,0,0,0,0,0,0,0,0,0,0,0,0,0,0,0,0,0,0,0,0,0,0,0,0,0,0,0,0,0,0,0,0],"split_type":[0,0,0,0,0,0,0,0,0,0,0,0,0,0,0,0,0,0,0,0,0,0,0,0,0,0,0,0,0,0,0,0,0,0,0,0,0,0,0,0,0,0,0,0,0,0,0,0,0,0,0,0,0,0,0,0,0,0,0,0,0,0,0,0,0,0,0,0,0,0,0,0,0,0,0,0,0,0,0,0,0,0,0,0,0,0,0,0,0,0,0,0,0,0,0,0,0,0,0,0,0,0,0,0,0,0,0,0,0,0,0,0,0,0,0,0,0,0,0,0,0,0,0,0,0,0,0],"sum_hessian":[3.736999E6,2.67407E6,1.062929E6,1.671835E6,1.002235E6,6.55928E5,4.07001E5,1.492274E6,1.79561E5,1.70811E5,8.31424E5,5.19641E5,1.36287E5,4.6827E4,3.60174E5,1.265815E6,2.26459E5,7.8254E4,1.01307E5,1.66678E5,4.133E3,7.09036E5,1.22388E5,4.64603E5,5.5038E4,1.25553E5,1.0734E4,5.969E3,4.0858E4,3.17325E5,4.2849E4,1.141289E6,1.24526E5,1.86035E5,4.0424E4,6.3453E4,1.4801E4,6.9869E4,3.1438E4,1.31979E5,3.4699E4,1.819E3,2.314E3,5.59341E5,1.49695E5,9.4017E4,2.8371E4,3.54726E5,1.09877E5,5.0893E4,4.145E3,7.925E4,4.6303E4,4.332E3,6.402E3,1.828E3,4.141E3,3.9934E4,9.24E2,2.54659E5,6.2666E4,3.2543E4,1.0306E4,2.22317E5,9.18972E5,4.116E3,1.2041E5,1.36534E5,4.9501E4,2.9911E4,1.0513E4,6.1905E4,1.548E3,2.754E3,1.2047E4,6.7871E4,1.998E3,2.6197E4,5.241E3,1.1904E4,1.20075E5,1.8894E4,1.5805E4,1.342E3,4.77E2,1.84E3,4.74E2,3.11215E5,2.48126E5,1.48784E5,9.11E2,8.5683E4,8.334E3,2.472E3,2.5899E4,2.55155E5,9.9571E4,5.4959E4,5.4918E4,2.94E4,2.1493E4,2.293E3,1.852E3,2.0089E4,5.9161E4,2.1474E4,2.4829E4,3.386E3,9.46E2,2.71E3,3.692E3,9.2E2,9.08E2,7.76E2,3.365E3,3.5881E4,4.053E3,4.67E2,4.57E2,3.7476E4,2.17183E5,5.3433E4,9.233E3,1.493E3,3.105E4,8.788E3,1.518E3],"tree_param":{"num_deleted":"0","num_feature":"480","num_nodes":"127","size_leaf_vector":"1"}},{"base_weights":[7.619238E-1,-1.424782E2,3.651835E2,-4.25963E2,3.3057547E2,2.668714E2,7.102316E2,-4.8765137E2,1.1411466E2,-1.20448944E2,4.1024744E2,1.3869707E2,7.008969E2,7.9745276E2,-1.1684017E1,-5.672981E2,-3.822585E1,2.2311047E2,-3.258667E2,-1.6018631E2,8.123255E2,5.0184903E2,-1.2588474E2,7.587676E1,6.596562E2,6.504305E2,1.5057172E3,6.5742505E2,9.940806E2,-3.648561E2,5.247829E2,-6.133206E2,-1.8478818E2,-1.6034448E2,3.0794257E2,-6.7184944E0,4.628675E2,-1.2151917E3,-2.7533148E2,-4.5198212E2,-8.6251595E1,4.779294E2,1.4343442E3,