{"learner":{"attributes":{"scikit_learn":"{\"_estimator_type\": \"regressor\"}"},"feature_names":[],"feature_types":[],"gradient_booster":{"model":{"cats":{"enc":[],"feature_segments":[],"sorted_idx":[]},"gbtree_model_param":{"num_parallel_tree":"1","num_trees":"300"},"iteration_indptr":[0,1,2,3,4,5,6,7,8,9,10,11,12,13,14,15,16,17,18,19,20,21,22,23,24,25,26,27,28,29,30,31,32,33,34,35,36,37,38,39,40,41,42,43,44,45,46,47,48,49,50,51,52,53,54,55,56,57,58,59,60,61,62,63,64,65,66,67,68,69,70,71,72,73,74,75,76,77,78,79,80,81,82,83,84,85,86,87,88,89,90,91,92,93,94,95,96,97,98,99,100,101,102,103,104,105,106,107,108,109,110,111,112,113,114,115,116,117,118,119,120,121,122,123,124,125,126,127,128,129,130,131,132,133,134,135,136,137,138,139,140,141,142,143,144,145,146,147,148,149,150,151,152,153,154,155,156,157,158,159,160,161,162,163,164,165,166,167,168,169,170,171,172,173,174,175,176,177,178,179,180,181,182,183,184,185,186,187,188,189,190,191,192,193,194,195,196,197,198,199,200,201,202,203,204,205,206,207,208,209,210,211,212,213,214,215,216,217,218,219,220,221,222,223,224,225,226,227,228,229,230,231,232,233,234,235,236,237,238,239,240,241,242,243,244,245,246,247,248,249,250,251,252,253,254,255,256,257,258,259,260,261,262,263,264,265,266,267,268,269,270,271,272,273,274,275,276,277,278,279,280,281,282,283,284,285,286,287,288,289,290,291,292,293,294,295,296,297,298,299,300],"tree_info":[0,0,0,0,0,0,0,0,0,0,0,0,0,0,0,0,0,0,0,0,0,0,0,0,0,0,0,0,0,0,0,0,0,0,0,0,0,0,0,0,0,0,0,0,0,0,0,0,0,0,0,0,0,0,0,0,0,0,0,0,0,0,0,0,0,0,0,0,0,0,0,0,0,0,0,0,0,0,0,0,0,0,0,0,0,0,0,0,0,0,0,0,0,0,0,0,0,0,0,0,0,0,0,0,0,0,0,0,0,0,0,0,0,0,0,0,0,0,0,0,0,0,0,0,0,0,0,0,0,0,0,0,0,0,0,0,0,0,0,0,0,0,0,0,0,0,0,0,0,0,0,0,0,0,0,0,0,0,0,0,0,0,0,0,0,0,0,0,0,0,0,0,0,0,0,0,0,0,0,0,0,0,0,0,0,0,0,0,0,0,0,0,0,0,0,0,0,0,0,0,0,0,0,0,0,0,0,0,0,0,0,0,0,0,0,0,0,0,0,0,0,0,0,0,0,0,0,0,0,0,0,0,0,0,0,0,0,0,0,0,0,0,0,0,0,0,0,0,0,0,0,0,0,0,0,0,0,0,0,0,0,0,0,0,0,0,0,0,0,0,0,0,0,0,0,0,0,0,0,0,0,0,0,0,0,0,0,0,0,0,0,0,0,0,0,0,0,0,0,0],"trees":[{"base_weights":[-1.1520435E1,-1.585155E3,2.879901E3,-3.5496075E2,-1.8180983E3,1.308778E3,5.2711357E3,-7.1958154E2,9.636458E2,-1.386443E3,-1.8628322E3,1.22349174E2,4.014113E3,6.424549E3,2.831182E3,-1.1578253E3,5.495401E2,2.17746E3,3.7398682E2,-1.6127318E3,-6.5040796E2,-1.72793E3,-1.8719121E3,-1.2208072E2,3.3496619E3,1.314275E3,4.5692417E3,3.368613E3,8.0870024E3,2.5143367E3,7.1194917E3,-1.6532198E3,-8.9579425E2,1.6038516E3,-5.911612E1,1.5495424E3,3.4270464E3,-9.7658234E2,8.045068E2,-1.6789913E3,-8.576429E2,7.655206E1,-8.850759E2,-1.8234176E3,-1.4925167E3,-9.360092E1,-2.2795675E1,-4.2014096E2,2.438914E3,6.0873457E3,2.6862925E3,2.434442E3,-2.4632797E2,4.968417E3,-5.549583E2,4.6722407E3,1.2601292E3,8.879598E3,4.9547847E3,4.0151855E3,1.7634331E3,8.118693E3,-8.028493E1,-8.3973946E1,4.1736608E0,-2.4800438E1,-6.882021E1,5.6770657E1,1.1919059E2,-2.391725E1,3.409266E1,4.2359325E1,1.717465E2,1.9363866E2,-1.3210823E1,-6.793895E1,-1.4463141E1,-3.7454372E1,4.8828335E1,-9.262211E1,-7.8187775E1,-5.7343304E1,-2.6629007E1,8.663924E0,-6.483779E1,-6.261514E1,-2.8598408E1,-9.130407E1,-1.6485199E1,-8.504732E1,-6.3632202E1,-2.6885725E1,2.1008116E2,1.5983559E2,-9.148748E1,3.6588657E2,1.683767E2,3.1808058E1,1.6145906E2,1.6805443E2,5.5975533E1,1.9769547E1,-3.4260937E1,2.8578387E2,1.655569E2,-6.592561E1,3.097754E2,1.949745E2,3.3545844E2,2.7284666E1,1.8473392E2,4.5914664E2,2.6192468E2,3.20499E2,1.8302446E2,8.4936035E1,2.661706E2,4.6516574E2,7.743693E1,2.888242E2,5.043649E2],"categories":[],"categories_nodes":[],"categories_segments":[],"categories_sizes":[],"default_left":[0,0,0,0,0,0,0,0,0,0,0,0,0,0,0,0,0,0,0,0,0,0,0,0,0,0,0,0,0,0,0,0,0,0,0,0,0,0,0,0,0,0,0,0,0,0,0,0,0,0,0,0,0,0,0,0,0,0,0,0,0,0,0,0,0,0,0,0,0,0,0,0,0,0,0,0,0,0,0,0,0,0,0,0,0,0,0,0,0,0,0,0,0,0,0,0,0,0,0,0,0,0,0,0,0,0,0,0,0,0,0,0,0,0,0,0,0,0,0,0,0],"id":0,"left_children":[1,3,5,7,9,11,13,15,17,19,21,23,25,27,29,31,33,35,37,39,41,43,45,47,49,51,53,55,57,59,61,63,65,67,69,71,73,75,77,79,81,83,85,87,89,-1,-1,91,93,95,97,99,101,103,105,107,109,111,113,115,117,119,-1,-1,-1,-1,-1,-1,-1,-1,-1,-1,-1,-1,-1,-1,-1,-1,-1,-1,-1,-1,-1,-1,-1,-1,-1,-1,-1,-1,-1,-1,-1,-1,-1,-1,-1,-1,-1,-1,-1,-1,-1,-1,-1,-1,-1,-1,-1,-1,-1,-1,-1,-1,-1,-1,-1,-1,-1,-1,-1],"loss_changes":[8.9094365E10,3.6330004E9,2.5919635E10,9.71892E8,2.0328038E8,1.3371068E10,7.681671E9,8.810765E8,3.1267827E8,1.6634035E8,8.595456E6,2.2857121E9,1.8974167E9,9.406964E9,1.1777812E9,1.5130406E8,2.612721E8,1.0689274E8,1.7289398E8,3.6984576E7,4.06692E7,1.1260544E7,5.03808E5,2.0574377E9,3.5413146E8,3.8169334E8,2.1566198E9,1.7972449E9,2.940076E9,9.1818086E8,5.3612928E8,1.865536E7,1.4765011E8,5.1732544E7,8.078081E7,1.2553866E8,7.835219E7,1.8520712E7,6.087656E7,1.1194624E7,5.406208E6,8.061973E6,1.99804E7,1.140608E6,6.313472E6,0E0,0E0,1.3140198E9,9.148233E8,1.0586752E8,1.827026E8,1.5098374E8,2.618222E7,1.1910103E9,4.050534E8,6.113229E8,4.362948E8,1.0099753E9,4.379817E8,8.1827226E8,8.742976E8,1.9071872E8,0E0,0E0,0E0,0E0,0E0,0E0,0E0,0E0,0E0,0E0,0E0,0E0,0E0,0E0,0E0,0E0,0E0,0E0,0E0,0E0,0E0,0E0,0E0,0E0,0E0,0E0,0E0,0E0,0E0,0E0,0E0,0E0,0E0,0E0,0E0,0E0,0E0,0E0,0E0,0E0,0E0,0E0,0E0,0E0,0E0,0E0,0E0,0E0,0E0,0E0,0E0,0E0,0E0,0E0,0E0,0E0,0E0,0E0,0E0],"parents":[2147483647,0,0,1,1,2,2,3,3,4,4,5,5,6,6,7,7,8,8,9,9,10,10,11,11,12,12,13,13,14,14,15,15,16,16,17,17,18,18,19,19,20,20,21,21,22,22,23,23,24,24,25,25,26,26,27,27,28,28,29,29,30,30,31,31,32,32,33,33,34,34,35,35,36,36,37,37,38,38,39,39,40,40,41,41,42,42,43,43,44,44,47,47,48,48,49,49,50,50,51,51,52,52,53,53,54,54,55,55,56,56,57,57,58,58,59,59,60,60,61,61],"right_children":[2,4,6,8,10,12,14,16,18,20,22,24,26,28,30,32,34,36,38,40,42,44,46,48,50,52,54,56,58,60,62,64,66,68,70,72,74,76,78,80,82,84,86,88,90,-1,-1,92,94,96,98,100,102,104,106,108,110,112,114,116,118,120,-1,-1,-1,-1,-1,-1,-1,-1,-1,-1,-1,-1,-1,-1,-1,-1,-1,-1,-1,-1,-1,-1,-1,-1,-1,-1,-1,-1,-1,-1,-1,-1,-1,-1,-1,-1,-1,-1,-1,-1,-1,-1,-1,-1,-1,-1,-1,-1,-1,-1,-1,-1,-1,-1,-1,-1,-1,-1,-1],"split_conditions":[4.4228873E-1,-1.3052575E-1,1.32718E2,2.151083E3,6.540291E-2,1E0,2.8588095E1,5.112152E3,-8.742278E-8,3.71464E2,1.305262E-1,6.95769E2,1.0698282E1,2.7698112E1,1.0948235E4,1.5081482E1,-5.555703E-1,1.0057579E4,2.5144028E1,9.85651E3,-6.540309E-2,4.251858E1,1.5462219E4,2.21436E2,2.7908813E1,-9.659257E-1,3.5584614E1,4.9999997E-1,3.214394E-1,4.3672203E1,4.085281E3,1.1218033E4,-2.588193E-1,5.2482E3,5.931993E1,3.7879322E1,4.7138306E1,3.9162746E1,2.095299E3,2.326815E1,5.016632E3,4.347494E3,3.72E1,1.634626E4,4.90228E2,-9.360092E1,-2.2795675E1,8.1307E1,3.334054E1,-7.518398E-1,4.506803E3,3.280238E1,6.0695653E0,-9.2387944E-1,1.1707675E4,1.527911E1,4.1873985E1,2.8432423E1,-8.314697E-1,3.1117544E1,2.910909E1,2.941297E1,-8.028493E1,-8.3973946E1,4.1736608E0,-2.4800438E1,-6.882021E1,5.6770657E1,1.1919059E2,-2.391725E1,3.409266E1,4.2359325E1,1.717465E2,1.9363866E2,-1.3210823E1,-6.793895E1,-1.4463141E1,-3.7454372E1,4.8828335E1,-9.262211E1,-7.8187775E1,-5.7343304E1,-2.6629007E1,8.663924E0,-6.483779E1,-6.261514E1,-2.8598408E1,-9.130407E1,-1.6485199E1,-8.504732E1,-6.3632202E1,-2.6885725E1,2.1008116E2,1.5983559E2,-9.148748E1,3.6588657E2,1.683767E2,3.1808058E1,1.6145906E2,1.6805443E2,5.5975533E1,1.9769547E1,-3.4260937E1,2.8578387E2,1.655569E2,-6.592561E1,3.097754E2,1.949745E2,3.3545844E2,2.7284666E1,1.8473392E2,4.5914664E2,2.6192468E2,3.20499E2,1.8302446E2,8.4936035E1,2.661706E2,4.6516574E2,7.743693E1,2.888242E2,5.043649E2],"split_indices":[144,23,315,100,28,52,191,235,3,150,23,215,221,1,0,211,3,65,211,215,28,181,0,20,136,68,311,4,4,31,315,310,23,210,316,191,146,101,110,201,185,130,211,0,165,0,0,95,271,3,250,26,311,68,20,76,316,171,3,146,301,271,0,0,0,0,0,0,0,0,0,0,0,0,0,0,0,0,0,0,0,0,0,0,0,0,0,0,0,0,0,0,0,0,0,0,0,0,0,0,0,0,0,0,0,0,0,0,0,0,0,0,0,0,0,0,0,0,0,0,0],"split_type":[0,0,0,0,0,0,0,0,0,0,0,0,0,0,0,0,0,0,0,0,0,0,0,0,0,0,0,0,0,0,0,0,0,0,0,0,0,0,0,0,0,0,0,0,0,0,0,0,0,0,0,0,0,0,0,0,0,0,0,0,0,0,0,0,0,0,0,0,0,0,0,0,0,0,0,0,0,0,0,0,0,0,0,0,0,0,0,0,0,0,0,0,0,0,0,0,0,0,0,0,0,0,0,0,0,0,0,0,0,0,0,0,0,0,0,0,0,0,0,0,0],"sum_hessian":[1.9579E4,1.2679E4,6.9E3,2.019E3,1.066E4,4.165E3,2.735E3,1.582E3,4.37E2,1.004E3,9.656E3,2.896E3,1.269E3,1.856E3,8.79E2,1.176E3,4.06E2,1.42E2,2.95E2,7.67E2,2.37E2,6.21E2,9.035E3,2.693E3,2.03E2,2.17E2,1.052E3,6.55E2,1.201E3,8.2E2,5.9E1,4.05E2,7.71E2,1.48E2,2.58E2,9.6E1,4.6E1,7.1E1,2.24E2,7.04E2,6.3E1,5.8E1,1.79E2,4.37E2,1.84E2,9.034E3,1E0,2.413E3,2.8E2,3.8E1,1.65E2,1.26E2,9.1E1,9.76E2,7.6E1,4.04E2,2.51E2,9.57E2,2.44E2,2.72E2,5.48E2,5.3E1,6E0,3.99E2,6E0,4.22E2,3.49E2,9.4E1,5.4E1,1.65E2,9.3E1,7.1E1,2.5E1,4.1E1,5E0,4.5E1,2.6E1,2.2E1,2.02E2,2.75E2,4.29E2,3.2E1,3.1E1,5.5E1,3E0,8.1E1,9.8E1,4.36E2,1E0,9.1E1,9.3E1,2.354E3,5.9E1,2.38E2,4.2E1,2.5E1,1.3E1,3.5E1,1.3E2,7.3E1,5.3E1,3.7E1,5.4E1,6.71E2,3.05E2,6.9E1,7E0,2.95E2,1.09E2,1.95E2,5.6E1,8.82E2,7.5E1,1.13E2,1.31E2,9.9E1,1.73E2,1.4E1,5.34E2,2.6E1,2.7E1],"tree_param":{"num_deleted":"0","num_feature":"322","num_nodes":"121","size_leaf_vector":"1"}},{"base_weights":[7.8929124E0,-1.4723097E3,2.8005754E3,-1.7124044E3,-1.8625877E2,1.2882799E3,5.117379E3,-1.763999E3,-1.2226694E3,-1.3704507E3,2.1616087E2,1.670918E2,3.7893284E3,6.2867676E3,2.6667903E3,-8.89201E1,-1.602855E3,-1.375161E3,-2.5185867E2,-1.4424675E3,1.5999385E2,-1.2346334E2,1.1711838E3,-5.2745102E1,3.373635E3,4.6584004E3,2.4498215E3,2.8977432E3,7.622528E3,1.9707931E3,4.7976094E3,-1.7038224E3,-1.2473427E3,-1.6394861E3,-9.896912E2,-4.632535E2,6.6568427E2,-1.5508687E3,-8.909187E2,-6.1499012E1,3.4226334E2,-8.3335516E2,9.9143225E2,2.2801511E3,5.0288132E2,-3.4810574E2,2.4104993E3,6.259304E3,2.5226833E3,2.884347E3,5.565821E3,1.3465562E3,3.7016514E3,4.482137E3,1.4980293E3,8.318605E3,5.1307866E3,1.4974832E3,5.4267705E3,3.501218E3,6.325203E3,-8.550056E1,-2.9287271E1,-7.223254E1,-4.526872E1,-8.481914E1,-6.1398834E1,-5.7288624E1,-2.2919455E1,1.3821219E1,-2.879218E1,6.030055E1,1.3845163E1,-8.317202E1,-5.978708E1,-2.289543E0,-6.1696167E1,3.4070972E1,2.7523024E0,-5.6247204E1,2.1380762E1,5.1820045E0,7.748275E1,9.195195E1,1.4265565E2,-1.2303013E1,4.4627636E1,-2.1708363E1,2.0186858E2,2.0561455E2,2.9058897E1,8.312148E1,3.8442703E2,1.76284E2,6.147604E1,1.112245E2,1.9808194E2,2.9815994E2,3.688075E1,1.5840915E2,-2.3075464E0,1.6333395E2,2.6474902E2,1.4034198E2,2.4742049E2,1.857542E1,1.2420408E2,3.9658737E2,5.327365E2,1.9412746E2,3.150832E2,1.0632147E2,-5.0748707E1,1.2382194E2,3.800439E2,1.9215741E2,-8.4035736E1,4.252972E2,2.0076883E2],"categories":[],"categories_nodes":[],"categories_segments":[],"categories_sizes":[],"default_left":[0,0,0,0,0,0,0,0,0,0,0,0,0,0,0,0,0,0,1,0,0,0,0,0,0,0,0,0,0,0,0,0,0,0,0,0,1,0,0,0,0,0,0,0,0,0,0,0,0,0,0,0,1,0,0,0,0,0,0,0,0,0,0,0,0,0,0,0,0,0,0,0,0,0,0,0,0,0,0,0,0,0,0,0,0,0,0,0,0,0,0,0,0,0,0,0,0,0,0,0,0,0,0,0,0,0,0,0,0,0,0,0,0,0,0,0,0,0,0],"id":1,"left_children":[1,3,5,7,9,11,13,15,17,19,21,23,25,27,29,-1,31,33,35,37,39,41,43,45,47,49,51,53,55,57,59,61,63,65,67,69,71,73,75,-1,77,79,81,83,85,87,89,91,93,95,97,99,101,103,105,107,109,111,113,115,117,-1,-1,-1,-1,-1,-1,-1,-1,-1,-1,-1,-1,-1,-1,-1,-1,-1,-1,-1,-1,-1,-1,-1,-1,-1,-1,-1,-1,-1,-1,-1,-1,-1,-1,-1,-1,-1,-1,-1,-1,-1,-1,-1,-1,-1,-1,-1,-1,-1,-1,-1,-1,-1,-1,-1,-1,-1,-1],"loss_changes":[8.140566E10,3.9739105E9,2.3895589E10,2.7189658E8,9.657706E8,1.1577684E10,7.7034127E9,1.9918848E7,1.5317146E8,5.6882624E7,4.9088445E8,2.0105998E9,1.4763418E9,8.230494E9,1.2837591E9,0E0,2.7129216E7,8.967027E7,2.7851248E7,2.7974528E7,6.5013725E6,8.848818E8,2.9308026E8,1.9433855E9,4.3357824E8,1.2299418E9,6.9247155E8,1.1398359E9,2.2242345E9,1.0698314E9,4.016507E8,3.37152E6,1.1107104E7,1.0326144E7,2.9908736E7,9.819698E6,5.33791E6,1.43616E7,2.4003776E7,0E0,2.105544E6,2.5160986E8,2.154192E8,3.2411328E7,7.288805E7,9.019012E8,8.879635E8,2.5658906E8,1.811415E8,1.7885389E8,9.760184E8,6.851342E8,1.462638E8,1.7514752E8,3.056603E8,8.373125E8,3.964549E8,9.202551E8,4.879099E8,2.1553856E8,4.5444787E8,0E0,0E0,0E0,0E0,0E0,0E0,0E0,0E0,0E0,0E0,0E0,0E0,0E0,0E0,0E0,0E0,0E0,0E0,0E0,0E0,0E0,0E0,0E0,0E0,0E0,0E0,0E0,0E0,0E0,0E0,0E0,0E0,0E0,0E0,0E0,0E0,0E0,0E0,0E0,0E0,0E0,0E0,0E0,0E0,0E0,0E0,0E0,0E0,0E0,0E0,0E0,0E0,0E0,0E0,0E0,0E0,0E0,0E0],"parents":[2147483647,0,0,1,1,2,2,3,3,4,4,5,5,6,6,7,7,8,8,9,9,10,10,11,11,12,12,13,13,14,14,16,16,17,17,18,18,19,19,20,20,21,21,22,22,23,23,24,24,25,25,26,26,27,27,28,28,29,29,30,30,31,31,32,32,33,33,34,34,35,35,36,36,37,37,38,38,40,40,41,41,42,42,43,43,44,44,45,45,46,46,47,47,48,48,49,49,50,50,51,51,52,52,53,53,54,54,55,55,56,56,57,57,58,58,59,59,60,60],"right_children":[2,4,6,8,10,12,14,16,18,20,22,24,26,28,30,-1,32,34,36,38,40,42,44,46,48,50,52,54,56,58,60,62,64,66,68,70,72,74,76,-1,78,80,82,84,86,88,90,92,94,96,98,100,102,104,106,108,110,112,114,116,118,-1,-1,-1,-1,-1,-1,-1,-1,-1,-1,-1,-1,-1,-1,-1,-1,-1,-1,-1,-1,-1,-1,-1,-1,-1,-1,-1,-1,-1,-1,-1,-1,-1,-1,-1,-1,-1,-1,-1,-1,-1,-1,-1,-1,-1,-1,-1,-1,-1,-1,-1,-1,-1,-1,-1,-1,-1,-1],"split_conditions":[4.9999997E-1,1.9509035E-1,1.32718E2,0E0,1.8405556E1,1E0,2.8588776E1,-1.3052575E-1,3.71464E2,1.1139338E4,5.2482E3,1.164787E3,-9.659258E-1,1.58436365E1,-8.6602545E-1,-8.89201E1,1.102085E3,4.467331E1,3.0407263E2,1.5081482E1,8.1307E1,1.32718E2,-6.0876155E-1,2.21436E2,3.0639795E1,4.2276352E1,2.273746E3,3.214393E-1,3.214394E-1,9.711837E3,4.061385E1,5.464743E3,-6.540309E-2,3.71464E2,4.896128E3,3.3458694E1,5.689531E2,1E0,-3.8268298E-1,-6.1499012E1,-7.071067E-1,8.63207E2,5.3750168E1,5.736588E1,5.245439E1,6.43615E2,-9.659258E-1,5.3498646E1,5.6995934E1,1.3011364E1,3.461091E1,2.21436E2,2.9823502E2,1.685148E3,1.55483E1,6.95678E3,1.3720752E4,4.792804E1,3.0166666E1,4.685777E1,4.3202374E1,-8.550056E1,-2.9287271E1,-7.223254E1,-4.526872E1,-8.481914E1,-6.1398834E1,-5.7288624E1,-2.2919455E1,1.3821219E1,-2.879218E1,6.030055E1,1.3845163E1,-8.317202E1,-5.978708E1,-2.289543E0,-6.1696167E1,3.4070972E1,2.7523024E0,-5.6247204E1,2.1380762E1,5.1820045E0,7.748275E1,9.195195E1,1.4265565E2,-1.2303013E1,4.4627636E1,-2.1708363E1,2.0186858E2,2.0561455E2,2.9058897E1,8.312148E1,3.8442703E2,1.76284E2,6.147604E1,1.112245E2,1.9808194E2,2.9815994E2,3.688075E1,1.5840915E2,-2.3075464E0,1.6333395E2,2.6474902E2,1.4034198E2,2.4742049E2,1.857542E1,1.2420408E2,3.9658737E2,5.327365E2,1.9412746E2,3.150832E2,1.0632147E2,-5.0748707E1,1.2382194E2,3.800439E2,1.9215741E2,-8.4035736E1,4.252972E2,2.0076883E2],"split_indices":[149,149,315,263,221,52,186,263,150,310,240,220,78,71,28,0,150,271,321,216,240,120,3,20,91,1,80,4,4,0,31,175,268,140,190,191,320,252,28,0,3,225,11,291,301,105,53,311,291,201,311,65,321,315,11,0,315,61,241,1,101,0,0,0,0,0,0,0,0,0,0,0,0,0,0,0,0,0,0,0,0,0,0,0,0,0,0,0,0,0,0,0,0,0,0,0,0,0,0,0,0,0,0,0,0,0,0,0,0,0,0,0,0,0,0,0,0,0,0],"split_type":[0,0,0,0,0,0,0,0,0,0,0,0,0,0,0,0,0,0,0,0,0,0,0,0,0,0,0,0,0,0,0,0,0,0,0,0,0,0,0,0,0,0,0,0,0,0,0,0,0,0,0,0,0,0,0,0,0,0,0,0,0,0,0,0,0,0,0,0,0,0,0,0,0,0,0,0,0,0,0,0,0,0,0,0,0,0,0,0,0,0,0,0,0,0,0,0,0,0,0,0,0,0,0,0,0,0,0,0,0,0,0,0,0,0,0,0,0,0,0],"sum_hessian":[1.9691E4,1.287E4,6.821E3,1.0845E4,2.025E3,4.128E3,2.693E3,9.809E3,1.036E3,5.13E2,1.512E3,2.851E3,1.277E3,1.822E3,8.71E2,8.995E3,8.14E2,8.95E2,1.41E2,4.9E2,2.3E1,1.116E3,3.96E2,2.669E3,1.82E2,7.73E2,5.04E2,5.16E2,1.306E3,6.58E2,2.13E2,6.31E2,1.83E2,5.29E2,3.66E2,1.15E2,2.6E1,4.08E2,8.2E1,2E0,2.1E1,6.82E2,4.34E2,1.48E2,2.48E2,2.384E3,2.85E2,4E1,1.42E2,2.63E2,5.1E2,2.69E2,2.35E2,2.41E2,2.75E2,1.019E3,2.87E2,5.8E2,7.8E1,1.17E2,9.6E1,6.27E2,4E0,1.14E2,6.9E1,4.62E2,6.7E1,2.82E2,8.4E1,1.5E1,1E2,1E1,1.6E1,3.07E2,1.01E2,2.4E1,5.8E1,9E0,1.2E1,5.54E2,1.28E2,1.68E2,2.66E2,8.6E1,6.2E1,8.5E1,1.63E2,2.339E3,4.5E1,1.47E2,1.38E2,1E1,3E1,7.9E1,6.3E1,1.65E2,9.8E1,4.71E2,3.9E1,1.16E2,1.53E2,1.87E2,4.8E1,5.4E1,1.87E2,1.29E2,1.46E2,8.78E2,1.41E2,1.41E2,1.46E2,4.64E2,1.16E2,3.4E1,4.4E1,1.1E2,7E0,4.8E1,4.8E1],"tree_param":{"num_deleted":"0","num_feature":"322","num_nodes":"119","size_leaf_vector":"1"}},{"base_weights":[-4.6691637E0,-1.3965793E3,2.6391555E3,-1.6161753E3,-8.135649E1,1.2049744E3,4.8665693E3,-1.6759973E3,-1.1401315E3,-1.2949501E3,3.452946E2,1.3906607E2,3.6735986E3,5.981985E3,2.3879785E3,-8.4386284E1,-1.4969702E3,-1.3232668E3,-2.35702E2,-1.3518816E3,3.250721E2,-1.5113241E1,1.4536211E3,-1.4790875E2,2.1957314E3,3.92148E3,-9.3087616E2,2.900647E3,7.2089746E3,4.519676E3,1.6242251E3,-1.6283098E3,-1.1125962E3,-1.4344772E3,-6.974244E2,-6.602886E2,2.1200844E2,-1.4626112E3,-7.433103E2,7.2656525E2,4.002447E1,-8.3319415E2,9.154852E2,2.2595586E3,7.560211E2,-4.9369138E2,2.097031E3,2.9181143E3,-9.1570656E1,2.3566465E3,5.008031E3,2.974304E2,-1.3667295E3,4.3886304E3,1.4742487E3,7.701012E3,3.912464E3,2.8404338E3,6.58914E3,1.0717693E3,3.9736516E3,-8.161914E1,5.113538E0,-3.5880337E1,-6.3420837E1,-7.288387E1,2.5067019E1,-1.1499004E1,-4.9359074E1,-3.86926E1,-6.7749566E-1,-2.3933056E1,2.6729055E1,-8.032394E1,-5.6134468E1,5.211241E0,-5.437942E1,5.9780364E0,4.0390293E1,-9.775148E0,1.0127028E1,-4.9116592E1,5.1385254E1,2.3703968E1,9.324369E1,8.8269905E1,1.7676433E2,-3.9948857E0,7.964138E1,-2.8157846E1,1.7733887E2,2.3964763E2,3.9949696E1,1.8995343E2,3.511422E1,1.6497191E2,4.4901775E1,3.9702042E2,2.258317E2,-9.161242E1,2.8624878E2,1.27236916E2,2.3920898E2,2.056851E1,1.1828478E2,4.0193988E2,2.3804341E2,1.2730768E2,2.3841006E2,1.0895756E2,3.1378925E2,3.692047E2,7.027731E1,3.7085544E2,3.8655422E1,4.9665623E1,2.7157843E2],"categories":[],"categories_nodes":[],"categories_segments":[],"categories_sizes":[],"default_left":[0,0,0,0,0,0,0,0,0,0,0,0,0,0,0,0,0,0,0,0,0,0,0,0,0,0,0,0,0,0,0,0,0,0,0,0,0,0,0,0,0,0,0,0,0,0,0,0,0,0,0,0,0,0,0,0,0,0,0,0,0,0,0,0,0,0,0,0,0,0,0,0,0,0,0,0,0,0,0,0,0,0,0,0,0,0,0,0,0,0,0,0,0,0,0,0,0,0,0,0,0,0,0,0,0,0,0,0,0,0,0,0,0,0,0,0,0],"id":2,"left_children":[1,3,5,7,9,11,13,15,17,19,21,23,25,27,29,-1,31,33,35,37,39,41,43,45,47,49,51,53,55,57,59,61,63,65,67,69,71,73,75,77,79,81,83,85,87,89,91,93,-1,95,97,-1,99,101,103,105,107,109,111,113,115,-1,-1,-1,-1,-1,-1,-1,-1,-1,-1,-1,-1,-1,-1,-1,-1,-1,-1,-1,-1,-1,-1,-1,-1,-1,-1,-1,-1,-1,-1,-1,-1,-1,-1,-1,-1,-1,-1,-1,-1,-1,-1,-1,-1,-1,-1,-1,-1,-1,-1,-1,-1,-1,-1,-1,-1],"loss_changes":[7.192495E10,3.6978893E9,2.1528363E10,3.1054848E8,9.4953965E8,1.0793191E10,7.2844165E9,1.7934336E7,2.0308557E8,4.4433344E7,5.42075E8,1.6918701E9,1.4155172E9,6.8600914E9,1.3293215E9,0E0,2.8882432E7,7.006131E7,3.967909E7,2.997824E7,1.9164791E6,7.811003E8,1.8551168E8,1.9541084E9,1.0264525E9,1.9843154E9,2.0003069E8,1.0972078E9,2.0800963E9,7.319122E8,7.823013E8,3.345792E6,8.814272E6,3.962445E7,2.090244E7,7.848216E6,2.2980576E7,1.7219968E7,2.141386E7,2.48612E5,4.6064425E5,1.5254106E8,2.0026742E8,9.084262E7,1.260377E8,6.1414624E8,1.171971E9,5.790413E8,0E0,6.612424E8,9.6128205E8,0E0,2.118702E8,1.7308006E8,2.5200928E8,1.0849649E9,1.877929E8,2.6120429E8,3.8520986E8,9.266572E8,4.9428966E8,0E0,0E0,0E0,0E0,0E0,0E0,0E0,0E0,0E0,0E0,0E0,0E0,0E0,0E0,0E0,0E0,0E0,0E0,0E0,0E0,0E0,0E0,0E0,0E0,0E0,0E0,0E0,0E0,0E0,0E0,0E0,0E0,0E0,0E0,0E0,0E0,0E0,0E0,0E0,0E0,0E0,0E0,0E0,0E0,0E0,0E0,0E0,0E0,0E0,0E0,0E0,0E0,0E0,0E0,0E0,0E0],"parents":[2147483647,0,0,1,1,2,2,3,3,4,4,5,5,6,6,7,7,8,8,9,9,10,10,11,11,12,12,13,13,14,14,16,16,17,17,18,18,19,19,20,20,21,21,22,22,23,23,24,24,25,25,26,26,27,27,28,28,29,29,30,30,31,31,32,32,33,33,34,34,35,35,36,36,37,37,38,38,39,39,40,40,41,41,42,42,43,43,44,44,45,45,46,46,47,47,49,49,50,50,52,52,53,53,54,54,55,55,56,56,57,57,58,58,59,59,60,60],"right_children":[2,4,6,8,10,12,14,16,18,20,22,24,26,28,30,-1,32,34,36,38,40,42,44,46,48,50,52,54,56,58,60,62,64,66,68,70,72,74,76,78,80,82,84,86,88,90,92,94,-1,96,98,-1,100,102,104,106,108,110,112,114,116,-1,-1,-1,-1,-1,-1,-1,-1,-1,-1,-1,-1,-1,-1,-1,-1,-1,-1,-1,-1,-1,-1,-1,-1,-1,-1,-1,-1,-1,-1,-1,-1,-1,-1,-1,-1,-1,-1,-1,-1,-1,-1,-1,-1,-1,-1,-1,-1,-1,-1,-1,-1,-1,-1,-1,-1],"split_conditions":[4.9999997E-1,1.9509041E-1,1.32718E2,1.1924881E-8,1.8405556E1,1E0,2.8763159E1,-6.540316E-2,2.21436E2,1.1140507E4,1.282377E3,1.91007E2,3.6136425E1,1.58440275E1,8.968727E-1,-8.4386284E1,7.28088E2,6.69889E2,6.5403074E-2,1.5337255E1,1.9964151E1,2.232724E3,-8.742278E-8,8.1307E1,3.3458782E1,4.5705086E1,2.5144028E1,3.214393E-1,4.9999997E-1,4.061385E1,7.42999E3,3.584349E3,-9.238795E-1,1.6655645E4,8.1307E1,8.263893E3,3.043417E2,1.065194E3,-1.3052575E-1,5.5E0,3.6136425E1,1.164787E3,6.0078644E1,9.355232E3,3.3336365E1,7.28088E2,2.9694546E1,-9.4693017E-1,-9.1570656E1,-9.4693017E-1,4.252381E1,2.974304E2,1.2876499E4,1.317902E3,1.6888462E1,2.8432423E1,1.3081996E4,5.8876976E1,5.578866E1,3.3917965E1,3.0807432E1,-8.161914E1,5.113538E0,-3.5880337E1,-6.3420837E1,-7.288387E1,2.5067019E1,-1.1499004E1,-4.9359074E1,-3.86926E1,-6.7749566E-1,-2.3933056E1,2.6729055E1,-8.032394E1,-5.6134468E1,5.211241E0,-5.437942E1,5.9780364E0,4.0390293E1,-9.775148E0,1.0127028E1,-4.9116592E1,5.1385254E1,2.3703968E1,9.324369E1,8.8269905E1,1.7676433E2,-3.9948857E0,7.964138E1,-2.8157846E1,1.7733887E2,2.3964763E2,3.9949696E1,1.8995343E2,3.511422E1,1.6497191E2,4.4901775E1,3.9702042E2,2.258317E2,-9.161242E1,2.8624878E2,1.27236916E2,2.3920898E2,2.056851E1,1.1828478E2,4.0193988E2,2.3804341E2,1.2730768E2,2.3841006E2,1.0895756E2,3.1378925E2,3.692047E2,7.027731E1,3.7085544E2,3.8655422E1,4.9665623E1,2.7157843E2],"split_indices":[149,144,315,144,221,57,196,149,150,315,105,20,316,76,149,0,155,170,149,191,236,245,3,265,276,1,276,4,4,31,0,165,4,10,260,105,321,255,3,126,276,220,316,70,201,105,126,53,0,68,66,0,10,315,1,171,315,306,51,31,216,0,0,0,0,0,0,0,0,0,0,0,0,0,0,0,0,0,0,0,0,0,0,0,0,0,0,0,0,0,0,0,0,0,0,0,0,0,0,0,0,0,0,0,0,0,0,0,0,0,0,0,0,0,0,0,0],"split_type":[0,0,0,0,0,0,0,0,0,0,0,0,0,0,0,0,0,0,0,0,0,0,0,0,0,0,0,0,0,0,0,0,0,0,0,0,0,0,0,0,0,0,0,0,0,0,0,0,0,0,0,0,0,0,0,0,0,0,0,0,0,0,0,0,0,0,0,0,0,0,0,0,0,0,0,0,0,0,0,0,0,0,0,0,0,0,0,0,0,0,0,0,0,0,0,0,0,0,0,0,0,0,0,0,0,0,0,0,0,0,0,0,0,0,0,0,0],"sum_hessian":[1.9543E4,1.2803E4,6.74E3,1.0971E4,1.832E3,4.101E3,2.639E3,9.744E3,1.227E3,4.76E2,1.356E3,2.865E3,1.236E3,1.819E3,8.2E2,9.137E3,6.07E2,1.02E3,2.07E2,4.6E2,1.6E1,1.024E3,3.32E2,2.515E3,3.5E2,1.173E3,6.3E1,5.19E2,1.3E3,2.15E2,6.05E2,4.5E2,1.57E2,8.65E2,1.55E2,1.06E2,1.01E2,3.88E2,7.2E1,6E0,1E1,5.45E2,4.79E2,1.53E2,1.79E2,2.18E3,3.35E2,2.97E2,5.3E1,4.82E2,6.91E2,3E0,6E1,2.53E2,2.66E2,1.13E3,1.7E2,1.2E2,9.5E1,4.91E2,1.14E2,4.49E2,1E0,4.6E1,1.11E2,8.55E2,1E1,6E1,9.5E1,9E1,1.6E1,3.2E1,6.9E1,2.7E2,1.18E2,2.1E1,5.1E1,1E0,5E0,4E0,6E0,5.05E2,4E1,3.28E2,1.51E2,1.12E2,4.1E1,9E1,8.9E1,2.144E3,3.6E1,1.08E2,2.27E2,2.12E2,8.5E1,2.92E2,1.9E2,9.7E1,5.94E2,5.7E1,3E0,4.6E1,2.07E2,1.22E2,1.44E2,1.012E3,1.18E2,6.7E1,1.03E2,1.02E2,1.8E1,8.2E1,1.3E1,2.1E1,4.7E2,3.8E1,7.6E1],"tree_param":{"num_deleted":"0","num_feature":"322","num_nodes":"117","size_leaf_vector":"1"}},{"base_weights":[-5.0269103E0,-1.3830629E3,2.3815488E3,-1.5691981E3,-4.2889743E2,1.0313708E3,4.5083506E3,-1.6008951E3,-1.2676935E3,-1.362117E3,-9.107598E1,1.6800365E1,3.1569558E3,5.510988E3,2.3978025E3,-1.6015958E3,-1.0159744E3,-1.4367573E3,-7.7144214E2,-1.4146637E3,-1.7341849E2,-3.6079132E2,6.9154755E2,-1.742986E2,2.9007546E3,3.9895293E3,1.6861427E3,2.8248848E3,7.0743906E3,5.1770215E2,2.2603967E3,-1.6017123E3,-1.2681732E1,2.4605219E1,-1.1698347E3,-1.5288705E3,-1.1033541E3,-2.8373843E2,-9.847594E2,-1.4291547E3,3.550464E2,7.300433E1,-7.823031E2,-9.762153E2,3.74302E2,1.955436E3,7.889265E1,-3.078389E2,3.3149998E3,5.6677256E3,2.4126477E3,3.0732769E3,5.4986475E3,1.9047388E2,3.0639028E3,1.3169012E3,4.101378E3,7.4770366E3,4.264955E3,3.0850095E2,2.9322812E3,-8.02632E1,-7.5877975E1,-7.130986E1,-3.1652277E1,-7.656426E1,-3.3878174E0,-2.289572E1,-5.9746838E1,-1.6495367E1,3.322027E1,-4.1714607E1,-6.2860847E1,-7.760232E1,-6.441956E1,3.2092384E1,-1.9803972E1,8.890585E0,-5.854731E0,-4.3379623E1,-6.7641664E0,-5.286311E1,1.1410567E2,4.5117058E1,-1.9145668E1,1.04365105E2,-8.1340225E1,-2.2130913E1,3.578103E1,-2.5848768E1,8.285662E1,1.8984889E2,-5.3063507E1,3.7697513E2,2.156488E2,1.5379741E2,4.7384926E1,1.7450206E2,-2.836115E1,2.8576898E2,1.408739E0,-2.2813688E1,8.735733E1,2.0399684E2,1.0668099E2,1.1309762E2,2.3645263E0,2.3212212E2,1.245841E2,3.8804922E2,1.5061311E2,1.08901184E2,2.4353177E2,-1.3901004E1,1.891366E2,1.3335577E2,3.3820944E2],"categories":[],"categories_nodes":[],"categories_segments":[],"categories_sizes":[],"default_left":[0,0,0,0,0,0,0,0,0,0,0,0,0,0,0,0,0,0,0,0,0,0,0,0,0,0,0,0,0,0,0,0,0,0,0,0,0,0,0,0,0,0,0,0,0,0,0,0,0,0,0,0,0,1,0,0,0,0,0,0,0,0,0,0,0,0,0,0,0,0,0,0,0,0,0,0,0,0,0,0,0,0,0,0,0,0,0,0,0,0,0,0,0,0,0,0,0,0,0,0,0,0,0,0,0,0,0,0,0,0,0,0,0,0,0,0,0],"id":3,"left_children":[1,3,5,7,9,11,13,15,17,19,21,23,25,27,29,31,33,35,37,39,41,43,45,47,49,51,53,55,57,-1,59,61,-1,-1,63,65,67,69,71,73,75,77,79,81,83,85,87,89,91,93,95,97,99,101,103,105,107,109,111,113,115,-1,-1,-1,-1,-1,-1,-1,-1,-1,-1,-1,-1,-1,-1,-1,-1,-1,-1,-1,-1,-1,-1,-1,-1,-1,-1,-1,-1,-1,-1,-1,-1,-1,-1,-1,-1,-1,-1,-1,-1,-1,-1,-1,-1,-1,-1,-1,-1,-1,-1,-1,-1,-1,-1,-1,-1],"loss_changes":[6.4535876E10,2.2087188E9,2.062177E10,9.744589E7,6.404875E8,9.47801E9,5.8886267E9,2.23232E6,8.237056E7,3.3484288E7,3.1540022E8,1.6406409E9,1.7321472E9,7.9169946E9,9.605048E8,1.069056E6,3.824148E6,2.1069696E7,2.6249664E7,1.376576E7,3.6581452E6,5.0297517E8,2.964132E8,1.3019863E9,2.361824E8,1.2358574E9,1.06066304E9,1.3362755E9,1.3187768E9,0E0,1.1610388E9,3.74784E5,0E0,0E0,8.86116E5,1.935616E6,9.14704E6,3.6773975E6,6.207392E6,6.87456E6,1.331342E6,3.794487E5,2.689165E5,1.6217965E8,2.0306406E8,6.244256E7,8.632043E7,1.1063043E9,2.2128397E8,3.5948544E7,1.515856E8,8.607324E8,4.04138E8,2.5047723E8,2.4460851E8,3.8504384E8,3.1678054E8,1.298899E9,1.8152166E8,4.6564944E8,6.51563E8,0E0,0E0,0E0,0E0,0E0,0E0,0E0,0E0,0E0,0E0,0E0,0E0,0E0,0E0,0E0,0E0,0E0,0E0,0E0,0E0,0E0,0E0,0E0,0E0,0E0,0E0,0E0,0E0,0E0,0E0,0E0,0E0,0E0,0E0,0E0,0E0,0E0,0E0,0E0,0E0,0E0,0E0,0E0,0E0,0E0,0E0,0E0,0E0,0E0,0E0,0E0,0E0,0E0,0E0,0E0,0E0],"parents":[2147483647,0,0,1,1,2,2,3,3,4,4,5,5,6,6,7,7,8,8,9,9,10,10,11,11,12,12,13,13,14,14,15,15,16,16,17,17,18,18,19,19,20,20,21,21,22,22,23,23,24,24,25,25,26,26,27,27,28,28,30,30,31,31,34,34,35,35,36,36,37,37,38,38,39,39,40,40,41,41,42,42,43,43,44,44,45,45,46,46,47,47,48,48,49,49,50,50,51,51,52,52,53,53,54,54,55,55,56,56,57,57,58,58,59,59,60,60],"right_children":[2,4,6,8,10,12,14,16,18,20,22,24,26,28,30,32,34,36,38,40,42,44,46,48,50,52,54,56,58,-1,60,62,-1,-1,64,66,68,70,72,74,76,78,80,82,84,86,88,90,92,94,96,98,100,102,104,106,108,110,112,114,116,-1,-1,-1,-1,-1,-1,-1,-1,-1,-1,-1,-1,-1,-1,-1,-1,-1,-1,-1,-1,-1,-1,-1,-1,-1,-1,-1,-1,-1,-1,-1,-1,-1,-1,-1,-1,-1,-1,-1,-1,-1,-1,-1,-1,-1,-1,-1,-1,-1,-1,-1,-1,-1,-1,-1,-1],"split_conditions":[4.422887E-1,1.3052613E-1,1E0,-6.5402985E-2,2.0575085E1,1E0,2.8588095E1,5.9709152E1,3.71464E2,1.1139338E4,2.97113E2,9.46968E2,-9.2387944E-1,2.8058107E1,2.9695578E1,1.6836975E4,6.0078644E1,5.143695E1,-8.742278E-8,4.685777E1,-5.555703E-1,1.102085E3,0E0,7.28088E2,2.775068E1,6.95769E2,2.151083E3,1.7927303E1,4.9999997E-1,5.1770215E2,3.0478231E1,-1.3052592E-1,-1.2681732E1,2.4605219E1,2.419153E3,1.4747137E4,5.401085E1,1.5087048E4,1E0,1.3322E1,0E0,-6.0876155E-1,9.517105E0,8.839855E3,-5.000002E-1,4.343966E1,3.4709896E1,5.44327E2,3.4284904E1,-8.314697E-1,5.767365E1,5.3750168E1,3.5985966E1,2.7762E2,-2.5881884E-1,-8.314697E-1,5.5557024E-1,2.8763159E1,1.0807355E4,-8.6602545E-1,9.9144495E-1,-8.02632E1,-7.5877975E1,-7.130986E1,-3.1652277E1,-7.656426E1,-3.3878174E0,-2.289572E1,-5.9746838E1,-1.6495367E1,3.322027E1,-4.1714607E1,-6.2860847E1,-7.760232E1,-6.441956E1,3.2092384E1,-1.9803972E1,8.890585E0,-5.854731E0,-4.3379623E1,-6.7641664E0,-5.286311E1,1.1410567E2,4.5117058E1,-1.9145668E1,1.04365105E2,-8.1340225E1,-2.2130913E1,3.578103E1,-2.5848768E1,8.285662E1,1.8984889E2,-5.3063507E1,3.7697513E2,2.156488E2,1.5379741E2,4.7384926E1,1.7450206E2,-2.836115E1,2.8576898E2,1.408739E0,-2.2813688E1,8.735733E1,2.0399684E2,1.0668099E2,1.1309762E2,2.3645263E0,2.3212212E2,1.245841E2,3.8804922E2,1.5061311E2,1.08901184E2,2.4353177E2,-1.3901004E1,1.891366E2,1.3335577E2,3.3820944E2],"split_indices":[149,149,317,144,221,47,201,1,155,310,130,215,68,1,311,5,6,271,28,31,3,230,3,100,131,80,85,16,9,0,211,144,0,0,140,255,306,70,252,226,3,3,181,255,3,181,206,10,311,3,286,31,316,321,3,3,9,176,305,28,104,0,0,0,0,0,0,0,0,0,0,0,0,0,0,0,0,0,0,0,0,0,0,0,0,0,0,0,0,0,0,0,0,0,0,0,0,0,0,0,0,0,0,0,0,0,0,0,0,0,0,0,0,0,0,0,0],"split_type":[0,0,0,0,0,0,0,0,0,0,0,0,0,0,0,0,0,0,0,0,0,0,0,0,0,0,0,0,0,0,0,0,0,0,0,0,0,0,0,0,0,0,0,0,0,0,0,0,0,0,0,0,0,0,0,0,0,0,0,0,0,0,0,0,0,0,0,0,0,0,0,0,0,0,0,0,0,0,0,0,0,0,0,0,0,0,0,0,0,0,0,0,0,0,0,0,0,0,0,0,0,0,0,0,0,0,0,0,0,0,0,0,0,0,0,0,0],"sum_hessian":[1.9621E4,1.2439E4,7.182E3,1.0408E4,2.031E3,4.394E3,2.788E3,9.414E3,9.94E2,5.39E2,1.492E3,2.975E3,1.419E3,1.889E3,8.99E2,9.401E3,1.3E1,7.4E2,2.54E2,5.16E2,2.3E1,1.11E3,3.82E2,2.791E3,1.84E2,9.05E2,5.14E2,6.96E2,1.193E3,1.4E1,8.85E2,9.4E3,1E0,1E0,1.2E1,5.77E2,1.63E2,7.8E1,1.76E2,5.12E2,4E0,1.7E1,6E0,6.04E2,5.06E2,1.24E2,2.58E2,2.689E3,1.02E2,2.6E1,1.58E2,5.65E2,3.4E2,2.47E2,2.67E2,3.2E2,3.76E2,1.042E3,1.51E2,2.27E2,6.58E2,9.002E3,3.98E2,7E0,5E0,5.76E2,1E0,2.1E1,1.42E2,7.5E1,3E0,1.16E2,6E1,2.68E2,2.44E2,3E0,1E0,1.1E1,6E0,5E0,1E0,5.9E2,1.4E1,2.98E2,2.08E2,1.2E2,4E0,1.42E2,1.16E2,2.431E3,2.58E2,9.2E1,1E1,9E0,1.7E1,1.08E2,5E1,5.07E2,5.8E1,3.27E2,1.3E1,1.75E2,7.2E1,1.26E2,1.41E2,1.83E2,1.37E2,2.8E2,9.6E1,9.79E2,6.3E1,3.5E1,1.16E2,1.95E2,3.2E1,6.17E2,4.1E1],"tree_param":{"num_deleted":"0","num_feature":"322","num_nodes":"117","size_leaf_vector":"1"}},{"base_weights":[-4.3592167E0,2.2812812E3,-1.3201554E3,1.0127289E3,4.279834E3,-1.4906486E3,-4.3836533E2,4.391011E1,3.0301045E3,5.2813867E3,2.3336106E3,-1.2071498E3,-1.521119E3,-1.3340363E3,-1.2856152E2,-1.46845E2,2.8414194E3,1.7440818E3,3.9814521E3,2.6080835E3,6.746791E3,1.998686E3,6.7689873E3,-1.3721459E3,-6.961132E2,-1.5213243E3,-1.8540127E1,-1.3872985E3,-1.27423454E2,2.920784E2,-5.50153E2,-2.9760022E2,2.944191E3,5.269889E3,2.2552744E3,9.5220575E2,3.1797622E3,2.83246E3,5.1291313E3,3.8802124E3,1.1342186E3,7.2072993E3,3.5486958E3,3.4348984E3,1.1933119E3,7.5050054E3,-9.210131E1,-1.4011E3,-6.6332214E2,-2.4231792E2,-8.8553674E2,-1.438011E3,-7.625009E1,-1.4694391E3,-1.1783274E3,-3.1490652E2,8.418477E2,9.0025444E1,1.9171549E3,-8.727733E2,3.7089536E2,6.286656E0,-5.2260365E1,-3.375653E1,1.74979E2,1.5901726E2,3.227519E2,-1.8990688E1,1.3486665E2,1.058067E2,-7.6527085E0,2.2256937E2,1.1570369E2,1.6286441E2,-9.061678E1,1.9006734E2,2.93261E2,1.630338E2,2.9288602E2,1.5206123E1,1.3370378E2,2.4678365E2,3.7656915E2,1.0765951E2,2.1743224E2,1.1493807E2,2.5649384E2,4.1524063E2,4.9895138E1,2.2484435E2,4.543294E2,-7.099953E1,-2.3113745E1,1.1320238E1,-3.9925594E1,-8.339461E0,-5.415498E1,-3.66314E1,-6.1328865E1,-7.504638E1,-6.0665485E1,-7.579211E1,-6.3042347E1,-6.397121E1,2.4390085E0,-3.7345397E0,-3.7517567E1,4.8052353E1,1.2106244E1,-2.1897902E1,5.2400185E1,1.0484033E2,-6.523874E1,-5.2815655E1,-8.3540577E-1,-2.1151777E1,3.312779E1],"categories":[],"categories_nodes":[],"categories_segments":[],"categories_sizes":[],"default_left":[0,0,0,0,0,0,0,0,0,0,0,0,0,0,0,0,0,0,0,0,0,0,0,0,0,0,0,0,0,0,0,0,0,0,0,0,0,0,0,0,0,0,0,0,0,0,0,0,0,0,0,0,0,0,0,0,0,0,0,0,0,0,0,0,0,0,0,0,0,0,0,0,0,0,0,0,0,0,0,0,0,0,0,0,0,0,0,0,0,0,0,0,0,0,0,0,0,0,0,0,0,0,0,0,0,0,0,0,0,0,0,0,0,0,0,0,0],"id":4,"left_children":[1,3,5,7,9,11,13,15,17,19,21,23,25,27,29,31,33,35,37,39,41,43,45,47,49,51,-1,53,55,57,59,61,63,65,67,69,71,73,75,77,79,81,83,85,87,89,-1,91,93,95,97,99,-1,101,103,105,107,109,111,113,115,-1,-1,-1,-1,-1,-1,-1,-1,-1,-1,-1,-1,-1,-1,-1,-1,-1,-1,-1,-1,-1,-1,-1,-1,-1,-1,-1,-1,-1,-1,-1,-1,-1,-1,-1,-1,-1,-1,-1,-1,-1,-1,-1,-1,-1,-1,-1,-1,-1,-1,-1,-1,-1,-1,-1,-1],"loss_changes":[5.892171E10,1.8143117E10,1.8686648E9,8.5604506E9,5.404631E9,8.81664E7,5.592328E8,1.5799894E9,1.731585E9,7.1670415E9,1.3917696E9,8.471309E7,1.656832E6,3.3113408E7,2.6599067E8,1.2925998E9,2.5714406E8,6.8592205E8,1.06151014E9,1.2161889E9,1.7181573E9,1.0149435E9,4.321234E8,1.4811904E7,2.127528E7,6.88128E5,0E0,6.7824E6,4.4447075E6,2.464194E8,2.2288824E8,8.369231E8,2.6166963E8,6.862182E7,1.8041344E8,5.0460966E8,2.2637773E8,8.1493146E8,3.754926E8,4.084731E8,3.8649024E8,7.240581E8,1.5920282E8,5.9673754E8,7.7825536E8,2.4935142E8,0E0,1.2396544E7,4.02981E6,4.5820855E6,8.27944E6,4.045888E6,0E0,1.495872E6,1.805064E7,2.0359694E6,5.3253E4,3.3883693E8,5.07784E7,8.718512E7,4.5434144E7,0E0,0E0,0E0,0E0,0E0,0E0,0E0,0E0,0E0,0E0,0E0,0E0,0E0,0E0,0E0,0E0,0E0,0E0,0E0,0E0,0E0,0E0,0E0,0E0,0E0,0E0,0E0,0E0,0E0,0E0,0E0,0E0,0E0,0E0,0E0,0E0,0E0,0E0,0E0,0E0,0E0,0E0,0E0,0E0,0E0,0E0,0E0,0E0,0E0,0E0,0E0,0E0,0E0,0E0,0E0,0E0],"parents":[2147483647,0,0,1,1,2,2,3,3,4,4,5,5,6,6,7,7,8,8,9,9,10,10,11,11,12,12,13,13,14,14,15,15,16,16,17,17,18,18,19,19,20,20,21,21,22,22,23,23,24,24,25,25,27,27,28,28,29,29,30,30,31,31,32,32,33,33,34,34,35,35,36,36,37,37,38,38,39,39,40,40,41,41,42,42,43,43,44,44,45,45,47,47,48,48,49,49,50,50,51,51,53,53,54,54,55,55,56,56,57,57,58,58,59,59,60,60],"right_children":[2,4,6,8,10,12,14,16,18,20,22,24,26,28,30,32,34,36,38,40,42,44,46,48,50,52,-1,54,56,58,60,62,64,66,68,70,72,74,76,78,80,82,84,86,88,90,-1,92,94,96,98,100,-1,102,104,106,108,110,112,114,116,-1,-1,-1,-1,-1,-1,-1,-1,-1,-1,-1,-1,-1,-1,-1,-1,-1,-1,-1,-1,-1,-1,-1,-1,-1,-1,-1,-1,-1,-1,-1,-1,-1,-1,-1,-1,-1,-1,-1,-1,-1,-1,-1,-1,-1,-1,-1,-1,-1,-1,-1,-1,-1,-1,-1,-1],"split_conditions":[-3.8268366E-1,1.32718E2,1.3052608E-1,1E0,2.8267347E1,6.540313E-2,1.7675472E1,6.95769E2,9.659259E-1,2.6667925E1,1.0948235E4,4.61035E2,1.634626E4,1.1139338E4,-2.5881884E-1,6.14469E2,2.790546E1,6.43615E2,1.32718E2,4.422887E-1,4.9999997E-1,4.3672203E1,3.162673E3,1.3578343E4,-8.742278E-8,1.305262E-1,-1.8540127E1,3.2143947E-1,1.2500861E4,3.43311E2,2.151083E3,3.4052883E1,2.9694546E1,1.0518321E4,4.738716E1,-8.968727E-1,-2.5881884E-1,5.400338E1,4.788999E3,1.2486957E1,1.0529359E4,1.182781E3,1.3193962E4,3.612983E1,2.6161356E1,6.552751E3,-9.210131E1,1.2942598E4,8.1307E1,3.845408E3,8.1307E1,1.102085E3,-7.625009E1,1.452439E1,1.5081482E1,-5.555703E-1,1.1572369E1,4.889215E3,4.4383785E1,1.184197E3,7.34324E2,6.286656E0,-5.2260365E1,-3.375653E1,1.74979E2,1.5901726E2,3.227519E2,-1.8990688E1,1.3486665E2,1.058067E2,-7.6527085E0,2.2256937E2,1.1570369E2,1.6286441E2,-9.061678E1,1.9006734E2,2.93261E2,1.630338E2,2.9288602E2,1.5206123E1,1.3370378E2,2.4678365E2,3.7656915E2,1.0765951E2,2.1743224E2,1.1493807E2,2.5649384E2,4.1524063E2,4.9895138E1,2.2484435E2,4.543294E2,-7.099953E1,-2.3113745E1,1.1320238E1,-3.9925594E1,-8.339461E0,-5.415498E1,-3.66314E1,-6.1328865E1,-7.504638E1,-6.0665485E1,-7.579211E1,-6.3042347E1,-6.397121E1,2.4390085E0,-3.7345397E0,-3.7517567E1,4.8052353E1,1.2106244E1,-2.1897902E1,5.2400185E1,1.0484033E2,-6.523874E1,-5.2815655E1,-8.3540577E-1,-2.1151777E1,3.312779E1],"split_indices":[28,315,268,47,196,23,211,215,194,6,0,155,0,310,23,90,131,105,85,4,4,31,310,315,28,23,0,263,310,135,120,246,226,285,271,68,3,36,50,176,315,315,315,66,291,25,0,225,295,135,250,155,0,206,216,3,146,255,176,180,320,0,0,0,0,0,0,0,0,0,0,0,0,0,0,0,0,0,0,0,0,0,0,0,0,0,0,0,0,0,0,0,0,0,0,0,0,0,0,0,0,0,0,0,0,0,0,0,0,0,0,0,0,0,0,0,0],"split_type":[0,0,0,0,0,0,0,0,0,0,0,0,0,0,0,0,0,0,0,0,0,0,0,0,0,0,0,0,0,0,0,0,0,0,0,0,0,0,0,0,0,0,0,0,0,0,0,0,0,0,0,0,0,0,0,0,0,0,0,0,0,0,0,0,0,0,0,0,0,0,0,0,0,0,0,0,0,0,0,0,0,0,0,0,0,0,0,0,0,0,0,0,0,0,0,0,0,0,0,0,0,0,0,0,0,0,0,0,0,0,0,0,0,0,0,0,0],"sum_hessian":[1.959E4,7.157E3,1.2433E4,4.379E3,2.778E3,1.0418E4,2.015E3,2.959E3,1.42E3,1.833E3,9.45E2,1.015E3,9.403E3,5.17E2,1.498E3,2.771E3,1.88E2,6.05E2,8.15E2,6.5E2,1.183E3,8.8E2,6.5E1,7.66E2,2.49E2,9.401E3,2E0,4.95E2,2.2E1,7.5E2,7.48E2,2.643E3,1.28E2,3.5E1,1.53E2,3.91E2,2.14E2,4.09E2,4.06E2,3.48E2,3.02E2,1.033E3,1.5E2,3.15E2,5.65E2,6E1,5E0,7.35E2,3.1E1,7.4E1,1.75E2,4.14E2,8.987E3,3.51E2,1.44E2,1.9E1,3E0,6.68E2,8.2E1,5.54E2,1.94E2,1.688E3,9.55E2,1.7E1,1.11E2,1.4E1,2.1E1,2.2E1,1.31E2,1.9E2,2.01E2,8.5E1,1.29E2,3.75E2,3.4E1,1.47E2,2.59E2,2.67E2,8.1E1,1.97E2,1.05E2,1.31E2,9.02E2,5.6E1,9.4E1,1.9E2,1.25E2,1.4E1,5.51E2,2.2E1,3.8E1,7.2E2,1.5E1,4E0,2.7E1,6.9E1,5E0,1.23E2,5.2E1,3.19E2,9.5E1,2.82E2,6.9E1,1.33E2,1.1E1,1.3E1,6E0,2E0,1E0,4.31E2,2.37E2,7.8E1,4E0,4.56E2,9.8E1,5.2E1,1.42E2],"tree_param":{"num_deleted":"0","num_feature":"322","num_nodes":"117","size_leaf_vector":"1"}},{"base_weights":[-1.2981768E1,-1.2503433E3,2.1389382E3,-1.406851E3,-3.5095236E2,9.375142E2,4.0617466E3,-1.4445427E3,-1.1193317E3,-1.2336909E3,-3.9293148E1,1.6653378E1,2.914048E3,4.94972E3,2.1978225E3,-7.243448E1,-1.3494547E3,-1.2757977E3,-6.0751935E2,-1.2747048E3,-3.2030426E1,-2.6993896E2,8.452583E2,-1.4441058E2,2.5595818E3,3.774614E3,1.6768751E3,2.0582686E3,6.0338296E3,8.49715E3,2.051326E3,-1.3908627E3,-9.65623E2,-1.4413856E3,-1.1447216E3,-2.0753601E2,-8.516664E2,-1.311502E3,-4.691148E2,1.2157872E2,-4.2500812E2,-7.990003E2,3.7844214E2,1.5850597E3,3.4711432E2,-3.6172388E2,1.575474E3,3.7733145E3,1.1586653E3,2.8185635E3,4.9822544E3,5.4528705E2,2.636802E3,3.0751665E3,6.0475665E2,6.7461934E3,4.576698E3,1.0668728E2,4.359882E2,4.7787772E2,2.579083E3,-6.985561E1,-8.448233E0,-3.7079651E0,-5.0365017E1,-7.221029E1,-2.8633265E1,-5.8329403E1,1.3022135E1,-1.6943514E1,3.680044E1,-5.4616676E1,-3.4502678E1,-6.6813805E1,-3.2340603E1,-3.2369072E1,4.3785046E1,-2.4118347E0,1.1687147E1,-2.3734446E1,-5.657123E0,-4.499764E1,6.883831E1,5.9344276E1,-4.534202E0,1.7336197E2,6.542349E1,-7.680706E0,4.7305305E1,-2.2795376E1,1.4033841E2,1.7671684E2,-9.203739E0,4.7542583E1,2.1629607E2,-3.4104534E1,1.0875579E2,1.0982395E2,2.4523564E2,-1.1068373E2,2.5645703E2,1.8204214E2,-3.2601411E0,1.7807483E2,9.087516E1,1.0669879E2,1.968156E2,1.6988976E0,1.078139E2,3.503066E2,1.7084299E2,8.3334465E1,2.6249026E2,3.8063183E0,3.2063104E2,1.880674E2,8.7531876E1],"categories":[],"categories_nodes":[],"categories_segments":[],"categories_sizes":[],"default_left":[0,0,0,0,0,0,0,0,0,0,0,0,0,0,0,0,0,0,0,1,0,0,0,0,0,0,0,0,0,0,0,0,0,0,0,1,0,0,0,0,0,0,0,0,0,0,0,0,0,0,0,0,0,0,0,0,0,0,0,0,0,0,0,0,0,0,0,0,0,0,0,0,0,0,0,0,0,0,0,0,0,0,0,0,0,0,0,0,0,0,0,0,0,0,0,0,0,0,0,0,0,0,0,0,0,0,0,0,0,0,0,0,0,0,0,0,0],"id":5,"left_children":[1,3,5,7,9,11,13,15,17,19,21,23,25,27,29,-1,31,33,35,37,39,41,43,45,47,49,51,53,55,57,59,61,63,65,67,69,71,73,75,77,79,81,83,85,87,89,91,93,95,97,99,101,103,105,107,109,111,-1,-1,113,115,-1,-1,-1,-1,-1,-1,-1,-1,-1,-1,-1,-1,-1,-1,-1,-1,-1,-1,-1,-1,-1,-1,-1,-1,-1,-1,-1,-1,-1,-1,-1,-1,-1,-1,-1,-1,-1,-1,-1,-1,-1,-1,-1,-1,-1,-1,-1,-1,-1,-1,-1,-1,-1,-1,-1,-1],"loss_changes":[5.2447273E10,1.7598689E9,1.6608178E10,1.1381965E8,5.102872E8,8.05759E9,4.5655163E9,1.757184E6,9.844557E7,2.381312E7,2.80141E8,1.2376929E9,1.4916608E9,5.85565E9,8.075786E8,0E0,5.141568E6,1.892608E7,2.833844E7,1.3257856E7,1.0778762E6,3.738657E8,1.0411166E8,1.06277824E9,3.0168883E8,9.430907E8,6.274962E8,7.5491405E8,1.3818511E9,9.725952E6,7.253663E8,2.558848E6,1.522912E6,1.89696E5,1.6711552E7,1.4128426E7,6.2862E6,6.496448E6,5.8410985E6,2.5888875E5,2.3761312E4,1.3302842E8,1.85946E8,5.481069E7,5.143374E7,7.5449165E8,1.1001526E9,1.4561907E8,1.6052178E8,5.926858E8,3.9715226E8,5.048155E8,2.3065626E8,2.3556096E8,1.8766867E8,7.653253E8,8.726856E8,0E0,0E0,5.2644013E8,6.3495014E8,0E0,0E0,0E0,0E0,0E0,0E0,0E0,0E0,0E0,0E0,0E0,0E0,0E0,0E0,0E0,0E0,0E0,0E0,0E0,0E0,0E0,0E0,0E0,0E0,0E0,0E0,0E0,0E0,0E0,0E0,0E0,0E0,0E0,0E0,0E0,0E0,0E0,0E0,0E0,0E0,0E0,0E0,0E0,0E0,0E0,0E0,0E0,0E0,0E0,0E0,0E0,0E0,0E0,0E0,0E0,0E0],"parents":[2147483647,0,0,1,1,2,2,3,3,4,4,5,5,6,6,7,7,8,8,9,9,10,10,11,11,12,12,13,13,14,14,16,16,17,17,18,18,19,19,20,20,21,21,22,22,23,23,24,24,25,25,26,26,27,27,28,28,29,29,30,30,31,31,32,32,33,33,34,34,35,35,36,36,37,37,38,38,39,39,40,40,41,41,42,42,43,43,44,44,45,45,46,46,47,47,48,48,49,49,50,50,51,51,52,52,53,53,54,54,55,55,56,56,59,59,60,60],"right_children":[2,4,6,8,10,12,14,16,18,20,22,24,26,28,30,-1,32,34,36,38,40,42,44,46,48,50,52,54,56,58,60,62,64,66,68,70,72,74,76,78,80,82,84,86,88,90,92,94,96,98,100,102,104,106,108,110,112,-1,-1,114,116,-1,-1,-1,-1,-1,-1,-1,-1,-1,-1,-1,-1,-1,-1,-1,-1,-1,-1,-1,-1,-1,-1,-1,-1,-1,-1,-1,-1,-1,-1,-1,-1,-1,-1,-1,-1,-1,-1,-1,-1,-1,-1,-1,-1,-1,-1,-1,-1,-1,-1,-1,-1,-1,-1,-1,-1],"split_conditions":[4.422887E-1,1.3052642E-1,1.32718E2,-6.5402985E-2,1.9964151E1,1E0,2.8588095E1,-1.3052592E-1,3.43311E2,1.1218033E4,6.69889E2,5.2482E3,-9.659257E-1,2.1408503E1,2.6739931E1,-7.243448E1,3.161674E3,2.775068E1,-8.742278E-8,3.4678522E2,-5.555703E-1,1.164787E3,0E0,2.66588E2,5.578866E1,8.422837E3,2.273746E3,-8.6602545E-1,1.9509035E-1,3.0639795E1,3.0478231E1,9.273681E3,3.955729E1,4.6594593E1,1.6655645E4,3.043417E2,8.63066E2,4.182635E1,1.0854162E4,5.470723E3,1.5548838E1,1.0507789E4,-5.555703E-1,2.3017347E1,3.5053703E1,8.02561E2,-9.8078525E-1,1.23783E3,8.716716E3,4.05684E2,1.102085E3,6.14469E2,-2.5881884E-1,1.5548838E1,1.0274585E4,2.876373E1,7.10571E3,1.0668728E2,4.359882E2,8.998187E3,4.5705086E1,-6.985561E1,-8.448233E0,-3.7079651E0,-5.0365017E1,-7.221029E1,-2.8633265E1,-5.8329403E1,1.3022135E1,-1.6943514E1,3.680044E1,-5.4616676E1,-3.4502678E1,-6.6813805E1,-3.2340603E1,-3.2369072E1,4.3785046E1,-2.4118347E0,1.1687147E1,-2.3734446E1,-5.657123E0,-4.499764E1,6.883831E1,5.9344276E1,-4.534202E0,1.7336197E2,6.542349E1,-7.680706E0,4.7305305E1,-2.2795376E1,1.4033841E2,1.7671684E2,-9.203739E0,4.7542583E1,2.1629607E2,-3.4104534E1,1.0875579E2,1.0982395E2,2.4523564E2,-1.1068373E2,2.5645703E2,1.8204214E2,-3.2601411E0,1.7807483E2,9.087516E1,1.0669879E2,1.968156E2,1.6988976E0,1.078139E2,3.503066E2,1.7084299E2,8.3334465E1,2.6249026E2,3.8063183E0,3.2063104E2,1.880674E2,8.7531876E1],"split_indices":[149,144,315,144,221,52,201,144,155,310,125,245,73,21,296,0,140,201,28,320,3,220,3,15,281,5,80,3,4,121,211,115,6,281,15,321,150,6,55,255,16,260,3,286,206,105,43,220,245,95,50,50,3,36,305,171,310,0,0,280,36,0,0,0,0,0,0,0,0,0,0,0,0,0,0,0,0,0,0,0,0,0,0,0,0,0,0,0,0,0,0,0,0,0,0,0,0,0,0,0,0,0,0,0,0,0,0,0,0,0,0,0,0,0,0,0,0],"split_type":[0,0,0,0,0,0,0,0,0,0,0,0,0,0,0,0,0,0,0,0,0,0,0,0,0,0,0,0,0,0,0,0,0,0,0,0,0,0,0,0,0,0,0,0,0,0,0,0,0,0,0,0,0,0,0,0,0,0,0,0,0,0,0,0,0,0,0,0,0,0,0,0,0,0,0,0,0,0,0,0,0,0,0,0,0,0,0,0,0,0,0,0,0,0,0,0,0,0,0,0,0,0,0,0,0,0,0,0,0,0,0,0,0,0,0,0,0],"sum_hessian":[1.9695E4,1.2505E4,7.19E3,1.0651E4,1.854E3,4.426E3,2.764E3,9.413E3,1.238E3,4.83E2,1.371E3,3.02E3,1.406E3,1.871E3,8.93E2,9.006E3,4.07E2,9.47E2,2.91E2,4.67E2,1.6E1,1.088E3,2.83E2,2.841E3,1.79E2,8.28E2,5.78E2,5.11E2,1.36E3,1.9E1,8.74E2,3.65E2,4.2E1,4.14E2,5.33E2,1.11E2,1.8E2,4.46E2,2.1E1,1.2E1,4E0,5.99E2,4.89E2,1.13E2,1.7E2,2.523E3,3.18E2,9.5E1,8.4E1,4.64E2,3.64E2,2.66E2,3.12E2,3E2,2.11E2,9.11E2,4.49E2,1E0,1.8E1,2.2E2,6.54E2,3.63E2,2E0,2E0,4E1,4.12E2,2E0,5.25E2,8E0,9.8E1,1.3E1,7E1,1.1E2,4.29E2,1.7E1,1.9E1,2E0,5E0,7E0,3E0,1E0,5.73E2,2.6E1,1.79E2,3.1E2,1.3E1,1E2,9.3E1,7.7E1,2.451E3,7.2E1,1.5E2,1.68E2,1.6E1,7.9E1,3E1,5.4E1,3.59E2,1.05E2,7E0,3.57E2,4.3E1,2.23E2,1.45E2,1.67E2,1.45E2,1.55E2,1.55E2,5.6E1,8.44E2,6.7E1,8.5E1,3.64E2,2.07E2,1.3E1,2.68E2,3.86E2],"tree_param":{"num_deleted":"0","num_feature":"322","num_nodes":"117","size_leaf_vector":"1"}},{"base_weights":[-5.613126E0,-1.1406234E3,2.14937E3,-1.3170195E3,-8.394028E1,9.542382E2,3.9863894E3,-9.6565625E2,-1.3690745E3,-1.1970785E3,2.371863E2,1.090588E2,2.9001873E3,4.870287E3,2.130297E3,-1.1212433E3,-3.6397836E2,-1.2634579E3,-6.881138E1,-1.2257029E3,2.1130817E2,-4.4963142E1,1.0727264E3,-1.2826262E2,1.9022225E3,3.1102046E3,-1.0495046E3,3.332145E3,6.5425845E3,1.7589948E3,5.2709478E3,-1.236824E3,-5.3610785E2,1.8500655E2,-7.3207117E2,-1.3266355E3,-1.0217566E3,-1.3222949E3,-9.61433E2,-1.9222733E2,4.451138E2,-7.219359E2,7.6051776E2,2.1798784E3,7.666149E2,-4.120989E2,1.857192E3,3.52471E3,2.670668E1,1.8730168E3,3.9976482E3,-1.4835829E3,4.2825205E3,2.0648435E3,4.904482E3,4.421834E3,7.2058555E3,3.1538408E3,1.0824108E3,3.3452292E3,7.5944644E3,-6.3658386E1,-2.6859205E1,-3.4918537E1,2.93699E0,-1.85222E1,2.6014023E1,-6.0121887E1,-2.381033E1,-6.664446E1,-1.2070081E1,-4.2959652E1,-6.2392853E1,-6.8359245E1,-4.1636696E1,-3.3683655E1,-5.701774E1,-2.6846924E-1,-1.2636176E1,2.458805E1,5.296945E0,-4.0274197E1,8.225745E1,-1.8089104E0,6.092384E1,1.20797E2,-5.0808727E1,1.4890902E1,6.894948E1,3.6918607E0,-4.3445488E1,2.1597525E2,6.985338E-3,1.999532E2,-7.6403404E1,-1.2896878E1,3.0408737E2,1.451712E2,4.1327663E1,3.7079324E2,1.8307448E2,2.951204E2,-9.2314575E1,2.9857098E2,-6.182687E1,9.289199E1,3.867369E2,1.4014738E2,3.0558997E2,1.26292786E2,3.5300305E2,3.8034787E2,1.26455864E2,1.3722978E2,4.4837582E2,1.7598582E2,2.2711721E1,3.4709506E2,7.513482E1,-5.9744617E1,4.3021255E2],"categories":[],"categories_nodes":[],"categories_segments":[],"categories_sizes":[],"default_left":[0,0,0,0,0,0,0,0,0,0,0,0,0,0,0,0,0,0,0,0,0,0,0,0,0,0,0,0,0,0,0,0,1,0,0,0,0,0,0,0,0,0,0,0,0,0,0,0,0,0,0,0,0,0,0,0,0,1,0,0,0,0,0,0,0,0,0,0,0,0,0,0,0,0,0,0,0,0,0,0,0,0,0,0,0,0,0,0,0,0,0,0,0,0,0,0,0,0,0,0,0,0,0,0,0,0,0,0,0,0,0,0,0,0,0,0,0,0,0,0,0],"id":6,"left_children":[1,3,5,7,9,11,13,15,17,19,21,23,25,27,29,31,33,35,-1,37,39,41,43,45,47,49,51,53,55,57,59,61,63,65,67,69,71,73,75,77,79,81,83,85,87,89,91,93,95,97,99,101,103,105,107,109,111,113,115,117,119,-1,-1,-1,-1,-1,-1,-1,-1,-1,-1,-1,-1,-1,-1,-1,-1,-1,-1,-1,-1,-1,-1,-1,-1,-1,-1,-1,-1,-1,-1,-1,-1,-1,-1,-1,-1,-1,-1,-1,-1,-1,-1,-1,-1,-1,-1,-1,-1,-1,-1,-1,-1,-1,-1,-1,-1,-1,-1,-1,-1],"loss_changes":[4.7636898E10,2.377728E9,1.474763E10,1.9862528E8,6.5300275E8,6.6968044E9,4.3339244E9,1.3196122E8,5.451776E6,1.674752E7,3.343377E8,1.2088234E9,1.0260439E9,4.590211E9,9.8893645E8,7.528563E7,5.914204E7,8.05088E6,0E0,8.9648E6,9.3470294E5,5.791003E8,1.1965936E8,1.4146975E9,1.01018214E9,1.2781926E9,1.5216803E8,1.8549699E9,1.1750236E9,7.204275E8,3.7729408E8,2.314176E7,1.8090576E7,2.2167646E7,2.0488664E7,2.969856E6,3.7796E6,5.25664E6,4.946776E6,4.3859797E4,4.283275E4,1.1543562E8,1.7699837E8,6.0548864E7,8.054568E7,4.8753424E8,1.4358095E9,4.327424E8,2.6871626E8,5.2703744E8,7.5535974E8,1.6895634E8,5.3989536E7,5.959488E8,1.0408888E9,1.0175859E9,1.2038124E9,5.701929E8,7.914891E8,3.2754477E8,3.6529613E8,0E0,0E0,0E0,0E0,0E0,0E0,0E0,0E0,0E0,0E0,0E0,0E0,0E0,0E0,0E0,0E0,0E0,0E0,0E0,0E0,0E0,0E0,0E0,0E0,0E0,0E0,0E0,0E0,0E0,0E0,0E0,0E0,0E0,0E0,0E0,0E0,0E0,0E0,0E0,0E0,0E0,0E0,0E0,0E0,0E0,0E0,0E0,0E0,0E0,0E0,0E0,0E0,0E0,0E0,0E0,0E0,0E0,0E0,0E0,0E0],"parents":[2147483647,0,0,1,1,2,2,3,3,4,4,5,5,6,6,7,7,8,8,9,9,10,10,11,11,12,12,13,13,14,14,15,15,16,16,17,17,19,19,20,20,21,21,22,22,23,23,24,24,25,25,26,26,27,27,28,28,29,29,30,30,31,31,32,32,33,33,34,34,35,35,36,36,37,37,38,38,39,39,40,40,41,41,42,42,43,43,44,44,45,45,46,46,47,47,48,48,49,49,50,50,51,51,52,52,53,53,54,54,55,55,56,56,57,57,58,58,59,59,60,60],"right_children":[2,4,6,8,10,12,14,16,18,20,22,24,26,28,30,32,34,36,-1,38,40,42,44,46,48,50,52,54,56,58,60,62,64,66,68,70,72,74,76,78,80,82,84,86,88,90,92,94,96,98,100,102,104,106,108,110,112,114,116,118,120,-1,-1,-1,-1,-1,-1,-1,-1,-1,-1,-1,-1,-1,-1,-1,-1,-1,-1,-1,-1,-1,-1,-1,-1,-1,-1,-1,-1,-1,-1,-1,-1,-1,-1,-1,-1,-1,-1,-1,-1,-1,-1,-1,-1,-1,-1,-1,-1,-1,-1,-1,-1,-1,-1,-1,-1,-1,-1,-1,-1],"split_conditions":[4.9999985E-1,1.9509041E-1,1.32718E2,6.540291E-2,1.5081482E1,1E0,2.8588776E1,3.71464E2,1.305262E-1,1.1222962E4,1.781436E3,9.45838E2,3.6136425E1,1.32718E2,9.711837E3,1.319736E3,1.9509032E-1,1.206782E3,-6.881138E1,8.1307E1,5.071494E3,2.232724E3,-1.3052575E-1,8.1307E1,-9.8078525E-1,4.6016556E1,1.2876499E4,1.0283973E4,1.647883E3,4.4133785E1,2.9844828E1,1.1925876E4,2.9077124E2,3.043417E2,3.71464E2,1.886954E3,8.1307E1,8.054427E3,-6.0876155E-1,1.4372222E1,1.4987013E1,9.826038E3,5.1205425E1,5.5004066E1,3.4263462E1,3.3550846E1,2.9108446E1,7.734966E3,4.543615E1,-9.659257E-1,4.3904068E1,3.997322E1,1.4044068E4,4.182635E1,9.469301E-1,-8.314695E-1,2.8266891E1,2.989889E2,3.7747604E1,2.9108929E1,4.7894287E-1,-6.3658386E1,-2.6859205E1,-3.4918537E1,2.93699E0,-1.85222E1,2.6014023E1,-6.0121887E1,-2.381033E1,-6.664446E1,-1.2070081E1,-4.2959652E1,-6.2392853E1,-6.8359245E1,-4.1636696E1,-3.3683655E1,-5.701774E1,-2.6846924E-1,-1.2636176E1,2.458805E1,5.296945E0,-4.0274197E1,8.225745E1,-1.8089104E0,6.092384E1,1.20797E2,-5.0808727E1,1.4890902E1,6.894948E1,3.6918607E0,-4.3445488E1,2.1597525E2,6.985338E-3,1.999532E2,-7.6403404E1,-1.2896878E1,3.0408737E2,1.451712E2,4.1327663E1,3.7079324E2,1.8307448E2,2.951204E2,-9.2314575E1,2.9857098E2,-6.182687E1,9.289199E1,3.867369E2,1.4014738E2,3.0558997E2,1.26292786E2,3.5300305E2,3.8034787E2,1.26455864E2,1.3722978E2,4.4837582E2,1.7598582E2,2.2711721E1,3.4709506E2,7.513482E1,-5.9744617E1,4.3021255E2],"split_indices":[268,144,315,28,216,57,186,145,23,315,100,10,316,0,0,180,3,160,0,250,255,240,3,275,48,6,10,315,315,31,266,315,321,321,155,165,245,45,3,1,36,315,316,106,201,306,166,5,76,63,46,66,10,11,109,3,171,321,316,211,320,0,0,0,0,0,0,0,0,0,0,0,0,0,0,0,0,0,0,0,0,0,0,0,0,0,0,0,0,0,0,0,0,0,0,0,0,0,0,0,0,0,0,0,0,0,0,0,0,0,0,0,0,0,0,0,0,0,0,0,0],"split_type":[0,0,0,0,0,0,0,0,0,0,0,0,0,0,0,0,0,0,0,0,0,0,0,0,0,0,0,0,0,0,0,0,0,0,0,0,0,0,0,0,0,0,0,0,0,0,0,0,0,0,0,0,0,0,0,0,0,0,0,0,0,0,0,0,0,0,0,0,0,0,0,0,0,0,0,0,0,0,0,0,0,0,0,0,0,0,0,0,0,0,0,0,0,0,0,0,0,0,0,0,0,0,0,0,0,0,0,0,0,0,0,0,0,0,0,0,0,0,0,0,0],"sum_hessian":[1.9474E4,1.2756E4,6.718E3,1.0931E4,1.825E3,4.071E3,2.647E3,1.413E3,9.518E3,4.08E2,1.417E3,2.839E3,1.232E3,1.792E3,8.55E2,1.122E3,2.91E2,6.15E2,8.903E3,4E2,8E0,1.06E3,3.57E2,2.508E3,3.31E2,1.17E3,6.2E1,9.35E2,8.57E2,7.66E2,8.9E1,9.36E2,1.86E2,1.17E2,1.74E2,4.84E2,1.31E2,2.9E2,1.1E2,3E0,5E0,5.76E2,4.84E2,7.6E1,2.81E2,2.195E3,3.13E2,1.77E2,1.54E2,4.9E2,6.8E2,5.8E1,4E0,5.19E2,4.16E2,2.06E2,6.51E2,2.49E2,5.17E2,5E1,3.9E1,8.89E2,4.7E1,1.46E2,4E1,4.4E1,7.3E1,6E1,1.14E2,4.81E2,3E0,7.9E1,5.2E1,2.64E2,2.6E1,4.4E1,6.6E1,1E0,2E0,4E0,1E0,5.57E2,1.9E1,1.77E2,3.07E2,7.1E1,5E0,1.6E2,1.21E2,1.064E3,1.131E3,1.34E2,1.79E2,1.62E2,1.5E1,1.48E2,6E0,2.46E2,2.44E2,5.9E1,6.21E2,2E0,5.6E1,3E0,1E0,5.02E2,1.7E1,1.53E2,2.63E2,1.21E2,8.5E1,5.99E2,5.2E1,2.34E2,1.5E1,1.05E2,4.12E2,1.6E1,3.4E1,4E0,3.5E1],"tree_param":{"num_deleted":"0","num_feature":"322","num_nodes":"121","size_leaf_vector":"1"}},{"base_weights":[-9.085489E0,-1.1122954E3,1.9949088E3,-1.4987941E2,-1.2529084E3,9.337936E2,3.651607E3,-4.2375626E2,1.1233102E3,-1.2944469E3,-8.449478E2,1.27231186E2,2.7300754E3,4.4501123E3,1.9750425E3,-7.492205E2,6.350965E2,1.2036751E2,1.637411E3,-1.175482E3,-6.5378426E1,-1.0285767E3,-1.4181197E2,-5.898373E1,2.6849414E3,2.9538813E3,-9.0952423E2,5.7120615E3,2.3121187E3,1.5657473E3,4.627326E3,-8.158247E2,6.1234814E2,1.3060415E3,9.649941E0,-3.1441995E2,1.6366523E3,1.7949009E3,-6.3282935E2,-1.2633754E3,-9.47896E2,-1.1580851E3,-3.8297968E2,1.3920276E2,-5.3490216E2,-1.8526022E2,3.4507944E3,2.4315005E3,3.615914E2,1.7470488E3,3.6857327E3,4.7555728E2,-1.314224E3,3.356655E3,6.311974E3,1.0861755E3,4.1139185E3,3.0270488E3,6.018859E2,5.223829E3,-1.0273942E3,-4.6770714E1,-1.0921066E0,9.624053E0,8.639767E1,3.8002605E1,9.634857E1,-2.2756027E1,3.328273E1,-2.6961063E1,1.0053124E2,1.5907481E2,4.207889E0,3.982859E1,1.14365746E2,-6.9807365E1,7.168365E1,-6.462255E1,-5.2641293E1,-3.50099E1,-5.3337807E1,-5.965505E1,-1.3675812E1,3.8012326E0,-3.3233837E1,-1.3096816E1,2.0063923E1,-4.0335964E1,-1.275899E0,-2.024993E1,7.5544495E1,-5.6228992E1,2.0316693E2,2.1990677E2,9.7952324E1,1.6934084E2,3.858447E1,2.5694992E2,1.5115979E2,-9.4615166E1,2.285866E2,9.769348E1,1.9053233E2,3.0094482E2,4.1771725E2,1.3357932E1,1.02376755E2,2.6791937E2,1.10227394E2,-5.293266E0,1.8159233E2,2.7768893E2,1.4051106E1,3.699482E2,1.5361797E2,3.091088E2,-1.1224129E2],"categories":[],"categories_nodes":[],"categories_segments":[],"categories_sizes":[],"default_left":[0,0,0,0,0,0,0,0,0,0,0,0,0,0,0,0,0,0,0,0,0,0,0,0,0,0,0,0,0,0,0,0,0,0,0,0,0,0,0,0,0,0,0,0,0,0,0,0,0,0,0,0,0,0,0,0,0,0,0,0,0,0,0,0,0,0,0,0,0,0,0,0,0,0,0,0,0,0,0,0,0,0,0,0,0,0,0,0,0,0,0,0,0,0,0,0,0,0,0,0,0,0,0,0,0,0,0,0,0,0,0,0,0,0,0,0,0],"id":7,"left_children":[1,3,5,7,9,11,13,15,17,19,21,23,25,27,29,31,33,35,37,39,-1,41,43,45,47,49,51,53,55,57,59,61,63,65,67,69,71,73,75,77,79,81,83,85,87,89,91,93,-1,95,97,-1,99,101,103,105,107,109,111,113,115,-1,-1,-1,-1,-1,-1,-1,-1,-1,-1,-1,-1,-1,-1,-1,-1,-1,-1,-1,-1,-1,-1,-1,-1,-1,-1,-1,-1,-1,-1,-1,-1,-1,-1,-1,-1,-1,-1,-1,-1,-1,-1,-1,-1,-1,-1,-1,-1,-1,-1,-1,-1,-1,-1,-1,-1],"loss_changes":[4.3369787E10,1.7119846E9,1.2240695E10,5.6327315E8,1.8597274E8,6.1527634E9,3.6312637E9,4.5847418E8,1.4726845E8,1.410048E7,1.319399E8,1.3966225E9,1.0746522E9,4.9538826E9,9.4696806E8,9.272736E7,1.313348E8,6.512224E7,6.871088E7,1.8905856E7,0E0,6.736435E7,2.3603324E7,1.212355E9,2.1173696E8,1.0887557E9,3.372275E8,1.613697E9,1.508631E9,1.0728575E9,4.0001485E8,9.208301E7,2.2150888E7,4.97276E7,5.000028E7,4.1330004E7,5.2496212E7,8.518963E7,2.2507796E7,3.0592E6,7.614416E6,2.058112E7,1.7764654E7,1.3246208E7,1.2302292E7,9.845642E8,2.708183E8,1.6792128E8,0E0,7.490871E8,7.2681574E8,0E0,2.6384226E8,1.4348877E8,5.0100224E8,3.2148723E8,6.463816E8,5.745029E8,7.3091437E8,4.7331968E8,1.1920379E8,0E0,0E0,0E0,0E0,0E0,0E0,0E0,0E0,0E0,0E0,0E0,0E0,0E0,0E0,0E0,0E0,0E0,0E0,0E0,0E0,0E0,0E0,0E0,0E0,0E0,0E0,0E0,0E0,0E0,0E0,0E0,0E0,0E0,0E0,0E0,0E0,0E0,0E0,0E0,0E0,0E0,0E0,0E0,0E0,0E0,0E0,0E0,0E0,0E0,0E0,0E0,0E0,0E0,0E0,0E0,0E0],"parents":[2147483647,0,0,1,1,2,2,3,3,4,4,5,5,6,6,7,7,8,8,9,9,10,10,11,11,12,12,13,13,14,14,15,15,16,16,17,17,18,18,19,19,21,21,22,22,23,23,24,24,25,25,26,26,27,27,28,28,29,29,30,30,31,31,32,32,33,33,34,34,35,35,36,36,37,37,38,38,39,39,40,40,41,41,42,42,43,43,44,44,45,45,46,46,47,47,49,49,50,50,52,52,53,53,54,54,55,55,56,56,57,57,58,58,59,59,60,60],"right_children":[2,4,6,8,10,12,14,16,18,20,22,24,26,28,30,32,34,36,38,40,-1,42,44,46,48,50,52,54,56,58,60,62,64,66,68,70,72,74,76,78,80,82,84,86,88,90,92,94,-1,96,98,-1,100,102,104,106,108,110,112,114,116,-1,-1,-1,-1,-1,-1,-1,-1,-1,-1,-1,-1,-1,-1,-1,-1,-1,-1,-1,-1,-1,-1,-1,-1,-1,-1,-1,-1,-1,-1,-1,-1,-1,-1,-1,-1,-1,-1,-1,-1,-1,-1,-1,-1,-1,-1,-1,-1,-1,-1,-1,-1,-1,-1,-1,-1],"split_conditions":[4.4228873E-1,-1.9509022E-1,4.06725E2,3.71464E2,6.5403014E-2,1.32718E2,2.8588776E1,5.2482E3,5.3750168E1,1.305262E-1,2.97113E2,4.643345E3,3.5584484E1,3.214393E-1,8.704916E3,1.0814719E4,-5.555703E-1,5.74322E3,4.2721695E1,5.80079E2,-6.5378426E1,2.66588E2,1.9509032E-1,5.80079E2,1.4959767E4,4.252381E1,4.3672203E1,1.326899E1,1.2501649E4,4.3672203E1,9.87361E2,1E0,3.390576E1,4.012663E3,4.303843E3,4.7393898E1,2.808846E1,3.2923214E1,5.167519E3,4.6016556E1,6.540291E-2,1.2501649E4,1E0,3.4154728E1,3.9166893E1,9.45838E2,2.9694546E1,2.6151361E1,3.615914E2,-6.0876137E-1,2.6342176E1,4.7555728E2,1.2337982E4,1.685148E3,6.95678E3,1.4429545E1,-7.9335326E-1,2.9841217E1,3.168488E1,9.9785894E-1,8.768448E3,-4.6770714E1,-1.0921066E0,9.624053E0,8.639767E1,3.8002605E1,9.634857E1,-2.2756027E1,3.328273E1,-2.6961063E1,1.0053124E2,1.5907481E2,4.207889E0,3.982859E1,1.14365746E2,-6.9807365E1,7.168365E1,-6.462255E1,-5.2641293E1,-3.50099E1,-5.3337807E1,-5.965505E1,-1.3675812E1,3.8012326E0,-3.3233837E1,-1.3096816E1,2.0063923E1,-4.0335964E1,-1.275899E0,-2.024993E1,7.5544495E1,-5.6228992E1,2.0316693E2,2.1990677E2,9.7952324E1,1.6934084E2,3.858447E1,2.5694992E2,1.5115979E2,-9.4615166E1,2.285866E2,9.769348E1,1.9053233E2,3.0094482E2,4.1771725E2,1.3357932E1,1.02376755E2,2.6791937E2,1.10227394E2,-5.293266E0,1.8159233E2,2.7768893E2,1.4051106E1,3.699482E2,1.5361797E2,3.091088E2,-1.1224129E2],"split_indices":[144,23,315,125,149,45,186,235,11,23,145,245,306,4,0,315,3,95,186,155,0,170,3,95,300,1,11,106,315,36,285,122,196,210,200,126,306,201,95,201,28,315,262,211,201,5,226,181,0,3,196,0,20,315,5,61,3,146,301,174,0,0,0,0,0,0,0,0,0,0,0,0,0,0,0,0,0,0,0,0,0,0,0,0,0,0,0,0,0,0,0,0,0,0,0,0,0,0,0,0,0,0,0,0,0,0,0,0,0,0,0,0,0,0,0,0,0],"split_type":[0,0,0,0,0,0,0,0,0,0,0,0,0,0,0,0,0,0,0,0,0,0,0,0,0,0,0,0,0,0,0,0,0,0,0,0,0,0,0,0,0,0,0,0,0,0,0,0,0,0,0,0,0,0,0,0,0,0,0,0,0,0,0,0,0,0,0,0,0,0,0,0,0,0,0,0,0,0,0,0,0,0,0,0,0,0,0,0,0,0,0,0,0,0,0,0,0,0,0,0,0,0,0,0,0,0,0,0,0,0,0,0,0,0,0,0,0],"sum_hessian":[1.9615E4,1.2651E4,6.964E3,1.613E3,1.1038E4,4.246E3,2.718E3,1.328E3,2.85E2,1.0016E4,1.022E3,2.931E3,1.315E3,1.84E3,8.78E2,1.016E3,3.12E2,9.7E1,1.88E2,1.004E3,9.012E3,8.1E2,2.12E2,2.733E3,1.98E2,1.239E3,7.6E1,1.156E3,6.84E2,7.62E2,1.16E2,9.69E2,4.7E1,1.5E2,1.62E2,7.6E1,2.1E1,1.76E2,1.2E1,7.21E2,2.83E2,6.74E2,1.36E2,1.24E2,8.8E1,2.639E3,9.4E1,1.89E2,9E0,4.69E2,7.7E2,2E0,7.4E1,2.36E2,9.2E2,4.08E2,2.76E2,3.02E2,4.6E2,1.05E2,1.1E1,8.42E2,1.27E2,3.5E1,1.2E1,8.1E1,6.9E1,9.5E1,6.7E1,7E1,6E0,1E1,1.1E1,5.9E1,1.17E2,9E0,3E0,6.29E2,9.2E1,9.4E1,1.89E2,6.48E2,2.6E1,5.2E1,8.4E1,4.9E1,7.5E1,5.7E1,3.1E1,2.337E3,3.02E2,1.1E1,8.3E1,3.5E1,1.54E2,1.74E2,2.95E2,2.39E2,5.31E2,6.8E1,6E0,5.9E1,1.77E2,8.08E2,1.12E2,2.21E2,1.87E2,1.66E2,1.1E2,4.9E1,2.53E2,2.7E1,4.33E2,5.1E1,5.4E1,1E0,1E1],"tree_param":{"num_deleted":"0","num_feature":"322","num_nodes":"117","size_leaf_vector":"1"}},{"base_weights":[-7.932302E0,-1.054095E3,1.929345E3,-1.1886096E3,-1.4117165E2,8.6328815E2,3.5201785E3,-1.2317305E3,-8.424662E2,-1.0668085E3,1.7001224E2,4.6419388E1,2.6469495E3,4.3134595E3,1.879404E3,-1.0965405E3,-6.2032482E1,-1.2146193E3,-6.451864E2,-1.110421E3,3.5382422E2,-1.5513309E2,7.4692554E2,-1.4406862E2,2.3550955E3,9.365056E2,3.0547842E3,2.1839153E3,5.521295E3,4.5092295E3,1.4879E3,-1.200386E3,-7.4637964E2,-1.2462512E3,-8.141974E2,-7.488083E2,-1.6764926E2,-1.1867607E3,-7.4103827E2,-6.7517786E0,6.6385394E2,-7.6498846E2,8.239875E2,1.6241237E3,2.705749E2,-2.5080888E2,3.1036E3,4.614183E3,1.6425587E3,-3.103777E2,2.0715398E3,3.3393887E3,-7.6879236E2,3.1077354E3,7.1371783E2,5.799071E3,2.315655E3,8.281821E3,3.6370042E3,1.02381683E3,4.0472954E3,-6.2393677E1,-5.330802E1,-3.0048853E1,-5.54701E1,-6.249117E1,-1.8322676E1,-4.2918777E1,-1.3413348E1,-5.1752575E1,-2.160573E1,-1.4379657E1,3.214523E1,-6.229063E1,-4.5882767E1,-4.4155605E1,1.5541931E0,7.314828E0,-1.2979088E1,1.5946708E1,4.214051E1,-4.181996E1,1.1876095E2,7.4816065E0,6.0858276E1,5.1348537E1,1.3769925E2,-4.508659E0,4.730378E1,-2.2275873E1,6.493865E1,1.7387555E2,-1.1372546E2,3.9077878E2,1.531585E2,-1.3700754E1,1.21559364E2,2.5907257E1,-3.8157413E1,1.18782265E2,7.694217E0,1.0822377E2,1.921103E2,4.5970538E2,-5.8946594E1,1.3671352E2,2.7699756E2,9.016528E0,1.2887321E2,2.5567561E2,3.2649533E2,7.309228E1,1.7126773E2,4.2550635E2,9.289303E1,4.0137305E2,1.4571155E2,-2.98039E1,8.341313E1,1.4853522E2,3.822764E2],"categories":[],"categories_nodes":[],"categories_segments":[],"categories_sizes":[],"default_left":[0,0,0,0,0,0,0,0,0,0,0,0,0,0,0,0,0,0,0,0,0,0,0,0,0,0,0,0,0,0,0,0,0,0,0,0,1,0,0,0,0,0,0,0,0,0,0,0,0,0,0,0,0,0,0,0,0,0,0,0,0,0,0,0,0,0,0,0,0,0,0,0,0,0,0,0,0,0,0,0,0,0,0,0,0,0,0,0,0,0,0,0,0,0,0,0,0,0,0,0,0,0,0,0,0,0,0,0,0,0,0,0,0,0,0,0,0,0,0,0,0],"id":8,"left_children":[1,3,5,7,9,11,13,15,17,19,21,23,25,27,29,31,-1,33,35,37,39,41,43,45,47,49,51,53,55,57,59,61,63,65,67,69,71,73,75,77,79,81,83,85,87,89,91,93,95,97,99,101,103,105,107,109,111,113,115,117,119,-1,-1,-1,-1,-1,-1,-1,-1,-1,-1,-1,-1,-1,-1,-1,-1,-1,-1,-1,-1,-1,-1,-1,-1,-1,-1,-1,-1,-1,-1,-1,-1,-1,-1,-1,-1,-1,-1,-1,-1,-1,-1,-1,-1,-1,-1,-1,-1,-1,-1,-1,-1,-1,-1,-1,-1,-1,-1,-1,-1],"loss_changes":[3.966064E10,1.5602719E9,1.1634356E10,1.6426906E8,4.7055603E8,5.988218E9,3.5751854E9,1.051136E7,8.95209E7,2.5857376E7,2.29527E8,1.2405051E9,8.9771315E8,4.759261E9,9.1889E8,2.1576256E7,0E0,4.368384E6,3.9758016E7,1.0371808E7,1.4577426E6,4.6817683E8,1.8383413E8,9.0416666E8,3.3850266E8,3.5445683E8,1.1364792E9,9.1184896E8,1.0399703E9,3.5158272E8,9.270698E8,1.697216E6,6.934224E6,7.74016E5,5.89746E5,5.9564E7,1.4281936E7,4.08496E6,7.816032E6,3.0884238E5,1.63278E5,1.1029683E8,7.962549E7,1.0175024E8,7.0023064E7,7.621121E8,1.7481709E8,2.2929498E8,2.5005789E8,4.5411116E7,7.602957E7,5.647268E8,3.091303E8,3.599995E8,2.5899491E8,5.1172966E8,8.594992E7,1.4988544E7,2.812434E8,6.952109E8,4.421463E8,0E0,0E0,0E0,0E0,0E0,0E0,0E0,0E0,0E0,0E0,0E0,0E0,0E0,0E0,0E0,0E0,0E0,0E0,0E0,0E0,0E0,0E0,0E0,0E0,0E0,0E0,0E0,0E0,0E0,0E0,0E0,0E0,0E0,0E0,0E0,0E0,0E0,0E0,0E0,0E0,0E0,0E0,0E0,0E0,0E0,0E0,0E0,0E0,0E0,0E0,0E0,0E0,0E0,0E0,0E0,0E0,0E0,0E0,0E0,0E0],"parents":[2147483647,0,0,1,1,2,2,3,3,4,4,5,5,6,6,7,7,8,8,9,9,10,10,11,11,12,12,13,13,14,14,15,15,17,17,18,18,19,19,20,20,21,21,22,22,23,23,24,24,25,25,26,26,27,27,28,28,29,29,30,30,31,31,32,32,33,33,34,34,35,35,36,36,37,37,38,38,39,39,40,40,41,41,42,42,43,43,44,44,45,45,46,46,47,47,48,48,49,49,50,50,51,51,52,52,53,53,54,54,55,55,56,56,57,57,58,58,59,59,60,60],"right_children":[2,4,6,8,10,12,14,16,18,20,22,24,26,28,30,32,-1,34,36,38,40,42,44,46,48,50,52,54,56,58,60,62,64,66,68,70,72,74,76,78,80,82,84,86,88,90,92,94,96,98,100,102,104,106,108,110,112,114,116,118,120,-1,-1,-1,-1,-1,-1,-1,-1,-1,-1,-1,-1,-1,-1,-1,-1,-1,-1,-1,-1,-1,-1,-1,-1,-1,-1,-1,-1,-1,-1,-1,-1,-1,-1,-1,-1,-1,-1,-1,-1,-1,-1,-1,-1,-1,-1,-1,-1,-1,-1,-1,-1,-1,-1,-1,-1,-1,-1,-1,-1],"split_conditions":[4.4228873E-1,1.9509041E-1,1.32718E2,1.1924881E-8,1.73E1,1E0,2.8432142E1,1.3052608E-1,2.6913208E1,1.1140507E4,2.97113E2,5.998807E3,1.1587415E1,2.825256E1,3.533651E1,1.102085E3,-6.2032482E1,1.184266E4,3.71464E2,1.065194E3,1.1993046E4,1.164825E3,-8.742278E-8,6.14469E2,2.6339285E1,9.8078525E-1,3.5465454E1,4.9999997E-1,5.5557024E-1,2.6739931E1,9.154814E3,3.8071667E1,8.961925E3,1.1559078E4,1.5577816E1,6.14469E2,7.233993E2,1.452439E1,9.517105E0,8.1307E1,1.4141509E1,9.45641E3,5.1443245E1,7.565463E3,3.7733334E1,2.66588E2,3.572381E1,-8.6602545E-1,3.5196297E1,6.0695653E0,2.4038181E1,9.469301E-1,4.3672203E1,1.1362245E4,4.2542904E1,1.32718E2,1.4748679E4,1.4634547E4,2.8588095E1,3.0478231E1,4.061385E1,-6.2393677E1,-5.330802E1,-3.0048853E1,-5.54701E1,-6.249117E1,-1.8322676E1,-4.2918777E1,-1.3413348E1,-5.1752575E1,-2.160573E1,-1.4379657E1,3.214523E1,-6.229063E1,-4.5882767E1,-4.4155605E1,1.5541931E0,7.314828E0,-1.2979088E1,1.5946708E1,4.214051E1,-4.181996E1,1.1876095E2,7.4816065E0,6.0858276E1,5.1348537E1,1.3769925E2,-4.508659E0,4.730378E1,-2.2275873E1,6.493865E1,1.7387555E2,-1.1372546E2,3.9077878E2,1.531585E2,-1.3700754E1,1.21559364E2,2.5907257E1,-3.8157413E1,1.18782265E2,7.694217E0,1.0822377E2,1.921103E2,4.5970538E2,-5.8946594E1,1.3671352E2,2.7699756E2,9.016528E0,1.2887321E2,2.5567561E2,3.2649533E2,7.309228E1,1.7126773E2,4.2550635E2,9.289303E1,4.0137305E2,1.4571155E2,-2.98039E1,8.341313E1,1.4853522E2,3.822764E2],"split_indices":[144,149,315,144,211,47,196,28,201,315,120,255,211,1,311,150,0,300,150,250,315,230,3,100,181,189,306,4,4,296,285,196,45,305,76,220,320,206,186,200,206,260,301,75,191,10,266,3,211,311,81,189,11,315,316,20,295,0,201,211,36,0,0,0,0,0,0,0,0,0,0,0,0,0,0,0,0,0,0,0,0,0,0,0,0,0,0,0,0,0,0,0,0,0,0,0,0,0,0,0,0,0,0,0,0,0,0,0,0,0,0,0,0,0,0,0,0,0,0,0,0],"split_type":[0,0,0,0,0,0,0,0,0,0,0,0,0,0,0,0,0,0,0,0,0,0,0,0,0,0,0,0,0,0,0,0,0,0,0,0,0,0,0,0,0,0,0,0,0,0,0,0,0,0,0,0,0,0,0,0,0,0,0,0,0,0,0,0,0,0,0,0,0,0,0,0,0,0,0,0,0,0,0,0,0,0,0,0,0,0,0,0,0,0,0,0,0,0,0,0,0,0,0,0,0,0,0,0,0,0,0,0,0,0,0,0,0,0,0,0,0,0,0,0,0],"sum_hessian":[1.9567E4,1.2706E4,6.861E3,1.1074E4,1.632E3,4.109E3,2.752E3,9.845E3,1.229E3,4.1E2,1.222E3,2.819E3,1.29E3,1.854E3,8.98E2,6.17E2,9.228E3,4.24E2,8.05E2,3.98E2,1.2E1,7.82E2,4.4E2,2.605E3,2.14E2,2.49E2,1.041E3,6.72E2,1.182E3,1.15E2,7.83E2,4.74E2,1.43E2,3.91E2,3.3E1,6.61E2,1.44E2,3.28E2,7E1,6E0,6E0,4.82E2,3E2,1.54E2,2.86E2,2.523E3,8.2E1,5E1,1.64E2,1.19E2,1.3E2,9.69E2,7.2E1,4.12E2,2.6E2,1.087E3,9.5E1,2E1,9.5E1,6.64E2,1.19E2,3.44E2,1.3E2,1.04E2,3.9E1,3.89E2,2E0,3E1,3E0,3.46E2,3.15E2,1.26E2,1.8E1,2.66E2,6.2E1,5.9E1,1.1E1,4E0,2E0,3E0,3E0,4.72E2,1E1,1.11E2,1.89E2,1.02E2,5.2E1,1.87E2,9.9E1,2.242E3,2.81E2,7.7E1,5E0,1.5E1,3.5E1,4.8E1,1.16E2,4.2E1,7.7E1,1.12E2,1.8E1,2.92E2,6.77E2,2E0,7E1,3.59E2,5.3E1,2.03E2,5.7E1,5.65E2,5.22E2,5.5E1,4E1,1.9E1,1E0,1.2E1,8.3E1,1.89E2,4.75E2,9.3E1,2.6E1],"tree_param":{"num_deleted":"0","num_feature":"322","num_nodes":"121","size_leaf_vector":"1"}},{"base_weights":[-1.3527377E0,-1.00130145E3,1.8362382E3,-1.138422E3,-2.0182794E2,7.922227E2,3.3912295E3,-8.548507E2,-1.1740598E3,-9.96455E2,9.593899E1,4.34931E1,2.4683086E3,4.1072563E3,1.8799187E3,-9.660867E2,-3.493918E2,-1.0661907E3,-1.1788032E3,-1.1094379E3,-6.8712805E2,-2.0890929E2,8.035205E2,-1.4274205E2,2.2405386E3,2.7342764E3,-3.1551828E2,1.0882468E3,4.908066E3,1.5694366E3,4.7715366E3,-1.1407002E3,-6.536685E2,2.6604037E2,-5.7137396E2,-1.1348942E3,-7.77703E2,-5.8944733E1,-8.479149E0,-1.1343362E3,-2.7418457E2,-2.601531E2,-1.0863839E3,-5.961619E2,6.017136E2,1.664022E3,3.6554184E2,-2.5082826E2,3.3069924E3,4.667586E3,1.6178702E3,8.308837E2,3.1601624E3,5.436445E2,-8.305786E2,2.5116157E3,4.043682E2,5.343624E3,2.7051123E3,2.4992449E3,6.4492346E2,5.43299E3,-1.1783801E2,-5.7495953E1,1.2542579E1,-4.779129E1,-2.4272299E1,-1.4407026E0,3.3409748E1,-4.499339E1,-1.5582591E1,-5.7240192E1,-1.6813866E0,-4.0063667E1,2.8876587E1,-5.930137E1,-4.6994198E1,-3.938816E1,-7.731235E-1,-1.9949684E1,5.033712E1,-5.656747E1,-3.2545834E1,-3.6298668E1,2.6242567E1,5.6955444E1,7.081329E0,8.92434E1,-9.416418E1,1.1893156E1,8.348289E1,6.107214E0,-4.4154034E1,1.9080627E2,-3.1927519E1,3.9288763E2,1.7021812E2,-1.0267434E2,9.954235E1,9.301853E1,-1.277698E1,8.845327E1,1.8783377E2,4.335024E2,-5.4581432E1,2.0921375E1,1.4251668E2,-2.4746227E1,4.5053017E1,1.760462E2,2.828226E2,7.68402E1,2.0384698E2,6.064977E1,1.7736002E2,1.7099867E1,2.623919E2,1.6989899E2,3.947102E2],"categories":[],"categories_nodes":[],"categories_segments":[],"categories_sizes":[],"default_left":[0,0,0,0,0,0,0,0,0,0,0,0,0,0,0,0,0,0,0,0,0,0,0,0,0,0,0,0,0,0,0,1,0,1,0,0,0,0,0,0,0,0,0,0,0,0,0,0,0,0,0,0,0,0,0,0,0,0,0,0,0,0,0,0,0,0,0,0,0,0,0,0,0,0,0,0,0,0,0,0,0,0,0,0,0,0,0,0,0,0,0,0,0,0,0,0,0,0,0,0,0,0,0,0,0,0,0,0,0,0,0,0,0,0,0,0,0,0,0],"id":9,"left_children":[1,3,5,7,9,11,13,15,17,19,21,23,25,27,29,31,33,35,37,39,41,43,45,47,49,51,53,55,57,59,61,63,65,67,69,71,73,-1,-1,75,77,79,81,83,85,87,89,91,93,95,97,99,101,-1,103,105,107,109,111,113,115,117,-1,-1,-1,-1,-1,-1,-1,-1,-1,-1,-1,-1,-1,-1,-1,-1,-1,-1,-1,-1,-1,-1,-1,-1,-1,-1,-1,-1,-1,-1,-1,-1,-1,-1,-1,-1,-1,-1,-1,-1,-1,-1,-1,-1,-1,-1,-1,-1,-1,-1,-1,-1,-1,-1,-1,-1,-1],"loss_changes":[3.5946947E10,1.3885993E9,1.1189271E10,1.0828186E8,4.3925056E8,5.177756E9,2.9887222E9,6.775123E7,3.657728E6,1.6921696E7,2.915853E8,1.1676736E9,9.441418E8,4.5350093E9,7.933448E8,5.337037E7,3.02073E7,7.342752E6,6.47168E5,7.362816E6,2.3242544E7,2.9700925E8,1.527824E8,9.8184723E8,3.2945626E8,9.401344E8,6.544537E8,3.8348186E8,1.4094664E9,6.921016E8,4.1829734E8,8.434496E6,1.7733024E7,7.0153005E6,1.3540928E7,3.595584E6,3.114052E6,0E0,0E0,2.483744E6,1.5823088E6,1.2362645E7,6.53832E5,9.3514E7,7.549675E7,6.209021E7,4.472647E7,6.0190214E8,1.6314118E8,1.5459456E8,2.4919837E8,2.3982554E8,7.816714E8,0E0,2.773195E8,8.955936E7,1.20153944E8,6.859776E8,3.8960576E8,5.375657E8,5.643086E8,3.688548E8,0E0,0E0,0E0,0E0,0E0,0E0,0E0,0E0,0E0,0E0,0E0,0E0,0E0,0E0,0E0,0E0,0E0,0E0,0E0,0E0,0E0,0E0,0E0,0E0,0E0,0E0,0E0,0E0,0E0,0E0,0E0,0E0,0E0,0E0,0E0,0E0,0E0,0E0,0E0,0E0,0E0,0E0,0E0,0E0,0E0,0E0,0E0,0E0,0E0,0E0,0E0,0E0,0E0,0E0,0E0,0E0,0E0],"parents":[2147483647,0,0,1,1,2,2,3,3,4,4,5,5,6,6,7,7,8,8,9,9,10,10,11,11,12,12,13,13,14,14,15,15,16,16,17,17,18,18,19,19,20,20,21,21,22,22,23,23,24,24,25,25,26,26,27,27,28,28,29,29,30,30,31,31,32,32,33,33,34,34,35,35,36,36,39,39,40,40,41,41,42,42,43,43,44,44,45,45,46,46,47,47,48,48,49,49,50,50,51,51,52,52,54,54,55,55,56,56,57,57,58,58,59,59,60,60,61,61],"right_children":[2,4,6,8,10,12,14,16,18,20,22,24,26,28,30,32,34,36,38,40,42,44,46,48,50,52,54,56,58,60,62,64,66,68,70,72,74,-1,-1,76,78,80,82,84,86,88,90,92,94,96,98,100,102,-1,104,106,108,110,112,114,116,118,-1,-1,-1,-1,-1,-1,-1,-1,-1,-1,-1,-1,-1,-1,-1,-1,-1,-1,-1,-1,-1,-1,-1,-1,-1,-1,-1,-1,-1,-1,-1,-1,-1,-1,-1,-1,-1,-1,-1,-1,-1,-1,-1,-1,-1,-1,-1,-1,-1,-1,-1,-1,-1,-1,-1,-1,-1],"split_conditions":[4.4228873E-1,1.9509035E-1,1.32718E2,6.540291E-2,1.938868E1,1E0,2.8588095E1,5.14174E2,1.3052608E-1,1.4141509E1,2.151083E3,5.998807E3,3.5335293E1,1.793019E1,9.711837E3,4.5759663E1,1.9509032E-1,1.233069E3,1.5462219E4,1.0529359E4,-2.588193E-1,5.2482E3,-8.742278E-8,2.352864E3,2.616E1,1.0698282E1,4.3202374E1,3.214393E-1,4.422887E-1,4.3438305E1,9.87361E2,8.1568286E2,8.1307E1,3.043417E2,5.5523987E1,1.1435689E4,9.852958E3,-5.8944733E1,-8.479149E0,1.929609E3,2.847823E3,1.4298278E4,9.2423E3,8.084417E3,-5.555703E-1,4.343885E1,1.6655645E4,3.3655933E1,3.3907795E1,-8.968727E-1,2.8086538E1,2.7537415E1,9.2387974E-1,5.436445E2,2.6913898E1,7.68991E2,3.0642035E1,1.5014814E1,1.3720752E4,3.0945919E1,-6.593457E-1,2.941297E1,-1.1783801E2,-5.7495953E1,1.2542579E1,-4.779129E1,-2.4272299E1,-1.4407026E0,3.3409748E1,-4.499339E1,-1.5582591E1,-5.7240192E1,-1.6813866E0,-4.0063667E1,2.8876587E1,-5.930137E1,-4.6994198E1,-3.938816E1,-7.731235E-1,-1.9949684E1,5.033712E1,-5.656747E1,-3.2545834E1,-3.6298668E1,2.6242567E1,5.6955444E1,7.081329E0,8.92434E1,-9.416418E1,1.1893156E1,8.348289E1,6.107214E0,-4.4154034E1,1.9080627E2,-3.1927519E1,3.9288763E2,1.7021812E2,-1.0267434E2,9.954235E1,9.301853E1,-1.277698E1,8.845327E1,1.8783377E2,4.335024E2,-5.4581432E1,2.0921375E1,1.4251668E2,-2.4746227E1,4.5053017E1,1.760462E2,2.828226E2,7.68402E1,2.0384698E2,6.064977E1,1.7736002E2,1.7099867E1,2.623919E2,1.6989899E2,3.947102E2],"split_indices":[144,149,315,28,221,47,201,145,28,216,100,255,316,26,0,316,3,160,0,315,28,235,3,75,186,221,26,4,4,46,290,320,220,321,41,205,115,0,0,305,235,10,300,315,3,176,0,236,306,3,196,56,184,0,176,305,316,96,315,176,3,271,0,0,0,0,0,0,0,0,0,0,0,0,0,0,0,0,0,0,0,0,0,0,0,0,0,0,0,0,0,0,0,0,0,0,0,0,0,0,0,0,0,0,0,0,0,0,0,0,0,0,0,0,0,0,0,0,0],"split_type":[0,0,0,0,0,0,0,0,0,0,0,0,0,0,0,0,0,0,0,0,0,0,0,0,0,0,0,0,0,0,0,0,0,0,0,0,0,0,0,0,0,0,0,0,0,0,0,0,0,0,0,0,0,0,0,0,0,0,0,0,0,0,0,0,0,0,0,0,0,0,0,0,0,0,0,0,0,0,0,0,0,0,0,0,0,0,0,0,0,0,0,0,0,0,0,0,0,0,0,0,0,0,0,0,0,0,0,0,0,0,0,0,0,0,0,0,0,0,0],"sum_hessian":[1.9561E4,1.2668E4,6.893E3,1.0813E4,1.855E3,4.125E3,2.768E3,1.21E3,9.603E3,5.05E2,1.35E3,2.852E3,1.273E3,1.877E3,8.91E2,9.91E2,2.19E2,4.14E2,9.189E3,3.68E2,1.37E2,9.44E2,4.06E2,2.63E3,2.22E2,1.162E3,1.11E2,3.94E2,1.483E3,8.06E2,8.5E1,6.34E2,3.57E2,5.8E1,1.61E2,3.32E2,8.2E1,9.188E3,1E0,3.57E2,1.1E1,6.7E1,7E1,6.39E2,3.05E2,1.36E2,2.7E2,2.551E3,7.9E1,4.4E1,1.78E2,2.13E2,9.49E2,4E0,1.07E2,1.27E2,2.67E2,1.237E3,2.46E2,4.01E2,4.05E2,7.8E1,7E0,6.3E2,4E0,1.26E2,2.31E2,3.4E1,2.4E1,7E1,9.1E1,3.29E2,3E0,8.1E1,1E0,2.78E2,7.9E1,3E0,8E0,6.1E1,6E0,6.2E1,8E0,5.73E2,6.6E1,1.4E2,1.65E2,1.32E2,4E0,2.47E2,2.3E1,1.605E3,9.46E2,7E1,9E0,1.1E1,3.3E1,1.6E1,1.62E2,1.09E2,1.04E2,2.86E2,6.63E2,2E0,1.05E2,1.8E1,1.09E2,9.5E1,1.72E2,1.83E2,1.054E3,1.34E2,1.12E2,1.81E2,2.2E2,3.81E2,2.4E1,4.4E1,3.4E1],"tree_param":{"num_deleted":"0","num_feature":"322","num_nodes":"119","size_leaf_vector":"1"}},{"base_weights":[1.2550749E1,-8.8594977E2,1.8806747E3,1.5758206E2,-1.0537794E3,8.820127E2,3.3730059E3,-1.3578261E2,1.4156172E3,-6.804378E2,-1.1070453E3,7.345728E1,2.5647466E3,4.1764985E3,1.7648843E3,-7.194912E2,6.5946924E2,2.096304E3,8.6227673E2,-8.1742255E2,7.7356384E1,-9.3763354E2,-1.1181621E3,-1.3353674E2,1.9474797E3,2.77821E3,-5.411857E2,2.0837183E3,5.009117E3,6.670202E3,1.5262288E3,-8.2071875E2,3.486038E1,-1.5296664E2,1.1241017E3,2.2549023E3,-1.5563936E3,-5.981931E2,1.1803411E3,-1.01023505E3,-4.3596826E2,7.602688E2,-3.009736E2,-1.0578696E3,-5.786116E2,-1.1183401E3,-9.690426E0,-2.7160654E2,3.1228062E3,5.2119062E3,2.2594989E2,1.02120337E3,3.2297737E3,5.0025137E2,-1.0820126E3,1.3971676E3,3.23165E3,5.8242837E3,3.978175E3,1.1688773E3,7.83709E3,2.6824954E2,2.1489094E3,-4.522682E1,8.122552E0,1.944745E1,-6.747157E1,-2.2574821E1,8.169005E1,7.4569016E1,2.7722326E1,7.464334E1,1.4785939E2,3.6029823E1,-1.0279956E2,-1.0795792E1,-7.661474E1,1.7089752E1,8.00176E1,-5.584511E1,-2.6746918E1,-4.0843086E1,-1.1692952E1,4.3408203E1,-7.264173E1,-3.0372898E1,9.283541E-1,-5.3893288E1,-2.5293016E1,-3.0591074E1,1.10216055E1,-5.26704E1,-5.605851E1,-2.3667135E1,6.6558815E1,-7.581776E1,1.8465697E2,2.2081383E2,5.8525366E2,8.714966E1,-8.167025E1,1.0566361E2,5.3045382E0,5.24162E1,1.7129475E2,-7.546077E1,2.6857748E2,1.2917534E2,4.7366646E1,6.3935024E1,1.8146931E2,2.6493866E2,3.842434E2,4.8959614E1,2.4287222E2,2.8328836E2,-1.331205E2,4.0996875E2,-8.484421E1,-8.425595E0,2.1783853E2,1.8669826E2,6.607513E1],"categories":[],"categories_nodes":[],"categories_segments":[],"categories_sizes":[],"default_left":[0,0,0,0,0,0,0,0,0,0,0,0,0,0,0,0,0,0,0,0,0,0,0,0,0,0,0,0,0,0,0,0,0,0,0,0,0,0,0,0,0,0,0,0,0,0,0,0,0,0,0,0,0,0,0,0,0,0,0,0,0,0,0,0,0,0,0,0,0,0,0,0,0,0,0,0,0,0,0,0,0,0,0,0,0,0,0,0,0,0,0,0,0,0,0,0,0,0,0,0,0,0,0,0,0,0,0,0,0,0,0,0,0,0,0,0,0,0,0,0,0,0,0],"id":10,"left_children":[1,3,5,7,9,11,13,15,17,19,21,23,25,27,29,31,33,35,37,39,41,43,45,47,49,51,53,55,57,59,61,63,65,67,69,71,73,75,77,79,81,83,85,87,89,91,-1,93,95,97,99,101,103,-1,105,107,109,111,113,115,117,119,121,-1,-1,-1,-1,-1,-1,-1,-1,-1,-1,-1,-1,-1,-1,-1,-1,-1,-1,-1,-1,-1,-1,-1,-1,-1,-1,-1,-1,-1,-1,-1,-1,-1,-1,-1,-1,-1,-1,-1,-1,-1,-1,-1,-1,-1,-1,-1,-1,-1,-1,-1,-1,-1,-1,-1,-1,-1,-1,-1,-1],"loss_changes":[3.2710797E10,2.3047752E9,9.42935E9,6.733632E8,2.2467686E8,5.1605053E9,3.2707215E9,6.874835E8,1.2813715E8,1.4726048E8,1.763328E7,9.9447706E8,8.176594E8,2.9361132E9,9.813865E8,6.524109E7,2.368545E8,9.272365E7,8.989456E7,8.78921E7,5.6552664E7,2.6022208E7,1.312768E6,1.0389808E9,1.4318735E9,9.106995E8,4.671196E8,3.7614336E8,9.928581E8,2.4119706E8,6.331288E8,6.2199456E7,5.052138E7,1.2288701E8,8.265277E7,7.479002E7,9.444592E6,1.2167154E7,5.510035E7,3.9809344E7,3.0986712E7,1.98864E7,1.3820004E7,4.543296E6,4.30104E6,5.2736E5,0E0,7.1714995E8,2.5431162E8,4.0292915E8,4.7672832E8,2.3662552E8,3.8829875E8,0E0,2.2039424E8,1.5978413E8,1.351758E8,6.173102E8,1.4112655E9,1.529156E8,1.2444211E8,4.8108973E8,7.045793E8,0E0,0E0,0E0,0E0,0E0,0E0,0E0,0E0,0E0,0E0,0E0,0E0,0E0,0E0,0E0,0E0,0E0,0E0,0E0,0E0,0E0,0E0,0E0,0E0,0E0,0E0,0E0,0E0,0E0,0E0,0E0,0E0,0E0,0E0,0E0,0E0,0E0,0E0,0E0,0E0,0E0,0E0,0E0,0E0,0E0,0E0,0E0,0E0,0E0,0E0,0E0,0E0,0E0,0E0,0E0,0E0,0E0,0E0,0E0,0E0],"parents":[2147483647,0,0,1,1,2,2,3,3,4,4,5,5,6,6,7,7,8,8,9,9,10,10,11,11,12,12,13,13,14,14,15,15,16,16,17,17,18,18,19,19,20,20,21,21,22,22,23,23,24,24,25,25,26,26,27,27,28,28,29,29,30,30,31,31,32,32,33,33,34,34,35,35,36,36,37,37,38,38,39,39,40,40,41,41,42,42,43,43,44,44,45,45,47,47,48,48,49,49,50,50,51,51,52,52,54,54,55,55,56,56,57,57,58,58,59,59,60,60,61,61,62,62],"right_children":[2,4,6,8,10,12,14,16,18,20,22,24,26,28,30,32,34,36,38,40,42,44,46,48,50,52,54,56,58,60,62,64,66,68,70,72,74,76,78,80,82,84,86,88,90,92,-1,94,96,98,100,102,104,-1,106,108,110,112,114,116,118,120,122,-1,-1,-1,-1,-1,-1,-1,-1,-1,-1,-1,-1,-1,-1,-1,-1,-1,-1,-1,-1,-1,-1,-1,-1,-1,-1,-1,-1,-1,-1,-1,-1,-1,-1,-1,-1,-1,-1,-1,-1,-1,-1,-1,-1,-1,-1,-1,-1,-1,-1,-1,-1,-1,-1,-1,-1,-1,-1,-1,-1],"split_conditions":[5.5557024E-1,-2.5881884E-1,1.32718E2,2.151083E3,-8.742278E-8,1E0,2.8588776E1,4.3922974E1,-1.3052575E-1,3.43311E2,6.540313E-2,8.1307E1,3.5465454E1,1.6598148E1,2.6739931E1,6.43615E2,1.747313E3,4.2721695E1,1.91007E2,4.414068E1,1.305262E-1,6.43615E2,1.634626E4,6.14469E2,2.9694546E1,1.1029252E1,4.3672203E1,1.793019E1,8.1307E1,3.304437E1,3.0639795E1,1.0807355E4,3.4383728E1,8.1307E1,-6.0876155E-1,3.3788136E1,6.087226E1,5.4734238E1,5.3750168E1,2.273746E3,8.1307E1,4.347494E3,3.448793E1,1.0064519E4,7.095044E3,1.305262E-1,-9.690426E0,5.44327E2,3.0947279E1,4.3438305E1,4.520169E1,-9.8078525E-1,3.5196297E1,5.0025137E2,1.4403727E4,8.6E0,1.317902E3,2.47375E1,8.084417E3,3.0642035E1,6.4497635E1,9.9785894E-1,5.143695E1,-4.522682E1,8.122552E0,1.944745E1,-6.747157E1,-2.2574821E1,8.169005E1,7.4569016E1,2.7722326E1,7.464334E1,1.4785939E2,3.6029823E1,-1.0279956E2,-1.0795792E1,-7.661474E1,1.7089752E1,8.00176E1,-5.584511E1,-2.6746918E1,-4.0843086E1,-1.1692952E1,4.3408203E1,-7.264173E1,-3.0372898E1,9.283541E-1,-5.3893288E1,-2.5293016E1,-3.0591074E1,1.10216055E1,-5.26704E1,-5.605851E1,-2.3667135E1,6.6558815E1,-7.581776E1,1.8465697E2,2.2081383E2,5.8525366E2,8.714966E1,-8.167025E1,1.0566361E2,5.3045382E0,5.24162E1,1.7129475E2,-7.546077E1,2.6857748E2,1.2917534E2,4.7366646E1,6.3935024E1,1.8146931E2,2.6493866E2,3.842434E2,4.8959614E1,2.4287222E2,2.8328836E2,-1.331205E2,4.0996875E2,-8.484421E1,-8.425595E0,2.1783853E2,1.8669826E2,6.607513E1],"split_indices":[149,23,315,95,28,42,186,296,3,145,23,285,306,71,291,100,250,176,125,276,3,155,0,90,126,216,11,26,260,116,211,305,166,210,3,186,26,6,26,110,215,125,216,205,180,23,0,0,191,6,11,58,1,0,10,266,315,231,315,116,11,218,1,0,0,0,0,0,0,0,0,0,0,0,0,0,0,0,0,0,0,0,0,0,0,0,0,0,0,0,0,0,0,0,0,0,0,0,0,0,0,0,0,0,0,0,0,0,0,0,0,0,0,0,0,0,0,0,0,0,0,0,0],"split_type":[0,0,0,0,0,0,0,0,0,0,0,0,0,0,0,0,0,0,0,0,0,0,0,0,0,0,0,0,0,0,0,0,0,0,0,0,0,0,0,0,0,0,0,0,0,0,0,0,0,0,0,0,0,0,0,0,0,0,0,0,0,0,0,0,0,0,0,0,0,0,0,0,0,0,0,0,0,0,0,0,0,0,0,0,0,0,0,0,0,0,0,0,0,0,0,0,0,0,0,0,0,0,0,0,0,0,0,0,0,0,0,0,0,0,0,0,0,0,0,0,0,0,0],"sum_hessian":[1.9486E4,1.3158E4,6.328E3,1.823E3,1.1335E4,3.792E3,2.536E3,1.479E3,3.44E2,1.417E3,9.918E3,2.562E3,1.23E3,1.69E3,8.46E2,8.53E2,6.26E2,1.53E2,1.91E2,1.2E3,2.17E2,6.16E2,9.302E3,2.308E3,2.54E2,1.151E3,7.9E1,4.82E2,1.208E3,3.8E1,8.08E2,7.52E2,1.01E2,2.28E2,3.98E2,1.47E2,6E0,3.4E1,1.57E2,7.96E2,4.04E2,7.7E1,1.4E2,4.6E2,1.56E2,9.3E3,2E0,2.215E3,9.3E1,8.7E1,1.67E2,2.36E2,9.15E2,3E0,7.6E1,3.03E2,1.79E2,6.72E2,5.36E2,7E0,3.1E1,2.68E2,5.4E2,6.93E2,5.9E1,8.1E1,2E1,1.96E2,3.2E1,2.41E2,1.57E2,7.2E1,7.5E1,1E0,5E0,2.5E1,9E0,5.3E1,1.04E2,6.49E2,1.47E2,1.39E2,2.65E2,7.4E1,3E0,7.1E1,6.9E1,4.43E2,1.7E1,1.5E2,6E0,4.04E2,8.896E3,1.968E3,2.47E2,1E1,8.3E1,7.9E1,8E0,9.2E1,7.5E1,1.07E2,1.29E2,7.6E1,8.39E2,7.2E1,4E0,8.2E1,2.21E2,3.1E1,1.48E2,5.27E2,1.45E2,1.22E2,4.14E2,3E0,4E0,3E1,1E0,2.43E2,2.5E1,1.84E2,3.56E2],"tree_param":{"num_deleted":"0","num_feature":"322","num_nodes":"123","size_leaf_vector":"1"}},{"base_weights":[-1.5274449E1,-9.4133246E2,1.5391139E3,-1.0357877E3,-3.263874E2,6.543281E2,2.9372012E3,-1.0601653E3,-8.0611554E2,-5.06676E2,7.536501E2,6.646718E1,2.101987E3,1.9340582E3,3.9019463E3,-5.326827E1,-9.803268E2,-9.43189E2,-2.8913773E2,-6.672612E2,4.9007422E2,1.6153439E3,3.5040637E2,-7.861086E1,1.928751E3,1.3664167E3,3.1124E3,8.29709E2,2.9498274E3,5.226033E3,2.0021913E3,-1.0465399E3,-8.146783E2,-1.0250605E3,-6.552724E2,-3.737364E2,6.032348E2,-7.472761E2,1.4121135E2,1.1667148E3,-2.6393276E1,1.8984076E2,2.005313E3,-9.430564E1,7.853021E2,-3.279047E2,1.3385765E3,2.6658577E3,1.0928E3,3.00319E2,2.2252793E3,1.5833065E3,3.9289207E3,3.0346927E2,2.1409414E3,1.8550238E3,4.511793E3,4.0063328E3,6.114424E3,1.548796E3,6.2226167E3,-5.285624E1,-2.769936E1,-4.845424E1,-3.1793394E1,-5.2497158E1,-3.7674335E1,-3.7843216E1,-1.2652428E1,-3.2355923E1,-1.0200076E1,-7.3201113E0,4.8024143E1,-4.728744E1,-1.4074574E1,-1.3787101E1,6.504679E1,-7.563919E0,7.2771385E1,-1.1361277E1,2.8852304E1,-4.9874943E1,1.26644E2,1.2817284E2,3.623657E1,-2.4057413E1,4.7371128E1,1.062022E2,2.3693144E1,-2.1029322E1,8.3573204E1,1.3368425E2,-1.1665831E1,6.878988E1,1.9772443E2,-2.828082E1,9.764488E1,1.091678E2,-1.655286E1,1.6434044E2,8.100111E1,1.0919612E2,-9.848415E1,2.1014244E2,8.891354E0,7.721895E1,-1.3421616E1,1.4561351E2,8.118905E1,-3.205651E1,1.0761541E2,2.394492E2,-1.22373924E2,1.1651577E2,2.8776147E2,3.1306174E2,-1.7292534E2,6.971136E1,3.8240448E2,3.517763E2,-2.9447737E1],"categories":[],"categories_nodes":[],"categories_segments":[],"categories_sizes":[],"default_left":[0,0,0,0,0,0,0,0,0,0,0,0,0,0,0,0,0,0,1,1,0,0,0,0,0,0,0,0,0,0,0,0,0,0,0,0,0,0,0,0,0,0,0,0,0,0,0,0,0,0,0,0,0,0,0,0,0,0,0,0,0,0,0,0,0,0,0,0,0,0,0,0,0,0,0,0,0,0,0,0,0,0,0,0,0,0,0,0,0,0,0,0,0,0,0,0,0,0,0,0,0,0,0,0,0,0,0,0,0,0,0,0,0,0,0,0,0,0,0,0,0],"id":11,"left_children":[1,3,5,7,9,11,13,15,17,19,21,23,25,27,29,-1,31,33,35,37,39,41,43,45,47,49,51,53,55,57,59,61,63,65,67,69,71,73,75,77,79,81,83,85,87,89,91,93,95,97,99,101,103,105,107,109,111,113,115,117,119,-1,-1,-1,-1,-1,-1,-1,-1,-1,-1,-1,-1,-1,-1,-1,-1,-1,-1,-1,-1,-1,-1,-1,-1,-1,-1,-1,-1,-1,-1,-1,-1,-1,-1,-1,-1,-1,-1,-1,-1,-1,-1,-1,-1,-1,-1,-1,-1,-1,-1,-1,-1,-1,-1,-1,-1,-1,-1,-1,-1],"loss_changes":[2.8026175E10,7.0835405E8,8.989886E9,5.8358784E7,3.169941E8,3.7894615E9,2.718681E9,2.924544E6,7.193766E7,2.2345536E8,8.0395096E7,8.560707E8,9.5154074E8,1.5489526E9,3.599192E9,0E0,5.695296E6,1.8303936E7,1.6456564E7,7.779792E7,6.782661E7,4.0756064E7,3.1018596E7,1.03912934E9,1.3819309E8,6.823928E8,6.6923725E8,4.5752528E8,1.2228628E9,8.9112166E8,1.1212531E9,1.619712E6,4.215448E6,3.432256E6,7.204624E6,9.009272E6,5.228937E6,1.0077677E8,5.306578E7,3.218396E7,1.358322E7,4.982026E7,3.9597616E7,3.269464E7,3.2765372E7,4.641508E8,9.240286E8,1.9571123E8,1.5658218E8,3.9781696E8,2.60027E8,4.0975818E8,3.609431E8,3.3751174E8,7.106227E7,3.167584E8,5.827195E8,1.0388823E9,7.0608896E8,4.9371443E8,3.1976346E8,0E0,0E0,0E0,0E0,0E0,0E0,0E0,0E0,0E0,0E0,0E0,0E0,0E0,0E0,0E0,0E0,0E0,0E0,0E0,0E0,0E0,0E0,0E0,0E0,0E0,0E0,0E0,0E0,0E0,0E0,0E0,0E0,0E0,0E0,0E0,0E0,0E0,0E0,0E0,0E0,0E0,0E0,0E0,0E0,0E0,0E0,0E0,0E0,0E0,0E0,0E0,0E0,0E0,0E0,0E0,0E0,0E0,0E0,0E0,0E0],"parents":[2147483647,0,0,1,1,2,2,3,3,4,4,5,5,6,6,7,7,8,8,9,9,10,10,11,11,12,12,13,13,14,14,16,16,17,17,18,18,19,19,20,20,21,21,22,22,23,23,24,24,25,25,26,26,27,27,28,28,29,29,30,30,31,31,32,32,33,33,34,34,35,35,36,36,37,37,38,38,39,39,40,40,41,41,42,42,43,43,44,44,45,45,46,46,47,47,48,48,49,49,50,50,51,51,52,52,53,53,54,54,55,55,56,56,57,57,58,58,59,59,60,60],"right_children":[2,4,6,8,10,12,14,16,18,20,22,24,26,28,30,-1,32,34,36,38,40,42,44,46,48,50,52,54,56,58,60,62,64,66,68,70,72,74,76,78,80,82,84,86,88,90,92,94,96,98,100,102,104,106,108,110,112,114,116,118,120,-1,-1,-1,-1,-1,-1,-1,-1,-1,-1,-1,-1,-1,-1,-1,-1,-1,-1,-1,-1,-1,-1,-1,-1,-1,-1,-1,-1,-1,-1,-1,-1,-1,-1,-1,-1,-1,-1,-1,-1,-1,-1,-1,-1,-1,-1,-1,-1,-1,-1,-1,-1,-1,-1,-1,-1,-1,-1,-1,-1],"split_conditions":[3.8268358E-1,1.3052642E-1,1.32718E2,-4.371139E-8,3.43311E2,1E0,1E0,-1.3052592E-1,3.71464E2,2.513391E3,-8.742278E-8,4.506803E3,9.914449E-1,9.2387974E-1,2.8432423E1,-5.326827E1,4.2721695E1,5.118102E1,7.233993E2,3.1465314E2,-4.422888E-1,3.422397E3,3.4709896E1,1E0,5.6384796E1,6.43615E2,2.273746E3,1.2669251E4,1.0529359E4,3.192418E3,5.571647E3,2.507448E3,2.66588E2,2.151083E3,8.203237E3,3.4709896E1,8.1307E1,4.3915203E1,2.97113E2,5.2482E3,6.1409798E1,6.087226E1,1.1896662E4,1.4938742E4,3.3907093E1,2.420236E3,-9.659258E-1,3.7031616E1,6.769431E3,9.45838E2,-3.8268298E-1,4.1215305E1,3.461091E1,3.0478231E1,-7.071069E-1,2.588464E3,4.792804E1,-8.968727E-1,2.941297E1,3.597322E1,3.162673E3,-5.285624E1,-2.769936E1,-4.845424E1,-3.1793394E1,-5.2497158E1,-3.7674335E1,-3.7843216E1,-1.2652428E1,-3.2355923E1,-1.0200076E1,-7.3201113E0,4.8024143E1,-4.728744E1,-1.4074574E1,-1.3787101E1,6.504679E1,-7.563919E0,7.2771385E1,-1.1361277E1,2.8852304E1,-4.9874943E1,1.26644E2,1.2817284E2,3.623657E1,-2.4057413E1,4.7371128E1,1.062022E2,2.3693144E1,-2.1029322E1,8.3573204E1,1.3368425E2,-1.1665831E1,6.878988E1,1.9772443E2,-2.828082E1,9.764488E1,1.091678E2,-1.655286E1,1.6434044E2,8.100111E1,1.0919612E2,-9.848415E1,2.1014244E2,8.891354E0,7.721895E1,-1.3421616E1,1.4561351E2,8.118905E1,-3.205651E1,1.0761541E2,2.394492E2,-1.22373924E2,1.1651577E2,2.8776147E2,3.1306174E2,-1.7292534E2,6.971136E1,3.8240448E2,3.517763E2,-2.9447737E1],"split_indices":[144,144,315,149,135,62,2,144,150,195,8,245,199,109,181,0,186,281,320,320,8,80,206,17,286,95,55,305,315,315,30,150,170,125,200,216,50,286,125,210,316,66,55,25,231,295,53,21,235,60,8,81,311,291,8,315,21,8,156,226,315,0,0,0,0,0,0,0,0,0,0,0,0,0,0,0,0,0,0,0,0,0,0,0,0,0,0,0,0,0,0,0,0,0,0,0,0,0,0,0,0,0,0,0,0,0,0,0,0,0,0,0,0,0,0,0,0,0,0,0,0],"split_type":[0,0,0,0,0,0,0,0,0,0,0,0,0,0,0,0,0,0,0,0,0,0,0,0,0,0,0,0,0,0,0,0,0,0,0,0,0,0,0,0,0,0,0,0,0,0,0,0,0,0,0,0,0,0,0,0,0,0,0,0,0,0,0,0,0,0,0,0,0,0,0,0,0,0,0,0,0,0,0,0,0,0,0,0,0,0,0,0,0,0,0,0,0,0,0,0,0,0,0,0,0,0,0,0,0,0,0,0,0,0,0,0,0,0,0,0,0,0,0,0,0],"sum_hessian":[1.9468E4,1.22E4,7.268E3,1.0575E4,1.625E3,4.452E3,2.816E3,9.557E3,1.018E3,1.393E3,2.32E2,3.167E3,1.285E3,1.382E3,1.434E3,8.961E3,5.96E2,8.04E2,2.14E2,1.2E3,1.93E2,7.3E1,1.59E2,2.939E3,2.28E2,7.45E2,5.4E2,6.63E2,7.19E2,8.44E2,5.9E2,4.22E2,1.74E2,6.24E2,1.8E2,1.96E2,1.8E1,1.092E3,1.08E2,8.3E1,1.1E2,1.6E1,5.7E1,7.9E1,8E1,2.5E3,4.39E2,1.2E2,1.08E2,3.33E2,4.12E2,1.89E2,3.51E2,4.74E2,1.89E2,4.24E2,2.95E2,3.58E2,4.86E2,5.34E2,5.6E1,4.12E2,1E1,9.1E1,8.3E1,5.69E2,5.5E1,1.43E2,3.7E1,7.4E1,1.22E2,6E0,1.2E1,7.65E2,3.27E2,8E1,2.8E1,1.5E1,6.8E1,8.3E1,2.7E1,1.1E1,5E0,3.9E1,1.8E1,5.8E1,2.1E1,1.4E1,6.6E1,2.39E3,1.1E2,2.37E2,2.02E2,6.1E1,5.9E1,3.7E1,7.1E1,8.3E1,2.5E2,1.48E2,2.64E2,1.62E2,2.7E1,3.27E2,2.4E1,1.49E2,3.25E2,7.4E1,1.15E2,4.5E1,3.79E2,2.84E2,1.1E1,1.84E2,1.74E2,4.79E2,7E0,5.22E2,1.2E1,5E1,6E0],"tree_param":{"num_deleted":"0","num_feature":"322","num_nodes":"121","size_leaf_vector":"1"}},{"base_weights":[5.2698445E0,1.7054749E3,-7.9854987E2,7.654317E2,3.0746487E3,7.9514915E1,-9.597895E2,5.132785E1,2.3233772E3,3.87293E3,1.4903054E3,-9.6273114E2,3.7567593E2,-1.0005548E3,-6.3217694E2,-5.9382477E1,3.1964382E3,2.5672607E3,-9.4979834E2,2.6713823E3,5.1188174E3,4.9347646E3,1.2114917E3,-1.0925447E3,-5.171413E2,1.1068414E2,1.0788572E3,-8.848906E2,-5.0533203E1,-9.9039777E2,-4.4685764E2,-2.8414072E2,1.6801226E3,-2.777135E3,3.8365105E3,9.164325E2,2.9760862E3,6.4151626E3,-1.3106849E3,1.3064316E3,3.3123142E3,5.5568745E3,3.1793347E3,7.557642E3,3.3809321E3,1.0056637E3,4.9772114E3,-1.2361392E3,-8.304753E2,-6.475231E2,4.5536984E2,-4.2463254E2,8.1293634E2,1.8890348E3,6.742307E2,-9.829443E2,-6.502813E2,-1.0125934E3,-4.335089E2,-5.797322E2,-7.7743614E1,1.7602232E1,-4.0319546E1,2.330389E2,1.3301534E1,-4.1114605E1,-1.459352E2,3.5842493E2,1.2927617E2,4.654945E0,1.1143687E2,1.6997136E2,1.0423205E2,-5.5250164E1,4.6451096E2,-8.620516E1,1.5939586E2,1.3283163E2,3.703297E1,1.5507335E2,2.544982E2,2.5703543E2,4.015333E2,1.8464215E2,-1.6452512E2,4.014695E2,-7.0520226E1,-7.7695526E1,2.4858153E2,1.0619777E2,2.331049E0,3.9366342E2,-5.8520863E1,-7.446881E1,-5.4630653E1,-4.8074883E1,-2.1997887E1,-3.4509792E1,4.3136288E1,3.4511433E1,-2.9224975E0,-2.6938505E1,7.091546E1,1.1947199E1,5.9677654E1,6.445686E1,1.3884988E2,-3.8321393E0,4.9178467E1,-4.980287E1,-1.4508964E1,-3.657276E1,-1.6596746E1,-5.091925E1,-8.724478E0,-8.922782E0,-2.8979614E1,-4.2929718E1,-1.0692039E1,-1.7927687E1,7.8456345E0],"categories":[],"categories_nodes":[],"categories_segments":[],"categories_sizes":[],"default_left":[0,0,0,0,0,0,0,0,0,0,0,0,0,0,0,0,0,0,0,0,0,0,0,0,0,0,0,0,0,0,0,0,0,0,0,0,0,0,0,0,0,0,0,1,0,0,0,0,0,0,0,0,0,0,0,0,0,0,0,0,0,0,0,0,0,0,0,0,0,0,0,0,0,0,0,0,0,0,0,0,0,0,0,0,0,0,0,0,0,0,0,0,0,0,0,0,0,0,0,0,0,0,0,0,0,0,0,0,0,0,0,0,0,0,0,0,0,0,0,0,0],"id":12,"left_children":[1,3,5,7,9,11,13,15,17,19,21,23,25,27,29,31,33,35,37,39,41,43,45,47,49,51,53,55,-1,57,59,61,63,65,67,69,71,73,75,77,79,81,83,85,87,89,91,93,95,97,99,101,103,105,107,109,111,113,115,117,119,-1,-1,-1,-1,-1,-1,-1,-1,-1,-1,-1,-1,-1,-1,-1,-1,-1,-1,-1,-1,-1,-1,-1,-1,-1,-1,-1,-1,-1,-1,-1,-1,-1,-1,-1,-1,-1,-1,-1,-1,-1,-1,-1,-1,-1,-1,-1,-1,-1,-1,-1,-1,-1,-1,-1,-1,-1,-1,-1,-1],"loss_changes":[2.6765998E10,8.0895345E9,1.882792E9,4.148523E9,3.230724E9,6.37462E8,1.4941389E8,8.908755E8,9.3801574E8,2.5327145E9,8.189727E8,2.5869536E7,2.995109E8,1.0786816E7,8.227344E7,9.669505E8,3.4330086E8,7.33589E8,2.2635738E8,7.550341E8,6.90901E8,2.352809E8,6.1196685E8,1.2257408E7,1.3608626E7,4.3980422E8,1.4296682E8,1.801728E7,0E0,4.801856E6,4.031968E7,7.279068E8,1.1915825E9,9.0672E4,3.1075942E8,2.353338E8,3.227479E8,9.674931E7,1.5242085E8,2.111622E8,2.0535347E8,6.5775206E8,5.304324E8,1.0862976E8,3.3741894E8,8.1070304E8,7.391742E8,6.586912E6,6.126296E6,6.588976E6,1.6091202E6,1.4043578E8,1.1026118E8,7.419235E7,6.8596264E7,4.88896E6,6.010816E6,1.79792E6,5.6723125E5,6.154653E7,1.4487018E7,0E0,0E0,0E0,0E0,0E0,0E0,0E0,0E0,0E0,0E0,0E0,0E0,0E0,0E0,0E0,0E0,0E0,0E0,0E0,0E0,0E0,0E0,0E0,0E0,0E0,0E0,0E0,0E0,0E0,0E0,0E0,0E0,0E0,0E0,0E0,0E0,0E0,0E0,0E0,0E0,0E0,0E0,0E0,0E0,0E0,0E0,0E0,0E0,0E0,0E0,0E0,0E0,0E0,0E0,0E0,0E0,0E0,0E0,0E0,0E0],"parents":[2147483647,0,0,1,1,2,2,3,3,4,4,5,5,6,6,7,7,8,8,9,9,10,10,11,11,12,12,13,13,14,14,15,15,16,16,17,17,18,18,19,19,20,20,21,21,22,22,23,23,24,24,25,25,26,26,27,27,29,29,30,30,31,31,32,32,33,33,34,34,35,35,36,36,37,37,38,38,39,39,40,40,41,41,42,42,43,43,44,44,45,45,46,46,47,47,48,48,49,49,50,50,51,51,52,52,53,53,54,54,55,55,56,56,57,57,58,58,59,59,60,60],"right_children":[2,4,6,8,10,12,14,16,18,20,22,24,26,28,30,32,34,36,38,40,42,44,46,48,50,52,54,56,-1,58,60,62,64,66,68,70,72,74,76,78,80,82,84,86,88,90,92,94,96,98,100,102,104,106,108,110,112,114,116,118,120,-1,-1,-1,-1,-1,-1,-1,-1,-1,-1,-1,-1,-1,-1,-1,-1,-1,-1,-1,-1,-1,-1,-1,-1,-1,-1,-1,-1,-1,-1,-1,-1,-1,-1,-1,-1,-1,-1,-1,-1,-1,-1,-1,-1,-1,-1,-1,-1,-1,-1,-1,-1,-1,-1,-1,-1,-1,-1,-1,-1],"split_conditions":[-5.000002E-1,1.32718E2,-1.9509025E-1,1.32718E2,2.8588095E1,1.5081482E1,6.5403014E-2,6.14469E2,3.5335293E1,3.471051E1,2.941297E1,1.205691E3,2.151083E3,1.3052608E-1,2.706554E1,1E0,3.1539215E1,1.0698282E1,4.3202374E1,1.6906122E1,2.941297E1,2.808846E1,3.6689796E1,2.310117E3,1.1222962E4,2.232724E3,-1.3052575E-1,4.05684E2,-5.0533203E1,4.5222034E1,2.151083E3,3.168488E1,2.9694546E1,2.5720407E1,3.0316668E1,9.914448E-1,-4.4228855E-1,1E0,1.2484271E4,2.5881895E-1,9.04937E2,2.597099E1,4.61035E2,3.023255E2,3.0316364E1,4.3438305E1,4.160811E1,-4.4228855E-1,1.00622225E1,1.2975555E1,4.06725E2,8.38705E2,5.12E1,7.565463E3,2.97113E2,1.294692E4,5.9709152E1,3.0163158E1,-4.422888E-1,1.57483E3,3.4604E1,1.7602232E1,-4.0319546E1,2.330389E2,1.3301534E1,-4.1114605E1,-1.459352E2,3.5842493E2,1.2927617E2,4.654945E0,1.1143687E2,1.6997136E2,1.0423205E2,-5.5250164E1,4.6451096E2,-8.620516E1,1.5939586E2,1.3283163E2,3.703297E1,1.5507335E2,2.544982E2,2.5703543E2,4.015333E2,1.8464215E2,-1.6452512E2,4.014695E2,-7.0520226E1,-7.7695526E1,2.4858153E2,1.0619777E2,2.331049E0,3.9366342E2,-5.8520863E1,-7.446881E1,-5.4630653E1,-4.8074883E1,-2.1997887E1,-3.4509792E1,4.3136288E1,3.4511433E1,-2.9224975E0,-2.6938505E1,7.091546E1,1.1947199E1,5.9677654E1,6.445686E1,1.3884988E2,-3.8321393E0,4.9178467E1,-4.980287E1,-1.4508964E1,-3.657276E1,-1.6596746E1,-5.091925E1,-8.724478E0,-8.922782E0,-2.8979614E1,-4.2929718E1,-1.0692039E1,-1.7927687E1,7.8456345E0],"split_indices":[28,315,28,40,181,221,149,90,306,1,296,255,95,28,201,282,186,216,46,31,241,236,176,65,315,250,3,160,0,301,120,306,126,1,301,303,3,2,10,4,10,231,10,321,216,46,116,23,311,126,210,215,311,70,130,220,76,181,3,220,211,0,0,0,0,0,0,0,0,0,0,0,0,0,0,0,0,0,0,0,0,0,0,0,0,0,0,0,0,0,0,0,0,0,0,0,0,0,0,0,0,0,0,0,0,0,0,0,0,0,0,0,0,0,0,0,0,0,0,0,0],"split_type":[0,0,0,0,0,0,0,0,0,0,0,0,0,0,0,0,0,0,0,0,0,0,0,0,0,0,0,0,0,0,0,0,0,0,0,0,0,0,0,0,0,0,0,0,0,0,0,0,0,0,0,0,0,0,0,0,0,0,0,0,0,0,0,0,0,0,0,0,0,0,0,0,0,0,0,0,0,0,0,0,0,0,0,0,0,0,0,0,0,0,0,0,0,0,0,0,0,0,0,0,0,0,0,0,0,0,0,0,0,0,0,0,0,0,0,0,0,0,0,0,0],"sum_hessian":[1.9583E4,6.286E3,1.3297E4,3.728E3,2.558E3,2.063E3,1.1234E4,2.557E3,1.171E3,1.7E3,8.58E2,4.56E2,1.607E3,9.989E3,1.245E3,2.471E3,8.6E1,1.09E3,8.1E1,8.67E2,8.33E2,6.3E1,7.95E2,3.52E2,1.04E2,1.168E3,4.39E2,8.1E2,9.179E3,4.23E2,8.22E2,2.189E3,2.82E2,8E0,7.8E1,2.17E2,8.73E2,3E0,7.8E1,2.78E2,5.89E2,6.78E2,1.55E2,2.2E1,4.1E1,7.55E2,4E1,2.25E2,1.27E2,9.2E1,1.2E1,6.63E2,5.05E2,1.45E2,2.94E2,5.69E2,2.41E2,4.06E2,1.7E1,6.04E2,2.18E2,9.87E2,1.202E3,9E1,1.92E2,1E0,7E0,2E1,5.8E1,1.34E2,8.3E1,5.9E2,2.83E2,1E0,2E0,7.2E1,6E0,8.1E1,1.97E2,5.29E2,6E1,5.83E2,9.5E1,1.44E2,1.1E1,2.1E1,1E0,1E1,3.1E1,3.48E2,4.07E2,2.7E1,1.3E1,7.8E1,1.47E2,9.4E1,3.3E1,9E1,2E0,8E0,4E0,6.25E2,3.8E1,2.02E2,3.03E2,8.8E1,5.7E1,8.6E1,2.08E2,5.58E2,1.1E1,1.91E2,5E1,4.03E2,3E0,7E0,1E1,3.42E2,2.62E2,9.9E1,1.19E2],"tree_param":{"num_deleted":"0","num_feature":"322","num_nodes":"121","size_leaf_vector":"1"}},{"base_weights":[-5.1684184E0,-7.780929E2,1.5615939E3,-9.122019E2,3.514086E1,7.126622E2,2.7946406E3,-9.4979596E2,-5.975777E2,-9.2844653E2,3.1655362E2,2.8844675E2,2.8765122E3,3.464195E3,1.4118987E3,-8.125127E2,-9.5895135E2,-9.428112E2,-4.1412595E2,-1.0154041E3,-5.9363336E2,2.0892517E1,9.741207E2,6.701952E2,-7.5160956E2,4.4148846E2,3.2362844E3,2.3287952E3,4.806214E3,4.1176436E3,1.1028439E3,-8.9684326E2,-4.150137E2,-4.797806E1,-6.5485864E2,-9.893248E2,-7.6530835E2,-5.181075E2,9.267437E1,-1.0244783E3,4.9703472E1,5.051107E2,-6.5128143E2,-4.575429E2,7.051562E2,1.459325E3,3.9138187E2,-9.4432385E2,9.848618E2,4.742121E3,-8.4801373E2,-1.7652199E2,1.5185906E3,3.3430051E3,-1.4144595E2,1.4826964E3,3.5438523E3,3.306784E3,5.413768E3,2.7922224E3,6.85811E3,2.5093218E3,4.2035498E2,-4.5402344E1,-1.1564645E1,-2.185086E1,2.6872696E1,-4.498927E1,-1.6406666E1,-4.955646E1,-1.0027135E1,-1.6778776E1,-4.0134266E1,-3.20672E1,-8.372291E-2,5.419929E1,-1.0921158E0,-5.692721E1,-4.262782E1,3.0296461E1,2.5459137E0,-3.675245E1,6.8880534E0,-2.6594223E1,9.5688255E1,3.0241153E0,5.2762062E1,7.9977936E1,-8.218738E1,-1.7568941E1,3.952676E1,-5.4016335E1,1.876627E2,2.6443247E1,8.805434E1,-6.401315E1,3.524233E2,-4.7891197E1,1.4787352E2,1.3399187E0,-1.0668786E2,1.01910645E2,3.9835248E0,2.094594E2,1.2885667E2,6.589706E1,4.2202237E2,1.2382422E2,2.5239287E2,8.901473E1,2.7458054E2,2.8449814E2,2.6600622E1,2.0474815E2,-5.6383514E1,3.6188065E2,-8.471185E1,1.0445886E2,3.9392377E2,-6.531526E1,6.9260574E1],"categories":[],"categories_nodes":[],"categories_segments":[],"categories_sizes":[],"default_left":[0,0,0,0,0,0,0,0,0,0,0,0,0,0,0,0,0,0,0,0,0,0,0,0,0,0,0,0,0,0,0,0,0,0,0,0,0,0,0,0,0,0,0,0,0,0,0,0,0,0,0,0,0,0,0,0,0,0,0,0,0,1,0,0,0,0,0,0,0,0,0,0,0,0,0,0,0,0,0,0,0,0,0,0,0,0,0,0,0,0,0,0,0,0,0,0,0,0,0,0,0,0,0,0,0,0,0,0,0,0,0,0,0,0,0,0,0,0,0,0,0],"id":13,"left_children":[1,3,5,7,9,11,13,15,17,19,21,23,25,27,29,31,33,35,37,39,41,43,45,47,49,51,53,55,57,59,61,63,65,-1,67,69,71,73,75,77,-1,79,81,83,85,87,89,91,93,95,97,99,101,103,-1,105,107,109,111,113,115,117,119,-1,-1,-1,-1,-1,-1,-1,-1,-1,-1,-1,-1,-1,-1,-1,-1,-1,-1,-1,-1,-1,-1,-1,-1,-1,-1,-1,-1,-1,-1,-1,-1,-1,-1,-1,-1,-1,-1,-1,-1,-1,-1,-1,-1,-1,-1,-1,-1,-1,-1,-1,-1,-1,-1,-1,-1,-1,-1],"loss_changes":[2.3709956E10,1.4299428E9,6.7685315E9,1.3255578E8,5.0384877E8,3.516711E9,2.4364995E9,1.1855872E7,7.58633E7,1.1625344E7,2.7955133E8,1.2730164E9,5.487329E8,2.6949468E9,7.162835E8,2.0913856E7,1.118208E6,2.685728E6,4.1573936E7,7.072192E6,5.966272E6,3.2540698E8,1.2553414E8,1.1922729E9,4.6002304E8,5.485222E7,3.6352102E8,9.8579405E8,7.2272896E8,3.004905E8,7.428719E8,3.68976E6,2.60309E6,0E0,1.465274E6,2.66688E5,1.192292E6,4.162173E7,1.5349107E7,5.520352E6,0E0,1.9810212E5,5.719432E6,1.0414563E8,9.224366E7,1.083721E8,6.075875E7,2.4874714E8,6.9388454E8,2.1736931E8,3.56778E8,2.1148308E7,2.2268464E7,3.3786368E8,0E0,6.42282E8,6.216028E8,7.806454E8,7.749509E8,3.161206E8,1.0314022E8,5.542629E8,8.7311654E8,0E0,0E0,0E0,0E0,0E0,0E0,0E0,0E0,0E0,0E0,0E0,0E0,0E0,0E0,0E0,0E0,0E0,0E0,0E0,0E0,0E0,0E0,0E0,0E0,0E0,0E0,0E0,0E0,0E0,0E0,0E0,0E0,0E0,0E0,0E0,0E0,0E0,0E0,0E0,0E0,0E0,0E0,0E0,0E0,0E0,0E0,0E0,0E0,0E0,0E0,0E0,0E0,0E0,0E0,0E0,0E0,0E0,0E0],"parents":[2147483647,0,0,1,1,2,2,3,3,4,4,5,5,6,6,7,7,8,8,9,9,10,10,11,11,12,12,13,13,14,14,15,15,16,16,17,17,18,18,19,19,20,20,21,21,22,22,23,23,24,24,25,25,26,26,27,27,28,28,29,29,30,30,31,31,32,32,34,34,35,35,36,36,37,37,38,38,39,39,41,41,42,42,43,43,44,44,45,45,46,46,47,47,48,48,49,49,50,50,51,51,52,52,53,53,55,55,56,56,57,57,58,58,59,59,60,60,61,61,62,62],"right_children":[2,4,6,8,10,12,14,16,18,20,22,24,26,28,30,32,34,36,38,40,42,44,46,48,50,52,54,56,58,60,62,64,66,-1,68,70,72,74,76,78,-1,80,82,84,86,88,90,92,94,96,98,100,102,104,-1,106,108,110,112,114,116,118,120,-1,-1,-1,-1,-1,-1,-1,-1,-1,-1,-1,-1,-1,-1,-1,-1,-1,-1,-1,-1,-1,-1,-1,-1,-1,-1,-1,-1,-1,-1,-1,-1,-1,-1,-1,-1,-1,-1,-1,-1,-1,-1,-1,-1,-1,-1,-1,-1,-1,-1,-1,-1,-1,-1,-1,-1,-1,-1],"split_conditions":[5.000003E-1,2.5881895E-1,4.06725E2,6.5403014E-2,1.5081482E1,2.97113E2,2.8588095E1,6.540313E-2,2.67375E1,1.065194E3,2.095299E3,3.2923214E1,3.3902702E1,1.32718E2,2.941297E1,9.45838E2,1.5087048E4,2.2079182E1,4.05684E2,4.3904068E1,8.1307E1,2.232724E3,-8.742278E-8,2.3166039E1,2.723585E1,6.0957E3,4.0222633E1,4.2092567E1,2.353227E3,-9.914448E-1,4.3672203E1,9.045153E3,9.359827E3,-4.797806E1,6.0078644E1,4.65875E1,2.0575085E1,4.303843E3,4.7140877E1,6.43615E2,4.9703472E1,1.4030769E1,1.1137801E4,3.192418E3,5.1205425E1,3.5584614E1,2.97113E2,2.508728E3,9.659259E-1,3.4709896E1,2.011086E3,1.9035374E1,2.5112543E1,-9.914448E-1,-1.4144595E2,3.3458782E1,9.659258E-1,-8.660252E-1,2.876373E1,4.4383785E1,6.3825424E1,2.989007E2,2.683923E3,-4.5402344E1,-1.1564645E1,-2.185086E1,2.6872696E1,-4.498927E1,-1.6406666E1,-4.955646E1,-1.0027135E1,-1.6778776E1,-4.0134266E1,-3.20672E1,-8.372291E-2,5.419929E1,-1.0921158E0,-5.692721E1,-4.262782E1,3.0296461E1,2.5459137E0,-3.675245E1,6.8880534E0,-2.6594223E1,9.5688255E1,3.0241153E0,5.2762062E1,7.9977936E1,-8.218738E1,-1.7568941E1,3.952676E1,-5.4016335E1,1.876627E2,2.6443247E1,8.805434E1,-6.401315E1,3.524233E2,-4.7891197E1,1.4787352E2,1.3399187E0,-1.0668786E2,1.01910645E2,3.9835248E0,2.094594E2,1.2885667E2,6.589706E1,4.2202237E2,1.2382422E2,2.5239287E2,8.901473E1,2.7458054E2,2.8449814E2,2.6600622E1,2.0474815E2,-5.6383514E1,3.6188065E2,-8.471185E1,1.0445886E2,3.9392377E2,-6.531526E1,6.9260574E1],"split_indices":[144,149,315,149,216,85,181,23,206,255,95,181,91,0,291,150,0,216,150,11,275,245,3,11,291,45,186,316,315,58,31,195,190,0,76,11,246,195,91,80,0,51,305,230,316,291,135,300,174,116,225,206,126,78,0,76,233,3,161,96,16,321,0,0,0,0,0,0,0,0,0,0,0,0,0,0,0,0,0,0,0,0,0,0,0,0,0,0,0,0,0,0,0,0,0,0,0,0,0,0,0,0,0,0,0,0,0,0,0,0,0,0,0,0,0,0,0,0,0,0,0],"split_type":[0,0,0,0,0,0,0,0,0,0,0,0,0,0,0,0,0,0,0,0,0,0,0,0,0,0,0,0,0,0,0,0,0,0,0,0,0,0,0,0,0,0,0,0,0,0,0,0,0,0,0,0,0,0,0,0,0,0,0,0,0,0,0,0,0,0,0,0,0,0,0,0,0,0,0,0,0,0,0,0,0,0,0,0,0,0,0,0,0,0,0,0,0,0,0,0,0,0,0,0,0,0,0,0,0,0,0,0,0,0,0,0,0,0,0,0,0,0,0,0,0],"sum_hessian":[1.9577E4,1.311E4,6.467E3,1.1254E4,1.856E3,3.831E3,2.636E3,1.0051E4,1.203E3,4.19E2,1.437E3,3.204E3,6.27E2,1.775E3,8.61E2,6.34E2,9.417E3,4.16E2,7.87E2,3.31E2,8.8E1,9.92E2,4.45E2,2.344E3,8.6E2,8.1E1,5.46E2,9.63E2,8.12E2,8.7E1,7.74E2,5.22E2,1.12E2,9.396E3,2.1E1,3.26E2,9E1,6.53E2,1.34E2,3.3E2,1E0,4E0,8.4E1,5.84E2,4.08E2,2.42E2,2.03E2,3.82E2,1.962E3,1.4E1,8.46E2,5.2E1,2.9E1,5.37E2,9E0,5.69E2,3.94E2,2.36E2,5.76E2,6E1,2.7E1,2.52E2,5.22E2,5.13E2,9E0,1.1E2,2E0,1.1E1,1E1,3.25E2,1E0,8E0,8.2E1,5.27E2,1.26E2,1.3E1,1.21E2,1.95E2,1.35E2,3E0,1E0,7.6E1,8E0,5.67E2,1.7E1,1.44E2,2.64E2,2.32E2,1E1,7.1E1,1.32E2,3.72E2,1E1,1.237E3,7.25E2,4E0,1E1,8.23E2,2.3E1,4.8E1,4E0,2.1E1,8E0,2.53E2,2.84E2,5.57E2,1.2E1,2.32E2,1.62E2,1.4E2,9.6E1,5.45E2,3.1E1,4.5E1,1.5E1,2.6E1,1E0,2.35E2,1.7E1,1.87E2,3.35E2],"tree_param":{"num_deleted":"0","num_feature":"322","num_nodes":"121","size_leaf_vector":"1"}},{"base_weights":[-5.673927E0,-7.610439E2,1.4232303E3,-8.8104004E2,-1.2041119E2,6.162592E2,2.599791E3,-6.6747284E2,-9.0848694E2,-3.863033E2,6.609459E2,-3.9576657E0,2.0720422E3,3.1911953E3,1.3458827E3,-7.630765E2,-2.7483633E2,-8.3353076E2,-4.567418E1,-7.047036E2,2.194598E2,2.7318268E2,1.9890199E3,-8.9070465E1,2.8037869E3,2.295993E3,-9.333019E2,1.2047898E3,3.9934968E3,9.5953674E2,3.247836E3,-8.0056744E2,-5.63689E1,-3.5414676E2,6.788312E2,-9.0335504E2,-6.698802E2,-8.09609E2,-1.7909103E2,-3.241485E2,5.324801E2,-2.2308022E2,6.9043115E2,2.1894304E3,-1.0250391E2,-2.3837639E2,1.7187433E3,4.590933E2,4.421348E3,6.71193E2,2.6865706E3,4.1898492E2,-1.2626396E3,2.125816E3,4.0347125E2,4.3571235E3,2.1441306E3,5.1308624E2,2.964735E3,1.2814938E3,4.7132993E3,-4.3203823E1,-2.9549314E1,-3.5817318E1,1.1926009E1,-8.383844E0,-2.4835833E1,4.3649487E1,-3.238387E1,-4.568383E1,-1.9233774E1,-4.0663006E1,-2.6044956E1,-3.4947414E1,-5.7483776E1,-3.8329323E1,2.8083395E1,-2.449004E1,8.260791E1,5.2443996E1,9.449692E0,-2.164209E1,4.5287586E1,3.8838932E1,-8.3124664E1,1.1694958E2,-7.245309E1,4.619411E0,-4.432368E1,1.9851163E2,5.975973E1,-2.4397861E1,3.119494E2,2.4456236E2,-1.0439147E2,6.984728E1,-2.7476515E1,1.9522346E1,1.4427608E2,-8.150735E1,1.8320723E2,4.470971E1,1.36998E2,-1.3695556E1,5.5085842E1,2.2657552E2,9.759894E1,7.729304E1,1.7628682E2,2.0214104E1,3.1709332E2,1.0755762E2,3.3020126E2,4.366179E2,2.575246E1,1.6730083E2,4.0245303E2],"categories":[],"categories_nodes":[],"categories_segments":[],"categories_sizes":[],"default_left":[0,0,0,0,0,0,0,0,0,0,0,0,0,0,0,0,1,0,0,0,0,0,0,0,0,0,0,0,0,0,0,1,0,0,0,0,0,0,0,0,0,0,0,0,0,0,0,0,0,0,0,0,0,0,0,0,0,0,0,0,0,0,0,0,0,0,0,0,0,0,0,0,0,0,0,0,0,0,0,0,0,0,0,0,0,0,0,0,0,0,0,0,0,0,0,0,0,0,0,0,0,0,0,0,0,0,0,0,0,0,0,0,0,0,0,0,0],"id":14,"left_children":[1,3,5,7,9,11,13,15,17,19,21,23,25,27,29,31,33,35,-1,37,39,41,43,45,47,49,51,53,55,57,59,61,63,65,67,69,71,73,75,77,79,81,83,85,-1,87,89,91,93,95,97,-1,99,101,103,105,107,109,111,113,115,-1,-1,-1,-1,-1,-1,-1,-1,-1,-1,-1,-1,-1,-1,-1,-1,-1,-1,-1,-1,-1,-1,-1,-1,-1,-1,-1,-1,-1,-1,-1,-1,-1,-1,-1,-1,-1,-1,-1,-1,-1,-1,-1,-1,-1,-1,-1,-1,-1,-1,-1,-1,-1,-1,-1,-1],"loss_changes":[2.1145575E10,9.851044E8,6.430925E9,6.2665216E7,4.2054717E8,3.6296704E9,2.039464E9,4.6073984E7,2.820608E6,2.9139616E8,2.6415546E8,6.741592E8,8.104745E8,2.9785866E9,6.471922E8,2.6211584E7,1.8619904E7,6.35376E6,0E0,5.444323E7,8.882619E7,8.277293E7,9.83879E7,7.3944326E8,3.1276307E8,7.07691E8,2.6821883E8,3.9768128E8,8.870728E8,6.582574E8,4.2331866E8,1.2014336E7,1.009649E7,5.898334E6,5.458921E6,1.918464E6,3.549496E6,3.0242816E7,7.267251E7,6.3338744E7,5.8513304E7,4.372381E7,4.5379064E7,6.379293E7,0E0,5.42432E8,2.4161658E8,1.9462918E8,1.6008634E8,1.9390326E8,4.1046528E8,0E0,1.5444472E8,1.8740467E8,1.3746573E8,4.5797376E8,1.772224E8,3.8049014E8,3.825495E8,3.6669622E8,3.6074675E8,0E0,0E0,0E0,0E0,0E0,0E0,0E0,0E0,0E0,0E0,0E0,0E0,0E0,0E0,0E0,0E0,0E0,0E0,0E0,0E0,0E0,0E0,0E0,0E0,0E0,0E0,0E0,0E0,0E0,0E0,0E0,0E0,0E0,0E0,0E0,0E0,0E0,0E0,0E0,0E0,0E0,0E0,0E0,0E0,0E0,0E0,0E0,0E0,0E0,0E0,0E0,0E0,0E0,0E0,0E0,0E0],"parents":[2147483647,0,0,1,1,2,2,3,3,4,4,5,5,6,6,7,7,8,8,9,9,10,10,11,11,12,12,13,13,14,14,15,15,