{"learner":{"attributes":{"scikit_learn":"{\"_estimator_type\": \"regressor\"}"},"feature_names":[],"feature_types":[],"gradient_booster":{"model":{"cats":{"enc":[],"feature_segments":[],"sorted_idx":[]},"gbtree_model_param":{"num_parallel_tree":"1","num_trees":"300"},"iteration_indptr":[0,1,2,3,4,5,6,7,8,9,10,11,12,13,14,15,16,17,18,19,20,21,22,23,24,25,26,27,28,29,30,31,32,33,34,35,36,37,38,39,40,41,42,43,44,45,46,47,48,49,50,51,52,53,54,55,56,57,58,59,60,61,62,63,64,65,66,67,68,69,70,71,72,73,74,75,76,77,78,79,80,81,82,83,84,85,86,87,88,89,90,91,92,93,94,95,96,97,98,99,100,101,102,103,104,105,106,107,108,109,110,111,112,113,114,115,116,117,118,119,120,121,122,123,124,125,126,127,128,129,130,131,132,133,134,135,136,137,138,139,140,141,142,143,144,145,146,147,148,149,150,151,152,153,154,155,156,157,158,159,160,161,162,163,164,165,166,167,168,169,170,171,172,173,174,175,176,177,178,179,180,181,182,183,184,185,186,187,188,189,190,191,192,193,194,195,196,197,198,199,200,201,202,203,204,205,206,207,208,209,210,211,212,213,214,215,216,217,218,219,220,221,222,223,224,225,226,227,228,229,230,231,232,233,234,235,236,237,238,239,240,241,242,243,244,245,246,247,248,249,250,251,252,253,254,255,256,257,258,259,260,261,262,263,264,265,266,267,268,269,270,271,272,273,274,275,276,277,278,279,280,281,282,283,284,285,286,287,288,289,290,291,292,293,294,295,296,297,298,299,300],"tree_info":[0,0,0,0,0,0,0,0,0,0,0,0,0,0,0,0,0,0,0,0,0,0,0,0,0,0,0,0,0,0,0,0,0,0,0,0,0,0,0,0,0,0,0,0,0,0,0,0,0,0,0,0,0,0,0,0,0,0,0,0,0,0,0,0,0,0,0,0,0,0,0,0,0,0,0,0,0,0,0,0,0,0,0,0,0,0,0,0,0,0,0,0,0,0,0,0,0,0,0,0,0,0,0,0,0,0,0,0,0,0,0,0,0,0,0,0,0,0,0,0,0,0,0,0,0,0,0,0,0,0,0,0,0,0,0,0,0,0,0,0,0,0,0,0,0,0,0,0,0,0,0,0,0,0,0,0,0,0,0,0,0,0,0,0,0,0,0,0,0,0,0,0,0,0,0,0,0,0,0,0,0,0,0,0,0,0,0,0,0,0,0,0,0,0,0,0,0,0,0,0,0,0,0,0,0,0,0,0,0,0,0,0,0,0,0,0,0,0,0,0,0,0,0,0,0,0,0,0,0,0,0,0,0,0,0,0,0,0,0,0,0,0,0,0,0,0,0,0,0,0,0,0,0,0,0,0,0,0,0,0,0,0,0,0,0,0,0,0,0,0,0,0,0,0,0,0,0,0,0,0,0,0,0,0,0,0,0,0,0,0,0,0,0,0,0,0,0,0,0,0],"trees":[{"base_weights":[5.995507E-1,-2.7719434E2,6.9944714E2,-8.1028503E2,6.120291E2,5.2477325E2,1.3333073E3,-9.1410675E2,1.3159634E2,4.2789365E2,1.2065349E3,3.469618E2,1.2367756E3,1.1319402E3,1.6656608E3,-1.0747246E3,-1.5687173E2,3.355189E2,-5.248165E2,1.8599582E2,1.1147518E3,6.333626E2,1.2874539E3,1.702344E2,1.2639917E3,1.0327421E3,1.654671E3,1.0502699E3,2.0495156E3,7.601621E2,1.8239961E3,-1.1616759E3,-3.0938132E2,-3.5046802E2,3.4791376E2,2.1592365E2,1.01064575E3,-7.328962E2,-2.822113E2,7.752017E1,9.4542554E2,1.1792192E3,-1.8428429E2,3.745928E2,1.8783389E3,7.076233E2,1.3620466E3,2.9382413E2,-2.1393005E2,1.1741317E3,2.2468418E3,6.5038257E2,1.4045692E3,1.9050985E3,9.3836163E2,1.2322736E3,6.077667E2,2.6594922E3,1.6098328E3,1.3678177E3,-2.9286523E2,2.2281477E3,1.630471E3,-7.5749756E1,-5.364739E1,-6.4036546E0,-3.1828617E1,-2.4537218E1,8.611069E0,2.0918472E0,4.60702E1,4.0038953E0,3.558602E1,5.792632E1,-9.308332E1,-8.488666E1,-3.3682137E1,5.188636E0,-2.9184671E1,-5.10963E0,2.1538578E1,2.9694136E1,7.1363914E1,4.177657E1,6.901321E1,5.9338474E0,-6.505398E1,2.5147543E1,-7.405981E1,1.1104567E2,-7.904488E1,3.0017273E1,9.41357E1,7.63423E1,4.7467533E1,-6.1301727E0,3.0707594E1,-1.6014858E1,5.4039593E1,6.76054E1,3.9314888E1,9.1202354E1,1.27772705E2,-6.5519533E0,4.1588333E1,8.4285675E1,4.4694084E1,4.6793465E1,9.7778244E1,-3.042966E1,7.747115E1,3.154277E1,6.9515236E1,6.497573E1,2.1060545E1,9.1454765E1,1.4061488E2,-8.570126E1,8.431011E1,8.539752E1,-6.743832E1,5.650133E1,-1.9677866E1,9.767312E1,1.4618005E2,8.771145E1,4.1529915E1],"categories":[],"categories_nodes":[],"categories_segments":[],"categories_sizes":[],"default_left":[0,0,0,0,0,0,0,0,0,0,0,0,0,0,0,0,0,0,0,0,0,0,0,0,0,0,0,0,0,0,0,0,0,0,0,0,0,0,0,0,0,0,0,0,0,0,0,0,0,0,0,0,0,0,0,0,0,0,0,0,0,0,0,0,0,0,0,0,0,0,0,0,0,0,0,0,0,0,0,0,0,0,0,0,0,0,0,0,0,0,0,0,0,0,0,0,0,0,0,0,0,0,0,0,0,0,0,0,0,0,0,0,0,0,0,0,0,0,0,0,0,0,0,0,0,0,0],"id":0,"left_children":[1,3,5,7,9,11,13,15,17,19,21,23,25,27,29,31,33,35,37,39,41,43,45,47,49,51,53,55,57,59,61,63,65,67,69,71,73,75,77,79,81,83,85,87,89,91,93,95,97,99,101,103,105,107,109,111,113,115,117,119,121,123,125,-1,-1,-1,-1,-1,-1,-1,-1,-1,-1,-1,-1,-1,-1,-1,-1,-1,-1,-1,-1,-1,-1,-1,-1,-1,-1,-1,-1,-1,-1,-1,-1,-1,-1,-1,-1,-1,-1,-1,-1,-1,-1,-1,-1,-1,-1,-1,-1,-1,-1,-1,-1,-1,-1,-1,-1,-1,-1,-1,-1,-1,-1,-1,-1],"loss_changes":[7.250755E11,1.266886E12,1.1762087E11,1.633899E11,1.0965356E11,1.0543895E11,1.5357772E10,1.8304297E11,2.220591E10,1.27071764E11,1.09858E10,1.0800186E11,1.418856E10,1.0708009E10,1.2412928E10,8.262595E10,2.573697E10,1.021937E10,1.984766E9,4.6594666E10,1.6682009E10,9.440905E9,8.976925E9,2.6528264E10,9.507373E9,1.5898141E10,9.792012E9,1.0568942E10,3.1282504E9,8.247789E9,5.7607127E9,3.4951135E10,7.5143496E9,1.3957171E10,1.2814856E10,7.241954E9,8.092547E9,1.208917E9,2.1128244E9,3.1419312E10,1.1973976E10,1.3111869E10,3.187032E9,5.7807995E9,5.979699E9,2.9817283E9,1.250689E10,5.639062E10,1.8729695E10,6.8089774E9,1.172136E9,7.814945E9,8.138588E9,1.9768607E9,1.3371993E10,8.837251E9,4.935599E9,6.1546906E8,1.7264722E9,7.5541463E9,6.76268E8,4.5524746E9,4.9322394E9,0E0,0E0,0E0,0E0,0E0,0E0,0E0,0E0,0E0,0E0,0E0,0E0,0E0,0E0,0E0,0E0,0E0,0E0,0E0,0E0,0E0,0E0,0E0,0E0,0E0,0E0,0E0,0E0,0E0,0E0,0E0,0E0,0E0,0E0,0E0,0E0,0E0,0E0,0E0,0E0,0E0,0E0,0E0,0E0,0E0,0E0,0E0,0E0,0E0,0E0,0E0,0E0,0E0,0E0,0E0,0E0,0E0,0E0,0E0,0E0,0E0,0E0,0E0,0E0],"parents":[2147483647,0,0,1,1,2,2,3,3,4,4,5,5,6,6,7,7,8,8,9,9,10,10,11,11,12,12,13,13,14,14,15,15,16,16,17,17,18,18,19,19,20,20,21,21,22,22,23,23,24,24,25,25,26,26,27,27,28,28,29,29,30,30,31,31,32,32,33,33,34,34,35,35,36,36,37,37,38,38,39,39,40,40,41,41,42,42,43,43,44,44,45,45,46,46,47,47,48,48,49,49,50,50,51,51,52,52,53,53,54,54,55,55,56,56,57,57,58,58,59,59,60,60,61,61,62,62],"right_children":[2,4,6,8,10,12,14,16,18,20,22,24,26,28,30,32,34,36,38,40,42,44,46,48,50,52,54,56,58,60,62,64,66,68,70,72,74,76,78,80,82,84,86,88,90,92,94,96,98,100,102,104,106,108,110,112,114,116,118,120,122,124,126,-1,-1,-1,-1,-1,-1,-1,-1,-1,-1,-1,-1,-1,-1,-1,-1,-1,-1,-1,-1,-1,-1,-1,-1,-1,-1,-1,-1,-1,-1,-1,-1,-1,-1,-1,-1,-1,-1,-1,-1,-1,-1,-1,-1,-1,-1,-1,-1,-1,-1,-1,-1,-1,-1,-1,-1,-1,-1,-1,-1,-1,-1,-1,-1],"split_conditions":[1E0,1E0,1.0361455E4,2.349011E3,9.913787E3,9.273681E3,1.3556619E4,1.134293E3,3.627451E1,9.287111E3,8.1307E1,1.0361455E4,1.3684537E4,1.6655645E4,7.67141E2,2.68255E2,9.04938E2,1.1355438E4,8.1307E1,9.355232E3,3.7221016E1,8.4617E1,4.2127026E1,3.560304E1,1.6655645E4,5.692478E3,2.8608622E1,5.0493244E1,4.5245083E1,5.1467457E1,4.89402E1,2.0490566E1,3.756923E1,9.041936E3,2.97113E2,5.44356E2,1.7642398E4,8.1307E1,5.3531418E1,9.04644E2,9.711837E3,1.1551301E4,5.7395607E1,1.5098278E4,6.457466E1,7.972981E3,2.8618708E1,1.2964103E1,1E0,5.221051E1,2.4194445E1,4.90228E2,5.299527E1,8.1307E1,2.9858109E1,4.1655407E1,4.9964745E1,1.6347494E4,5.0956757E1,1.1639908E4,3.0338514E1,2.3831972E1,4.9966892E1,-7.5749756E1,-5.364739E1,-6.4036546E0,-3.1828617E1,-2.4537218E1,8.611069E0,2.0918472E0,4.60702E1,4.0038953E0,3.558602E1,5.792632E1,-9.308332E1,-8.488666E1,-3.3682137E1,5.188636E0,-2.9184671E1,-5.10963E0,2.1538578E1,2.9694136E1,7.1363914E1,4.177657E1,6.901321E1,5.9338474E0,-6.505398E1,2.5147543E1,-7.405981E1,1.1104567E2,-7.904488E1,3.0017273E1,9.41357E1,7.63423E1,4.7467533E1,-6.1301727E0,3.0707594E1,-1.6014858E1,5.4039593E1,6.76054E1,3.9314888E1,9.1202354E1,1.27772705E2,-6.5519533E0,4.1588333E1,8.4285675E1,4.4694084E1,4.6793465E1,9.7778244E1,-3.042966E1,7.747115E1,3.154277E1,6.9515236E1,6.497573E1,2.1060545E1,9.1454765E1,1.4061488E2,-8.570126E1,8.431011E1,8.539752E1,-6.743832E1,5.650133E1,-1.9677866E1,9.767312E1,1.4618005E2,8.771145E1,4.1529915E1],"split_indices":[477,242,450,295,190,75,475,85,101,300,150,375,90,405,45,385,190,355,265,150,56,355,206,276,355,475,401,381,11,81,26,191,171,20,10,205,355,320,166,335,105,285,431,230,271,105,476,281,362,451,126,160,101,30,401,446,1,400,421,400,191,236,396,0,0,0,0,0,0,0,0,0,0,0,0,0,0,0,0,0,0,0,0,0,0,0,0,0,0,0,0,0,0,0,0,0,0,0,0,0,0,0,0,0,0,0,0,0,0,0,0,0,0,0,0,0,0,0,0,0,0,0,0,0,0,0,0],"split_type":[0,0,0,0,0,0,0,0,0,0,0,0,0,0,0,0,0,0,0,0,0,0,0,0,0,0,0,0,0,0,0,0,0,0,0,0,0,0,0,0,0,0,0,0,0,0,0,0,0,0,0,0,0,0,0,0,0,0,0,0,0,0,0,0,0,0,0,0,0,0,0,0,0,0,0,0,0,0,0,0,0,0,0,0,0,0,0,0,0,0,0,0,0,0,0,0,0,0,0,0,0,0,0,0,0,0,0,0,0,0,0,0,0,0,0,0,0,0,0,0,0,0,0,0,0,0,0],"sum_hessian":[3.73489E6,2.672546E6,1.062344E6,1.670862E6,1.001684E6,8.32839E5,2.29505E5,1.504972E6,1.6589E5,7.64804E5,2.3688E5,6.66414E5,1.66425E5,1.42918E5,8.6587E4,1.241612E6,2.6336E5,1.2657E5,3.932E4,5.65609E5,1.99195E5,2.9306E4,2.07574E5,5.58737E5,1.07677E5,1.11829E5,5.4596E4,1.31239E5,1.1679E4,1.2888E4,7.3699E4,1.114942E6,1.2667E5,1.90355E5,7.3005E4,1.07524E5,1.9046E4,2.1165E4,1.8155E4,4.94917E5,7.0692E4,1.89777E5,9.418E3,2.4264E4,5.042E3,2.3661E4,1.83913E5,4.22738E5,1.35999E5,9.8659E4,9.018E3,5.5135E4,5.6694E4,4.0452E4,1.4144E4,9.299E4,3.8249E4,4.89E3,6.789E3,8.172E3,4.716E3,2.386E4,4.9839E4,2.23789E5,8.91153E5,8.1506E4,4.5164E4,1.50078E5,4.0277E4,4.7601E4,2.5404E4,8.44E4,2.3124E4,1.8114E4,9.32E2,1.223E3,1.9942E4,7.962E3,1.0193E4,3.28034E5,1.66883E5,4.0874E4,2.9818E4,7.0043E4,1.19734E5,7.409E3,2.009E3,2.2695E4,1.569E3,4.588E3,4.54E2,2.1683E4,1.978E3,1.31428E5,5.2485E4,1.83799E5,2.38939E5,1.25675E5,1.0324E4,6.7624E4,3.1035E4,3.808E3,5.21E3,1.0387E4,4.4748E4,3.6563E4,2.0131E4,2.003E3,3.8449E4,4.005E3,1.0139E4,1.9351E4,7.3639E4,8.123E3,3.0126E4,7.62E2,4.128E3,1.52E2,6.637E3,7.263E3,9.09E2,3.11E2,4.405E3,1.7107E4,6.753E3,4.316E4,6.679E3],"tree_param":{"num_deleted":"0","num_feature":"480","num_nodes":"127","size_leaf_vector":"1"}},{"base_weights":[-2.2402245E-1,-2.6281927E2,6.669675E2,-7.678176E2,5.8099915E2,4.952695E2,1.2460188E3,-8.85055E2,3.2545753E1,4.0714154E2,1.1438938E3,3.0339432E2,1.1717095E3,1.0430186E3,1.5628749E3,-1.038926E3,-5.6584534E1,-7.396303E1,9.82529E2,1.8824734E2,1.0892454E3,6.024956E2,1.2199708E3,1.6437662E2,1.1221772E3,9.622449E2,1.5737455E3,6.831305E2,1.3629252E3,1.7515454E3,1.1155481E3,-1.1043619E3,-3.808815E2,1.6431854E2,-5.202021E2,-1.5654219E2,1.2545757E3,1.1338617E3,-1.8362294E3,8.865493E1,9.235874E2,1.1598462E3,-1.7948483E1,2.9678555E2,1.615475E3,1.1821566E3,2.3063276E3,7.379275E1,8.0502826E2,1.262732E3,3.4302685E1,8.1297E2,1.7024691E3,1.837982E3,8.475058E2,8.3479407E2,2.8304764E2,1.6744965E3,9.813668E2,1.6632622E3,2.82029E3,4.3874097E2,1.5799539E3,-5.7840664E1,-2.4135145E1,-3.0062626E1,3.9006035E0,-1.0282074E1,1.9004835E1,-2.9136215E1,3.9462296E1,2.783548E0,-2.479043E1,3.8779522E1,9.567924E1,6.319189E1,-8.185188E1,-8.83442E1,-9.432995E1,-7.5361757E0,1.7429176E1,5.8366505E1,-3.4753393E-2,4.839351E1,7.32321E1,-5.08398E1,1.7821857E1,4.307768E1,-7.920514E0,8.893599E1,-9.359356E1,4.8227215E1,6.855217E1,-9.636632E1,1.2004006E2,7.7891655E0,-2.2465813E1,5.6545513E1,-2.5755466E1,2.7551474E1,7.0595634E1,-1.5167656E1,6.3181427E1,3.094428E1,5.7490387E1,9.936272E1,5.3003418E1,8.3243324E1,1.0630381E2,-2.5517876E1,6.64826E1,2.0147963E1,5.8404842E1,8.252338E1,7.5390863E0,8.5661736E1,-9.266805E1,3.836492E1,1.165864E2,8.400276E1,-8.100728E1,1.2902171E2,1.4856761E2,-2.3146093E1,4.639486E1,1.0913134E2,5.518935E1],"categories":[],"categories_nodes":[],"categories_segments":[],"categories_sizes":[],"default_left":[0,0,0,0,0,0,0,0,0,0,0,0,0,0,0,0,0,0,0,0,0,0,0,0,0,0,0,0,0,0,0,0,0,0,0,0,0,0,0,0,0,0,0,0,0,0,0,0,0,0,0,0,0,0,0,0,0,0,0,0,0,0,0,0,0,0,0,0,0,0,0,0,0,0,0,0,0,0,0,0,0,0,0,0,0,0,0,0,0,0,0,0,0,0,0,0,0,0,0,0,0,0,0,0,0,0,0,0,0,0,0,0,0,0,0,0,0,0,0,0,0,0,0,0,0,0,0],"id":1,"left_children":[1,3,5,7,9,11,13,15,17,19,21,23,25,27,29,31,33,35,37,39,41,43,45,47,49,51,53,55,57,59,61,63,65,67,69,71,73,75,77,79,81,83,85,87,89,91,93,95,97,99,101,103,105,107,109,111,113,115,117,119,121,123,125,-1,-1,-1,-1,-1,-1,-1,-1,-1,-1,-1,-1,-1,-1,-1,-1,-1,-1,-1,-1,-1,-1,-1,-1,-1,-1,-1,-1,-1,-1,-1,-1,-1,-1,-1,-1,-1,-1,-1,-1,-1,-1,-1,-1,-1,-1,-1,-1,-1,-1,-1,-1,-1,-1,-1,-1,-1,-1,-1,-1,-1,-1,-1,-1],"loss_changes":[6.545052E11,1.1423048E12,1.0489597E11,1.5735921E11,9.821975E10,1.0562067E11,1.5518892E10,1.864688E11,2.1679841E10,1.1449079E11,9.754182E9,7.215937E10,1.5141716E10,1.6931799E10,7.950123E9,5.311968E10,2.3465613E10,2.113751E10,9.216424E9,4.2513596E10,1.4562345E10,9.036544E9,8.527741E9,3.1450071E10,1.4069285E10,1.3062439E10,1.1818451E10,4.1995346E9,9.254683E9,6.2479565E9,8.785613E9,3.658626E10,1.128368E10,1.2388226E10,6.05398E9,1.305967E10,3.5575316E9,7.385518E9,5.12256E5,3.1812067E10,1.5600009E10,1.0245816E10,4.176682E9,5.763357E9,3.8545818E9,8.247214E9,2.7980063E9,2.0364456E10,2.8882235E10,8.650654E9,4.3708554E9,6.4314696E9,3.6275528E9,2.2488515E9,1.0759834E10,7.223173E9,3.4410327E9,5.8605486E9,1.0116225E10,3.3779876E9,1.7548902E8,5.0183004E9,4.75503E9,0E0,0E0,0E0,0E0,0E0,0E0,0E0,0E0,0E0,0E0,0E0,0E0,0E0,0E0,0E0,0E0,0E0,0E0,0E0,0E0,0E0,0E0,0E0,0E0,0E0,0E0,0E0,0E0,0E0,0E0,0E0,0E0,0E0,0E0,0E0,0E0,0E0,0E0,0E0,0E0,0E0,0E0,0E0,0E0,0E0,0E0,0E0,0E0,0E0,0E0,0E0,0E0,0E0,0E0,0E0,0E0,0E0,0E0,0E0,0E0,0E0,0E0,0E0,0E0],"parents":[2147483647,0,0,1,1,2,2,3,3,4,4,5,5,6,6,7,7,8,8,9,9,10,10,11,11,12,12,13,13,14,14,15,15,16,16,17,17,18,18,19,19,20,20,21,21,22,22,23,23,24,24,25,25,26,26,27,27,28,28,29,29,30,30,31,31,32,32,33,33,34,34,35,35,36,36,37,37,38,38,39,39,40,40,41,41,42,42,43,43,44,44,45,45,46,46,47,47,48,48,49,49,50,50,51,51,52,52,53,53,54,54,55,55,56,56,57,57,58,58,59,59,60,60,61,61,62,62],"right_children":[2,4,6,8,10,12,14,16,18,20,22,24,26,28,30,32,34,36,38,40,42,44,46,48,50,52,54,56,58,60,62,64,66,68,70,72,74,76,78,80,82,84,86,88,90,92,94,96,98,100,102,104,106,108,110,112,114,116,118,120,122,124,126,-1,-1,-1,-1,-1,-1,-1,-1,-1,-1,-1,-1,-1,-1,-1,-1,-1,-1,-1,-1,-1,-1,-1,-1,-1,-1,-1,-1,-1,-1,-1,-1,-1,-1,-1,-1,-1,-1,-1,-1,-1,-1,-1,-1,-1,-1,-1,-1,-1,-1,-1,-1,-1,-1,-1,-1,-1,-1,-1,-1,-1,-1,-1,-1],"split_conditions":[1.34079E2,1E0,9.932147E3,1E0,9.913787E3,9.039168E3,1.2576707E4,9.04938E2,8.789846E3,9.871528E3,8.1307E1,9.239575E3,1.3684537E4,1.0104464E4,5.6721577E1,2.66588E2,3.3814518E1,1.1959228E4,1.7090844E4,9.273681E3,3.627288E1,3.1313208E1,1.6836975E4,1.0361455E4,4.743885E1,1.4298278E4,2.8603704E1,5.0493244E1,5.221051E1,6.0540676E1,1.4403727E4,2.009794E3,8.660254E-1,1.212449E1,8.1307E1,3.4288395E1,1.1324695E4,6.457466E1,2.806426E1,2.94996E2,4.235085E1,1.3688627E4,8.1307E1,2.9435593E1,9.87361E2,1.2643259E4,9.238795E-1,5.049322E1,4.4766556E1,4.1908447E1,6.624764E3,5.623001E3,5.123627E1,1.5855984E4,2.9857693E1,4.4458645E1,3.8777702E1,1.6655645E4,1.6655645E4,1.7090844E4,5.806729E3,2.655E1,5.1474323E1,-5.7840664E1,-2.4135145E1,-3.0062626E1,3.9006035E0,-1.0282074E1,1.9004835E1,-2.9136215E1,3.9462296E1,2.783548E0,-2.479043E1,3.8779522E1,9.567924E1,6.319189E1,-8.185188E1,-8.83442E1,-9.432995E1,-7.5361757E0,1.7429176E1,5.8366505E1,-3.4753393E-2,4.839351E1,7.32321E1,-5.08398E1,1.7821857E1,4.307768E1,-7.920514E0,8.893599E1,-9.359356E1,4.8227215E1,6.855217E1,-9.636632E1,1.2004006E2,7.7891655E0,-2.2465813E1,5.6545513E1,-2.5755466E1,2.7551474E1,7.0595634E1,-1.5167656E1,6.3181427E1,3.094428E1,5.7490387E1,9.936272E1,5.3003418E1,8.3243324E1,1.0630381E2,-2.5517876E1,6.64826E1,2.0147963E1,5.8404842E1,8.252338E1,7.5390863E0,8.5661736E1,-9.266805E1,3.836492E1,1.165864E2,8.400276E1,-8.100728E1,1.2902171E2,1.4856761E2,-2.3146093E1,4.639486E1,1.0913134E2,5.518935E1],"split_indices":[475,242,440,422,190,75,475,165,310,300,150,365,50,390,6,330,441,0,360,135,61,461,130,470,46,95,386,381,471,466,0,85,9,401,70,201,35,376,46,310,316,285,325,386,5,195,3,341,181,366,405,470,56,65,386,461,36,440,390,390,5,301,426,0,0,0,0,0,0,0,0,0,0,0,0,0,0,0,0,0,0,0,0,0,0,0,0,0,0,0,0,0,0,0,0,0,0,0,0,0,0,0,0,0,0,0,0,0,0,0,0,0,0,0,0,0,0,0,0,0,0,0,0,0,0,0,0],"split_type":[0,0,0,0,0,0,0,0,0,0,0,0,0,0,0,0,0,0,0,0,0,0,0,0,0,0,0,0,0,0,0,0,0,0,0,0,0,0,0,0,0,0,0,0,0,0,0,0,0,0,0,0,0,0,0,0,0,0,0,0,0,0,0,0,0,0,0,0,0,0,0,0,0,0,0,0,0,0,0,0,0,0,0,0,0,0,0,0,0,0,0,0,0,0,0,0,0,0,0,0,0,0,0,0,0,0,0,0,0,0,0,0,0,0,0,0,0,0,0,0,0,0,0,0,0,0,0],"sum_hessian":[3.73573E6,2.680666E6,1.055064E6,1.677022E6,1.003644E6,8.1377E5,2.41294E5,1.462757E6,2.14265E5,7.66807E5,2.36837E5,6.33949E5,1.79821E5,1.47073E5,9.4221E4,1.233635E6,2.29122E5,1.92665E5,2.16E4,5.80515E5,1.86292E5,2.9181E4,2.07656E5,5.41937E5,9.2012E4,1.18227E5,6.1594E4,6.9213E4,7.786E4,6.6268E4,2.7953E4,1.122057E6,1.11578E5,1.55182E5,7.394E4,1.81391E5,1.1274E4,2.05E4,1.1E3,5.11271E5,6.9244E4,1.75125E5,1.1167E4,2.2417E4,6.764E3,2.00673E5,6.983E3,4.74804E5,6.7133E4,8.1484E4,1.0528E4,9.8388E4,1.9839E4,4.5161E4,1.6433E4,5.0187E4,1.9026E4,4.2859E4,3.5001E4,6.1214E4,5.054E3,1.1376E4,1.6577E4,1.034751E6,8.7306E4,7.5379E4,3.6199E4,5.7167E4,9.8015E4,7.0571E4,3.369E3,1.11591E5,6.98E4,6.53E3,4.744E3,1.9582E4,9.18E2,4.78E2,6.22E2,2.66157E5,2.45114E5,5.4794E4,1.445E4,1.07451E5,6.7674E4,3.044E3,8.123E3,1.0004E4,1.2413E4,6.462E3,3.02E2,9.3249E4,1.07424E5,1.52E2,6.831E3,4.10469E5,6.4335E4,5.3842E4,1.3291E4,1.4121E4,6.7363E4,8.26E3,2.268E3,6.2423E4,3.5965E4,1.3744E4,6.095E3,2.8214E4,1.6947E4,4.306E3,1.2127E4,2.1863E4,2.8324E4,1.677E3,1.7349E4,4.2394E4,4.65E2,3.0213E4,4.788E3,6.0903E4,3.11E2,1.96E3,3.094E3,4.001E3,7.375E3,7.315E3,9.262E3],"tree_param":{"num_deleted":"0","num_feature":"480","num_nodes":"127","size_leaf_vector":"1"}},{"base_weights":[-1.3926666E0,-2.5139989E2,6.34453E2,-7.292716E2,5.497372E2,4.8470706E2,1.2243702E3,-8.465178E2,-1.5311328E1,3.7881335E2,1.0706313E3,3.3613855E2,1.1753177E3,1.0334304E3,1.4840549E3,-9.885761E2,-1.1241744E1,2.1367831E2,-5.024783E2,1.7647182E2,1.0515222E3,1.0288281E3,2.0296351E3,1.6505801E2,1.167866E3,9.376314E2,1.4967455E3,8.099699E2,1.3284802E3,5.603984E2,1.6309213E3,-1.0445953E3,-4.1307257E2,-1.1097089E2,8.3794305E2,6.1335155E1,7.816534E2,-6.4093787E2,-1.4457206E1,7.552874E1,8.876817E2,1.1062836E3,-8.505903E1,7.8018555E2,1.2562394E3,-8.7031824E2,2.1172927E3,2.7359058E2,-2.4140942E2,1.0770756E3,2.0988494E3,7.0702124E2,1.2049452E3,1.7351202E3,9.2753925E2,9.686866E2,3.0042395E2,1.3886857E3,-9.605693E2,1.211713E3,-4.3145093E2,1.6722345E3,-6.170799E1,-5.509419E1,-2.29181E1,-2.7603683E0,-3.1728968E1,-9.717085E0,5.8437237E1,4.855624E1,-8.711363E1,-5.0415254E0,4.0456745E1,4.7444317E1,-7.589153E1,-3.521316E1,2.8935123E1,-6.9555984E0,9.22416E1,-4.891063E0,2.0153982E1,2.6181385E1,6.793246E1,4.533998E1,6.9662476E1,-6.0054577E1,1.2470138E1,1.9909967E1,5.2636444E1,5.8590603E1,1.0621702E2,9.513394E0,-9.874447E1,1.24051025E2,8.705624E1,-5.2959566E0,2.7437506E1,-1.5379448E1,8.555867E1,5.54492E1,-4.388965E1,1.19043816E2,8.335201E1,9.47932E0,4.224575E1,7.471678E1,3.936077E1,8.967818E1,5.265991E1,-2.339361E1,6.5118286E1,2.4405163E1,5.8731518E1,6.0256714E1,5.9730096E0,9.142159E1,5.8411133E1,-8.2498215E1,2.0864975E1,7.482053E1,-6.3384235E1,-8.809813E1,-1.6970915E1,1.00497574E2,7.5187584E1,3.601106E1,-1.12020645E1],"categories":[],"categories_nodes":[],"categories_segments":[],"categories_sizes":[],"default_left":[0,0,0,0,0,0,0,0,0,0,0,0,0,0,0,0,0,0,0,0,0,0,0,0,0,0,0,0,0,0,0,0,0,0,0,0,0,0,0,0,0,0,0,0,0,0,0,0,0,0,0,0,0,0,0,0,0,0,0,0,0,0,0,0,0,0,0,0,0,0,0,0,0,0,0,0,0,0,0,0,0,0,0,0,0,0,0,0,0,0,0,0,0,0,0,0,0,0,0,0,0,0,0,0,0,0,0,0,0,0,0,0,0,0,0,0,0,0,0,0,0,0,0,0,0,0,0],"id":2,"left_children":[1,3,5,7,9,11,13,15,17,19,21,23,25,27,29,31,33,35,37,39,41,43,45,47,49,51,53,55,57,59,61,63,65,67,69,71,73,75,77,79,81,83,85,87,89,91,93,95,97,99,101,103,105,107,109,111,113,115,117,119,121,123,125,-1,-1,-1,-1,-1,-1,-1,-1,-1,-1,-1,-1,-1,-1,-1,-1,-1,-1,-1,-1,-1,-1,-1,-1,-1,-1,-1,-1,-1,-1,-1,-1,-1,-1,-1,-1,-1,-1,-1,-1,-1,-1,-1,-1,-1,-1,-1,-1,-1,-1,-1,-1,-1,-1,-1,-1,-1,-1,-1,-1,-1,-1,-1,-1],"loss_changes":[5.938065E11,1.02647693E12,9.312692E10,1.4058435E11,8.919056E10,8.626758E10,1.0581115E10,1.7116942E11,2.642721E10,1.02668894E11,9.920152E9,9.845774E10,1.1370889E10,8.1083515E9,1.2266553E10,3.9746142E10,1.7757487E10,1.394371E10,5.1183063E9,4.1629004E10,1.0855678E10,1.340937E10,2.6295378E9,2.5317458E10,9.975497E9,5.2745585E9,8.584233E9,5.660205E9,7.306273E9,8.016164E9,5.4562324E9,3.7731697E10,8.669123E9,2.0020034E10,7.574433E9,1.5409292E10,1.3107657E10,4.557687E9,3.8805373E9,2.883278E10,1.2356411E10,9.524068E9,2.9931802E9,1.1794686E10,9.076113E9,3.5650963E8,1.3685596E9,4.7299903E10,1.5629165E10,6.7101737E9,1.2732785E9,3.2780616E9,4.78994E9,1.7755423E9,9.770947E9,5.2814234E9,2.7216975E9,5.005017E9,1.2915968E9,5.288928E9,6.017358E8,4.3307663E9,2.36257E8,0E0,0E0,0E0,0E0,0E0,0E0,0E0,0E0,0E0,0E0,0E0,0E0,0E0,0E0,0E0,0E0,0E0,0E0,0E0,0E0,0E0,0E0,0E0,0E0,0E0,0E0,0E0,0E0,0E0,0E0,0E0,0E0,0E0,0E0,0E0,0E0,0E0,0E0,0E0,0E0,0E0,0E0,0E0,0E0,0E0,0E0,0E0,0E0,0E0,0E0,0E0,0E0,0E0,0E0,0E0,0E0,0E0,0E0,0E0,0E0,0E0,0E0,0E0,0E0],"parents":[2147483647,0,0,1,1,2,2,3,3,4,4,5,5,6,6,7,7,8,8,9,9,10,10,11,11,12,12,13,13,14,14,15,15,16,16,17,17,18,18,19,19,20,20,21,21,22,22,23,23,24,24,25,25,26,26,27,27,28,28,29,29,30,30,31,31,32,32,33,33,34,34,35,35,36,36,37,37,38,38,39,39,40,40,41,41,42,42,43,43,44,44,45,45,46,46,47,47,48,48,49,49,50,50,51,51,52,52,53,53,54,54,55,55,56,56,57,57,58,58,59,59,60,60,61,61,62,62],"right_children":[2,4,6,8,10,12,14,16,18,20,22,24,26,28,30,32,34,36,38,40,42,44,46,48,50,52,54,56,58,60,62,64,66,68,70,72,74,76,78,80,82,84,86,88,90,92,94,96,98,100,102,104,106,108,110,112,114,116,118,120,122,124,126,-1,-1,-1,-1,-1,-1,-1,-1,-1,-1,-1,-1,-1,-1,-1,-1,-1,-1,-1,-1,-1,-1,-1,-1,-1,-1,-1,-1,-1,-1,-1,-1,-1,-1,-1,-1,-1,-1,-1,-1,-1,-1,-1,-1,-1,-1,-1,-1,-1,-1,-1,-1,-1,-1,-1,-1,-1,-1,-1,-1,-1,-1,-1,-1],"split_conditions":[1.34079E2,1E0,1.0788743E4,8.66124E2,9.715536E3,9.039168E3,1.3556619E4,1E0,3.3701023E1,9.871528E3,1.6655645E4,1.0439348E4,1.3684537E4,1.183271E4,1E0,2.66588E2,8.141077E3,1.1256941E4,5.234141E3,9.355232E3,3.7751186E1,1.32718E2,8.1307E1,3.600714E1,1.6655645E4,-9.659257E-1,2.8608622E1,4.97034E1,6.457466E1,5.2202034E1,3.6148647E1,1.348161E3,3.3782032E1,1.1603896E4,1.7090844E4,7.2706E2,6.1975E1,8.1307E1,1.4638867E4,7.67141E2,9.711837E3,1.3691529E4,8.1307E1,1.0409793E4,1.6655645E4,2.1582094E1,2.6720755E1,1.3254717E1,6.710714E3,6.457466E1,4.2116318E1,2.353227E3,5.1467457E1,3.45E1,2.9861486E1,4.420912E1,2.4436363E1,4.6648647E1,8.1307E1,8.743669E3,5.3290203E1,4.89402E1,6.0127117E1,-5.509419E1,-2.29181E1,-2.7603683E0,-3.1728968E1,-9.717085E0,5.8437237E1,4.855624E1,-8.711363E1,-5.0415254E0,4.0456745E1,4.7444317E1,-7.589153E1,-3.521316E1,2.8935123E1,-6.9555984E0,9.22416E1,-4.891063E0,2.0153982E1,2.6181385E1,6.793246E1,4.533998E1,6.9662476E1,-6.0054577E1,1.2470138E1,1.9909967E1,5.2636444E1,5.8590603E1,1.0621702E2,9.513394E0,-9.874447E1,1.24051025E2,8.705624E1,-5.2959566E0,2.7437506E1,-1.5379448E1,8.555867E1,5.54492E1,-4.388965E1,1.19043816E2,8.335201E1,9.47932E0,4.224575E1,7.471678E1,3.936077E1,8.967818E1,5.265991E1,-2.339361E1,6.5118286E1,2.4405163E1,5.8731518E1,6.0256714E1,5.9730096E0,9.142159E1,5.8411133E1,-8.2498215E1,2.0864975E1,7.482053E1,-6.3384235E1,-8.809813E1,-1.6970915E1,1.00497574E2,7.5187584E1,3.601106E1,-1.12020645E1],"split_indices":[475,247,455,175,195,90,475,417,446,310,135,380,70,410,57,330,310,105,300,155,51,310,250,261,360,178,401,391,441,71,306,80,106,0,355,295,116,75,230,345,110,295,330,145,195,1,416,276,350,416,1,475,111,436,411,476,231,1,0,380,41,26,11,0,0,0,0,0,0,0,0,0,0,0,0,0,0,0,0,0,0,0,0,0,0,0,0,0,0,0,0,0,0,0,0,0,0,0,0,0,0,0,0,0,0,0,0,0,0,0,0,0,0,0,0,0,0,0,0,0,0,0,0,0,0,0,0],"split_type":[0,0,0,0,0,0,0,0,0,0,0,0,0,0,0,0,0,0,0,0,0,0,0,0,0,0,0,0,0,0,0,0,0,0,0,0,0,0,0,0,0,0,0,0,0,0,0,0,0,0,0,0,0,0,0,0,0,0,0,0,0,0,0,0,0,0,0,0,0,0,0,0,0,0,0,0,0,0,0,0,0,0,0,0,0,0,0,0,0,0,0,0,0,0,0,0,0,0,0,0,0,0,0,0,0,0,0,0,0,0,0,0,0,0,0,0,0,0,0,0,0,0,0,0,0,0,0],"sum_hessian":[3.735429E6,2.681209E6,1.05422E6,1.679438E6,1.001771E6,8.40793E5,2.13427E5,1.442544E6,2.36894E5,7.5427E5,2.47501E5,6.9194E5,1.48853E5,1.22996E5,9.0431E4,1.232866E6,2.09678E5,1.61148E5,7.5746E4,5.79858E5,1.74412E5,2.37165E5,1.0336E4,5.73895E5,1.18045E5,8.5576E4,6.3277E4,6.9991E4,5.3005E4,1.2407E4,7.8024E4,1.123504E6,1.09362E5,1.87642E5,2.2036E4,1.27067E5,3.4081E4,5.9005E4,1.6741E4,5.07788E5,7.207E4,1.66395E5,8.017E3,1.13296E5,1.23869E5,3.03E2,1.0033E4,4.52951E5,1.20944E5,1.07558E5,1.0487E4,4.5944E4,3.9632E4,4.4598E4,1.8679E4,5.3367E4,1.6624E4,5.1647E4,1.358E3,7.489E3,4.918E3,7.6165E4,1.859E3,1.023485E6,1.00019E5,4.1812E4,6.755E4,1.76166E5,1.1476E4,2.0955E4,1.081E3,1.04423E5,2.2644E4,3.1771E4,2.31E3,5.6093E4,2.912E3,1.569E4,1.051E3,3.32055E5,1.75733E5,4.065E4,3.142E4,9.8162E4,6.8233E4,1.848E3,6.169E3,4.7177E4,6.6119E4,1.12892E5,1.0977E4,1.55E2,1.48E2,5.098E3,4.935E3,1.90377E5,2.62574E5,1.1698E5,3.964E3,1.05831E5,1.727E3,6.341E3,4.146E3,9.668E3,3.6276E4,2.3411E4,1.6221E4,4.1076E4,3.522E3,3.955E3,1.4724E4,1.601E4,3.7357E4,2.77E3,1.3854E4,1.7244E4,3.4403E4,9.05E2,4.53E2,6.718E3,7.71E2,3.17E2,4.601E3,2.5347E4,5.0818E4,3.19E2,1.54E3],"tree_param":{"num_deleted":"0","num_feature":"480","num_nodes":"127","size_leaf_vector":"1"}},{"base_weights":[2.1998101E-1,-2.3726959E2,6.0405E2,-6.9310626E2,5.236032E2,4.5585608E2,1.1483619E3,-7.989669E2,3.2764084E1,3.7218723E2,1.0684032E3,2.892499E2,1.0805068E3,9.904399E2,1.4295996E3,-9.3965063E2,-6.1679607E1,2.514543E2,-3.6126105E2,1.7019914E2,9.570352E2,9.241648E2,1.3566873E3,1.7791417E2,1.01248315E3,8.711007E2,1.4189531E3,9.2891187E2,2.152403E3,1.6491606E3,8.679116E2,-9.9929126E2,-3.3417487E2,-1.8413757E2,6.3892523E2,-1.7577222E2,5.856698E2,-4.6360568E2,8.367449E2,6.647315E1,8.625426E2,1.02306946E3,1.3263301E1,5.54368E2,1.1756476E3,1.4046682E3,-8.6520374E2,5.8877556E1,7.816069E2,6.8165564E2,1.3635447E3,7.5969604E2,1.5471459E3,1.6745219E3,8.053569E2,1.0584558E3,4.2392932E2,-9.412714E1,2.242901E3,1.5540981E3,2.555183E3,2.3951033E2,1.5092036E3,-6.6809074E1,-4.5771954E1,-2.827695E1,4.7955203E0,-1.4448214E1,2.8179533E1,4.2468838E1,-4.542925E1,-2.7474173E1,3.5875695E0,3.175305E1,-5.5395138E1,-2.529631E1,7.117112E1,2.877374E1,1.02169304E2,8.456885E0,-2.3344015E1,5.330525E1,1.1130241E0,3.440586E1,6.0202126E1,1.2569988E2,-5.3737593E0,3.0093906E1,-9.9259705E1,8.320217E1,4.8153385E1,6.409616E1,1.0611173E2,-8.178446E1,1.2278342E1,6.6143403E0,-1.959766E1,5.238573E1,-2.1707857E1,1.821155E1,4.637707E1,8.201043E1,4.749025E1,2.7841776E1,5.2343353E1,9.582492E1,5.6856808E1,7.6435844E1,9.6365654E1,4.9815345E0,7.306246E1,4.3838432E1,7.605303E1,-2.4697328E0,4.590344E1,7.8750694E1,1.23858086E2,7.895033E1,-6.0287823E1,1.1600872E2,1.4108838E2,-3.137609E1,2.9828772E1,1.2005194E2,6.3012005E1],"categories":[],"categories_nodes":[],"categories_segments":[],"categories_sizes":[],"default_left":[0,0,0,0,0,0,0,0,0,0,0,0,0,0,0,0,0,0,0,0,0,0,0,0,0,0,0,0,0,0,0,0,0,0,0,0,0,0,0,0,0,0,0,0,0,0,0,0,0,0,0,0,0,0,0,0,0,0,0,0,0,0,0,0,0,0,0,0,0,0,0,0,0,0,0,0,0,0,0,0,0,0,0,0,0,0,0,0,0,0,0,0,0,0,0,0,0,0,0,0,0,0,0,0,0,0,0,0,0,0,0,0,0,0,0,0,0,0,0,0,0,0,0,0,0],"id":3,"left_children":[1,3,5,7,9,11,13,15,17,19,21,23,25,27,29,31,33,35,37,39,41,43,45,47,49,51,53,55,57,59,61,63,65,67,69,71,73,75,77,79,81,83,85,87,89,91,93,95,97,99,101,103,105,107,109,111,113,-1,115,117,119,121,123,-1,-1,-1,-1,-1,-1,-1,-1,-1,-1,-1,-1,-1,-1,-1,-1,-1,-1,-1,-1,-1,-1,-1,-1,-1,-1,-1,-1,-1,-1,-1,-1,-1,-1,-1,-1,-1,-1,-1,-1,-1,-1,-1,-1,-1,-1,-1,-1,-1,-1,-1,-1,-1,-1,-1,-1,-1,-1,-1,-1,-1,-1],"loss_changes":[5.3586742E11,9.301935E11,8.508585E10,1.2887569E11,8.2886E10,8.628468E10,1.0023993E10,1.5182155E11,1.8394425E10,9.288301E10,9.08537E9,5.270345E10,1.2371313E10,1.0333078E10,1.0008838E10,4.438609E10,2.012248E10,1.96013E10,9.342125E9,4.196978E10,1.257898E10,1.3544808E10,7.769989E9,4.0760607E10,1.014014E10,8.121426E9,1.0462355E10,8.980849E9,2.658521E9,5.0222367E9,9.193421E9,3.160775E10,1.0967638E10,1.564879E10,1.1365556E10,5.573769E9,6.443483E9,5.6064973E9,1.8894344E9,2.7831489E10,1.3025247E10,1.1434164E10,3.9858104E9,7.11501E9,8.999338E9,6.2800364E9,1.3192396E9,1.5680203E10,3.0224736E10,3.508484E9,4.8474767E9,5.3934817E9,2.308313E9,1.7332552E9,9.082491E9,9.182069E9,6.556161E9,0E0,1.108525E9,3.632808E9,3.4053325E8,3.5680538E9,2.5039667E9,0E0,0E0,0E0,0E0,0E0,0E0,0E0,0E0,0E0,0E0,0E0,0E0,0E0,0E0,0E0,0E0,0E0,0E0,0E0,0E0,0E0,0E0,0E0,0E0,0E0,0E0,0E0,0E0,0E0,0E0,0E0,0E0,0E0,0E0,0E0,0E0,0E0,0E0,0E0,0E0,0E0,0E0,0E0,0E0,0E0,0E0,0E0,0E0,0E0,0E0,0E0,0E0,0E0,0E0,0E0,0E0,0E0,0E0,0E0,0E0,0E0,0E0],"parents":[2147483647,0,0,1,1,2,2,3,3,4,4,5,5,6,6,7,7,8,8,9,9,10,10,11,11,12,12,13,13,14,14,15,15,16,16,17,17,18,18,19,19,20,20,21,21,22,22,23,23,24,24,25,25,26,26,27,27,28,28,29,29,30,30,31,31,32,32,33,33,34,34,35,35,36,36,37,37,38,38,39,39,40,40,41,41,42,42,43,43,44,44,45,45,46,46,47,47,48,48,49,49,50,50,51,51,52,52,53,53,54,54,55,55,56,56,58,58,59,59,60,60,61,61,62,62],"right_children":[2,4,6,8,10,12,14,16,18,20,22,24,26,28,30,32,34,36,38,40,42,44,46,48,50,52,54,56,58,60,62,64,66,68,70,72,74,76,78,80,82,84,86,88,90,92,94,96,98,100,102,104,106,108,110,112,114,-1,116,118,120,122,124,-1,-1,-1,-1,-1,-1,-1,-1,-1,-1,-1,-1,-1,-1,-1,-1,-1,-1,-1,-1,-1,-1,-1,-1,-1,-1,-1,-1,-1,-1,-1,-1,-1,-1,-1,-1,-1,-1,-1,-1,-1,-1,-1,-1,-1,-1,-1,-1,-1,-1,-1,-1,-1,-1,-1,-1,-1,-1,-1,-1,-1,-1],"split_conditions":[1.34079E2,1E0,1.0266528E4,1.34079E2,1.0418953E4,9.039168E3,1.3556619E4,9.04937E2,3.4055103E1,9.287111E3,1.32718E2,1.0439348E4,1.3684537E4,1.6836975E4,5.6721577E1,2.66588E2,1.0418149E4,1.501E1,4.746836E3,9.273681E3,3.5998306E1,9.912111E3,6.457466E1,1.0361455E4,1.0189087E4,1.4403727E4,2.8607407E1,5.8495934E1,5.3291553E1,6.0540676E1,1.4938742E4,2.0471428E1,8.314696E-1,8.63066E2,6.1975E1,1.647473E3,6.1434578E1,1.3044326E4,6.385661E1,3.599356E1,4.2133106E1,1.1551601E4,5.4342907E1,1.345633E4,2.2292177E1,1.6655645E4,2.8049057E1,5.1718304E1,4.524662E1,7.921934E3,5.2997635E1,5.623001E3,2.5536842E1,1.5855984E4,3.0181818E1,1.3694405E4,2.7049057E1,-9.412714E1,5.5043583E1,3.776041E1,4.298537E3,2.6322866E1,5.3291553E1,-6.6809074E1,-4.5771954E1,-2.827695E1,4.7955203E0,-1.4448214E1,2.8179533E1,4.2468838E1,-4.542925E1,-2.7474173E1,3.5875695E0,3.175305E1,-5.5395138E1,-2.529631E1,7.117112E1,2.877374E1,1.02169304E2,8.456885E0,-2.3344015E1,5.330525E1,1.1130241E0,3.440586E1,6.0202126E1,1.2569988E2,-5.3737593E0,3.0093906E1,-9.9259705E1,8.320217E1,4.8153385E1,6.409616E1,1.0611173E2,-8.178446E1,1.2278342E1,6.6143403E0,-1.959766E1,5.238573E1,-2.1707857E1,1.821155E1,4.637707E1,8.201043E1,4.749025E1,2.7841776E1,5.2343353E1,9.582492E1,5.6856808E1,7.6435844E1,9.6365654E1,4.9815345E0,7.306246E1,4.3838432E1,7.605303E1,-2.4697328E0,4.590344E1,7.8750694E1,1.23858086E2,7.895033E1,-6.0287823E1,1.1600872E2,1.4108838E2,-3.137609E1,2.9828772E1,1.2005194E2,6.3012005E1],"split_indices":[475,242,435,420,190,80,460,160,201,300,325,380,55,380,1,325,85,251,355,135,61,140,256,475,340,100,391,396,396,466,0,161,9,265,116,300,401,10,336,26,316,290,341,275,451,210,1,441,181,420,426,475,406,70,371,405,221,0,376,321,25,301,451,0,0,0,0,0,0,0,0,0,0,0,0,0,0,0,0,0,0,0,0,0,0,0,0,0,0,0,0,0,0,0,0,0,0,0,0,0,0,0,0,0,0,0,0,0,0,0,0,0,0,0,0,0,0,0,0,0,0,0,0,0,0],"split_type":[0,0,0,0,0,0,0,0,0,0,0,0,0,0,0,0,0,0,0,0,0,0,0,0,0,0,0,0,0,0,0,0,0,0,0,0,0,0,0,0,0,0,0,0,0,0,0,0,0,0,0,0,0,0,0,0,0,0,0,0,0,0,0,0,0,0,0,0,0,0,0,0,0,0,0,0,0,0,0,0,0,0,0,0,0,0,0,0,0,0,0,0,0,0,0,0,0,0,0,0,0,0,0,0,0,0,0,0,0,0,0,0,0,0,0,0,0,0,0,0,0,0,0,0,0],"sum_hessian":[3.736783E6,2.681956E6,1.054827E6,1.677169E6,1.004787E6,8.29099E5,2.25728E5,1.463703E6,2.13466E5,7.86263E5,2.18524E5,6.54526E5,1.74573E5,1.44559E5,8.1169E4,1.229163E6,2.3454E5,1.37276E5,7.619E4,5.84423E5,2.0184E5,1.45653E5,7.2871E4,5.6721E5,8.7316E4,1.07848E5,6.6725E4,1.37291E5,7.268E3,5.8356E4,2.2813E4,1.118944E6,1.10219E5,1.99645E5,3.4895E4,6.0254E4,7.7022E4,7.0194E4,5.996E3,5.08275E5,7.6148E4,1.88641E5,1.3199E4,5.8959E4,8.6694E4,7.1331E4,1.54E3,4.73789E5,9.3421E4,4.4955E4,4.2361E4,9.2592E4,1.5256E4,4.7104E4,1.9621E4,1.09261E5,2.803E4,1.59E2,7.109E3,5.2817E4,5.539E3,1.1523E4,1.129E4,2.22998E5,8.95946E5,7.1666E4,3.8553E4,1.75098E5,2.4547E4,3.0718E4,4.177E3,2.4007E4,3.6247E4,7.484E4,2.182E3,6.8655E4,1.539E3,4.93E3,1.066E3,4.26231E5,8.2044E4,6.1298E4,1.485E4,6.6172E4,1.22469E5,6.07E2,1.2592E4,5.7877E4,1.082E3,2.6289E4,6.0405E4,6.0914E4,1.0417E4,9.09E2,6.31E2,4.07445E5,6.6344E4,7.6645E4,1.6776E4,1.9624E4,2.5331E4,2.5384E4,1.6977E4,5.4263E4,3.8329E4,8.024E3,7.232E3,2.9878E4,1.7226E4,9.452E3,1.0169E4,7.8452E4,3.0809E4,1.4317E4,1.3713E4,1.848E3,5.261E3,5.2345E4,4.72E2,2.949E3,2.59E3,3.361E3,8.162E3,2.462E3,8.828E3],"tree_param":{"num_deleted":"0","num_feature":"480","num_nodes":"125","size_leaf_vector":"1"}},{"base_weights":[-1.9720397E0,-2.2775092E2,5.65466E2,-6.620222E2,4.9605444E2,4.240812E2,1.1000896E3,-7.7035767E2,5.494554E1,3.5181015E2,1.008868E3,2.730799E2,1.020638E3,9.309259E2,1.3624119E3,-8.946105E2,-7.207194E1,-1.2136772E2,5.839358E2,1.7957129E2,9.746263E2,1.1040134E3,6.110723E2,1.3101033E2,9.746286E2,8.209998E2,1.3387352E3,6.956963E2,1.1971707E3,1.5644458E3,8.168816E2,-9.5171826E2,-3.1991312E2,1.353987E2,-4.825124E2,-2.9911136E2,5.252035E2,2.907157E2,1.5513967E3,6.486859E1,9.028041E2,7.7313654E2,1.2036294E3,1.1190209E3,-8.835319E1,3.9121008E2,1.8456908E3,4.2901165E1,6.810174E2,1.0597977E3,-4.505405E0,7.349502E2,1.4918422E3,1.566661E3,7.681307E2,8.385078E2,1.8560823E2,1.2511351E3,-9.774618E2,1.384665E3,1.8642609E3,2.0761531E2,1.4408817E3,-6.3622913E1,-4.360358E1,3.570811E0,-2.5530243E1,-1.199518E1,1.5454534E1,-2.669556E1,3.1376394E1,-8.123896E1,-1.3774498E1,1.5312775E1,7.252472E1,1.9850365E1,-7.676878E1,9.514092E1,1.5525594E1,-5.0805297E0,1.867125E1,5.866916E1,1.5274663E1,1.336946E1,4.851892E1,7.296287E1,3.666716E1,5.6658184E1,-8.0259605E1,3.8544807E0,3.7432873E1,1.00843254E2,8.915229E0,5.675002E0,-1.9307905E1,4.873876E1,-2.041858E1,2.3804037E1,5.9547363E1,-2.693083E1,4.4383877E1,2.4980986E1,5.2088013E1,8.658883E1,4.252957E1,6.881515E1,8.76334E1,-1.4991561E1,6.355525E1,2.1479055E1,5.2034718E1,5.347999E1,5.0766796E-2,7.626923E1,4.8544945E1,-8.158036E1,-7.574784E-1,8.04804E1,-2.6836615E0,9.8382225E1,-9.135548E-1,-2.428854E1,2.4242388E1,1.09785965E2,5.4541656E1],"categories":[],"categories_nodes":[],"categories_segments":[],"categories_sizes":[],"default_left":[0,0,0,0,0,0,0,0,0,0,0,0,0,0,0,0,0,0,0,0,0,0,0,0,0,0,0,0,0,0,0,0,0,0,0,0,0,0,0,0,0,0,0,0,0,0,0,0,0,0,0,0,0,0,0,0,0,0,0,0,0,0,0,0,0,0,0,0,0,0,0,0,0,0,0,0,0,0,0,0,0,0,0,0,0,0,0,0,0,0,0,0,0,0,0,0,0,0,0,0,0,0,0,0,0,0,0,0,0,0,0,0,0,0,0,0,0,0,0,0,0,0,0,0,0],"id":4,"left_children":[1,3,5,7,9,11,13,15,17,19,21,23,25,27,29,31,33,35,37,39,41,43,45,47,49,51,53,55,57,59,61,63,65,67,69,71,73,75,77,79,81,83,85,87,-1,89,91,93,95,97,99,101,103,105,107,109,111,113,115,117,119,121,123,-1,-1,-1,-1,-1,-1,-1,-1,-1,-1,-1,-1,-1,-1,-1,-1,-1,-1,-1,-1,-1,-1,-1,-1,-1,-1,-1,-1,-1,-1,-1,-1,-1,-1,-1,-1,-1,-1,-1,-1,-1,-1,-1,-1,-1,-1,-1,-1,-1,-1,-1,-1,-1,-1,-1,-1,-1,-1,-1,-1,-1,-1],"loss_changes":[4.7883636E11,8.404173E11,8.04128E10,1.2979759E11,7.41638E10,7.57887E10,9.872163E9,1.2595685E11,2.0459244E10,8.394266E10,8.3299533E9,6.6917458E10,1.0791158E10,8.470995E9,9.612607E9,4.0447377E10,1.8674242E10,1.8907902E10,1.5555369E10,5.085193E10,7.8211154E9,7.6551946E9,1.1531932E10,2.705721E10,9.428886E9,6.026445E9,8.5211955E9,5.231747E9,7.4473964E9,3.4283848E9,8.962876E9,2.863648E10,8.31292E9,9.495669E9,4.201389E9,4.0406108E9,7.1866593E9,8.1688417E9,5.561094E9,2.717814E10,1.3561332E10,8.995709E9,9.53729E9,6.8096E9,0E0,4.0493747E9,1.8325668E9,1.4577395E10,2.4671429E10,7.9625257E9,4.312552E9,6.681608E9,1.8248233E9,1.6555295E9,1.0048445E10,4.6387814E9,2.563697E9,4.7569797E9,9.675045E8,1.287585E10,4.6433567E9,2.2935288E9,3.0750904E9,0E0,0E0,0E0,0E0,0E0,0E0,0E0,0E0,0E0,0E0,0E0,0E0,0E0,0E0,0E0,0E0,0E0,0E0,0E0,0E0,0E0,0E0,0E0,0E0,0E0,0E0,0E0,0E0,0E0,0E0,0E0,0E0,0E0,0E0,0E0,0E0,0E0,0E0,0E0,0E0,0E0,0E0,0E0,0E0,0E0,0E0,0E0,0E0,0E0,0E0,0E0,0E0,0E0,0E0,0E0,0E0,0E0,0E0,0E0,0E0,0E0,0E0],"parents":[2147483647,0,0,1,1,2,2,3,3,4,4,5,5,6,6,7,7,8,8,9,9,10,10,11,11,12,12,13,13,14,14,15,15,16,16,17,17,18,18,19,19,20,20,21,21,22,22,23,23,24,24,25,25,26,26,27,27,28,28,29,29,30,30,31,31,32,32,33,33,34,34,35,35,36,36,37,37,38,38,39,39,40,40,41,41,42,42,43,43,45,45,46,46,47,47,48,48,49,49,50,50,51,51,52,52,53,53,54,54,55,55,56,56,57,57,58,58,59,59,60,60,61,61,62,62],"right_children":[2,4,6,8,10,12,14,16,18,20,22,24,26,28,30,32,34,36,38,40,42,44,46,48,50,52,54,56,58,60,62,64,66,68,70,72,74,76,78,80,82,84,86,88,-1,90,92,94,96,98,100,102,104,106,108,110,112,114,116,118,120,122,124,-1,-1,-1,-1,-1,-1,-1,-1,-1,-1,-1,-1,-1,-1,-1,-1,-1,-1,-1,-1,-1,-1,-1,-1,-1,-1,-1,-1,-1,-1,-1,-1,-1,-1,-1,-1,-1,-1,-1,-1,-1,-1,-1,-1,-1,-1,-1,-1,-1,-1,-1,-1,-1,-1,-1,-1,-1,-1,-1,-1,-1,-1],"split_conditions":[1E0,1E0,1.0439348E4,1E0,1.0418953E4,9.039168E3,1.3556619E4,9.04937E2,3.349901E3,9.871528E3,3.3657627E1,9.239575E3,1.3684537E4,1.0361455E4,5.6721577E1,2.66588E2,3.3814518E1,5.44327E2,2.6542307E1,9.208431E3,6.73113E2,6.457466E1,1.6511459E4,1.0361455E4,4.743885E1,1.4298278E4,2.8607407E1,5.0493244E1,6.457466E1,2.4433962E1,1.4938742E4,2.0471428E1,-8.314696E-1,9.211595E0,8.1307E1,2.3633333E1,1.34508E4,6.0540676E1,4.719593E1,9.04644E2,5.220983E1,1.0348061E4,5.220983E1,6.457466E1,-8.835319E1,3.099091E1,4.190678E1,4.9966892E1,4.524662E1,4.190877E1,1.307226E4,5.623001E3,5.1717228E1,1.4740053E4,3.0022806E1,4.420912E1,3.897E1,5.221051E1,8.1307E1,2.3612963E1,5.1947636E1,2.6322866E1,5.3291553E1,-6.3622913E1,-4.360358E1,3.570811E0,-2.5530243E1,-1.199518E1,1.5454534E1,-2.669556E1,3.1376394E1,-8.123896E1,-1.3774498E1,1.5312775E1,7.252472E1,1.9850365E1,-7.676878E1,9.514092E1,1.5525594E1,-5.0805297E0,1.867125E1,5.866916E1,1.5274663E1,1.336946E1,4.851892E1,7.296287E1,3.666716E1,5.6658184E1,-8.0259605E1,3.8544807E0,3.7432873E1,1.00843254E2,8.915229E0,5.675002E0,-1.9307905E1,4.873876E1,-2.041858E1,2.3804037E1,5.9547363E1,-2.693083E1,4.4383877E1,2.4980986E1,5.2088013E1,8.658883E1,4.252957E1,6.881515E1,8.76334E1,-1.4991561E1,6.355525E1,2.1479055E1,5.2034718E1,5.347999E1,5.0766796E-2,7.626923E1,4.8544945E1,-8.158036E1,-7.574784E-1,8.04804E1,-2.6836615E0,9.8382225E1,-9.135548E-1,-2.428854E1,2.4242388E1,1.09785965E2,5.4541656E1],"split_indices":[477,237,445,422,195,80,465,160,290,310,56,370,60,395,11,320,436,35,161,125,415,236,130,475,51,105,391,376,426,271,5,161,244,476,65,406,0,351,1,330,206,270,391,276,0,466,306,341,181,371,475,475,61,80,391,466,46,471,0,301,91,301,446,0,0,0,0,0,0,0,0,0,0,0,0,0,0,0,0,0,0,0,0,0,0,0,0,0,0,0,0,0,0,0,0,0,0,0,0,0,0,0,0,0,0,0,0,0,0,0,0,0,0,0,0,0,0,0,0,0,0,0,0,0,0],"split_type":[0,0,0,0,0,0,0,0,0,0,0,0,0,0,0,0,0,0,0,0,0,0,0,0,0,0,0,0,0,0,0,0,0,0,0,0,0,0,0,0,0,0,0,0,0,0,0,0,0,0,0,0,0,0,0,0,0,0,0,0,0,0,0,0,0,0,0,0,0,0,0,0,0,0,0,0,0,0,0,0,0,0,0,0,0,0,0,0,0,0,0,0,0,0,0,0,0,0,0,0,0,0,0,0,0,0,0,0,0,0,0,0,0,0,0,0,0,0,0,0,0,0,0,0,0],"sum_hessian":[3.737534E6,2.673694E6,1.06384E6,1.671076E6,1.002618E6,8.41343E5,2.22497E5,1.451718E6,2.19358E5,7.82514E5,2.20104E5,6.71399E5,1.69944E5,1.3527E5,8.7227E4,1.232421E6,2.19297E5,1.64523E5,5.4835E4,6.12993E5,1.69521E5,1.77619E5,4.2485E4,5.58333E5,1.13066E5,1.04416E5,6.5528E4,7.182E4,6.345E4,6.3652E4,2.3575E4,1.121024E6,1.11397E5,1.45666E5,7.3631E4,1.29048E5,3.5475E4,4.2082E4,1.2753E4,5.29083E5,8.391E4,9.018E4,7.9341E4,1.76696E5,9.23E2,3.6064E4,6.421E3,4.81241E5,7.7092E4,1.04018E5,9.048E3,9.2547E4,1.1869E4,4.6823E4,1.8705E4,5.611E4,1.571E4,6.1914E4,1.536E3,3.9795E4,2.3857E4,1.1929E4,1.1646E4,2.22996E5,8.98028E5,3.6498E4,7.4899E4,4.6086E4,9.958E4,7.0373E4,3.258E3,2.258E3,1.2679E5,2.8688E4,6.787E3,3.9768E4,2.314E3,9.938E3,2.815E3,3.43663E5,1.8542E5,5.7749E4,2.6161E4,2.5303E4,6.4877E4,5.14E4,2.7941E4,1.75784E5,9.12E2,1.9196E4,1.6868E4,5.823E3,5.98E2,4.13245E5,6.7996E4,6.0719E4,1.6373E4,1.9084E4,8.4934E4,5.66E3,3.388E3,5.2376E4,4.0171E4,8.636E3,3.233E3,2.3145E4,2.3678E4,5.989E3,1.2716E4,1.8565E4,3.7545E4,2.713E3,1.2997E4,3.1289E4,3.0625E4,9.14E2,6.22E2,3.4413E4,5.382E3,2.2615E4,1.242E3,3.407E3,8.522E3,3.688E3,7.958E3],"tree_param":{"num_deleted":"0","num_feature":"480","num_nodes":"125","size_leaf_vector":"1"}},{"base_weights":[4.9656966E-1,-2.1419856E2,5.407476E2,-6.281049E2,4.7603665E2,4.0274762E2,1.0403112E3,-7.117664E2,1.3217575E2,3.3604752E2,9.698036E2,2.5888217E2,9.6704596E2,8.960508E2,1.3141298E3,-8.4312427E2,-8.7398766E1,3.1249728E2,-4.3366565E2,1.7851952E2,9.02587E2,1.0692324E3,5.61196E2,1.2711234E2,9.4875024E2,7.851161E2,1.2750697E3,8.264831E2,1.6760671E3,1.5335571E3,8.491107E2,-9.075238E2,-2.9154498E2,-2.5380165E2,3.550954E2,-1.0391664E2,4.3965146E2,-6.299436E2,-1.0266527E2,4.2060917E1,9.102351E2,7.120804E2,1.2064691E3,1.0847217E3,-1.5249637E3,3.804769E2,2.061467E3,4.780127E1,6.3612946E2,1.057937E3,-8.9556656E1,6.76877E2,1.3483949E3,1.5002074E3,7.050688E2,9.9233575E2,4.522903E2,-8.850421E1,1.7603923E3,1.3902472E3,2.0863147E3,1.709848E2,1.4504625E3,-6.0398792E1,-4.1667976E1,-4.292113E0,-2.5207678E1,-2.0964453E1,2.2543669E1,4.0851765E0,3.6273655E1,-2.8816725E1,6.1232443E0,4.955393E1,1.3944101E1,-3.5685677E1,-8.172594E0,2.8147556E1,-2.2290943E1,6.7268996E0,-2.1071648E1,5.1575653E1,-2.078848E0,4.605752E1,1.888185E1,6.3183834E1,-4.8683514E1,5.4966908E1,-8.400295E1,-9.045919E1,7.667389E0,6.9578606E1,1.4136599E1,-2.2626066E0,1.1931158E2,5.886485E0,-1.9327967E1,4.5858036E1,-2.0870466E1,4.22736E1,6.96062E1,-1.5348291E1,6.405007E1,4.3400227E1,1.7989822E1,8.2412704E1,3.8342777E1,7.1003136E1,9.664059E1,-3.7853878E1,5.7447304E1,4.200106E1,7.408273E1,4.0402416E1,1.0159873E1,1.04760826E2,6.2856445E1,-5.0594635E0,7.403787E1,1.1136953E2,7.228063E1,1.020518E2,3.4871652E0,9.523331E0,8.084435E1],"categories":[],"categories_nodes":[],"categories_segments":[],"categories_sizes":[],"default_left":[0,0,0,0,0,0,0,0,0,0,0,0,0,0,0,0,0,0,0,0,0,0,0,0,0,0,0,0,0,0,0,0,0,0,0,0,0,0,0,0,0,0,0,0,0,0,0,0,0,0,0,0,0,0,0,0,0,0,0,0,0,0,0,0,0,0,0,0,0,0,0,0,0,0,0,0,0,0,0,0,0,0,0,0,0,0,0,0,0,0,0,0,0,0,0,0,0,0,0,0,0,0,0,0,0,0,0,0,0,0,0,0,0,0,0,0,0,0,0,0,0,0,0,0,0],"id":5,"left_children":[1,3,5,7,9,11,13,15,17,19,21,23,25,27,29,31,33,35,37,39,41,43,45,47,49,51,53,55,57,59,61,63,65,67,69,71,73,75,77,79,81,83,85,87,89,91,93,95,97,99,101,103,105,107,109,111,113,-1,115,117,119,121,123,-1,-1,-1,-1,-1,-1,-1,-1,-1,-1,-1,-1,-1,-1,-1,-1,-1,-1,-1,-1,-1,-1,-1,-1,-1,-1,-1,-1,-1,-1,-1,-1,-1,-1,-1,-1,-1,-1,-1,-1,-1,-1,-1,-1,-1,-1,-1,-1,-1,-1,-1,-1,-1,-1,-1,-1,-1,-1,-1,-1,-1,-1],"loss_changes":[4.33251E11,7.636613E11,7.323107E10,1.062853E11,6.9261705E10,6.757091E10,9.081061E9,1.23461435E11,1.6901863E10,6.967335E10,8.991638E9,6.0291097E10,9.474605E9,8.1702175E9,8.093778E9,4.4177424E10,1.9266347E10,6.6513633E9,2.6007373E9,6.099225E10,9.831842E9,7.1547945E9,1.1744465E10,2.2481437E10,1.2058862E10,6.480429E9,8.056054E9,8.580145E9,3.5861873E9,4.2667295E9,1.0372356E10,2.4814551E10,5.686578E9,2.2174384E10,7.240615E9,3.1428052E9,8.53103E9,9.819126E8,3.4042245E9,2.2067202E10,1.108308E10,7.299588E9,8.163803E9,7.152992E9,5.0447693E8,3.8207473E9,3.1863706E9,1.4634494E10,2.2227206E10,6.8325786E9,3.0164641E9,5.40382E9,2.9865615E9,1.5576842E9,1.1539684E10,7.138697E9,3.76277E9,0E0,2.0254884E9,5.7784074E9,9.996288E8,2.263449E9,2.82658E9,0E0,0E0,0E0,0E0,0E0,0E0,0E0,0E0,0E0,0E0,0E0,0E0,0E0,0E0,0E0,0E0,0E0,0E0,0E0,0E0,0E0,0E0,0E0,0E0,0E0,0E0,0E0,0E0,0E0,0E0,0E0,0E0,0E0,0E0,0E0,0E0,0E0,0E0,0E0,0E0,0E0,0E0,0E0,0E0,0E0,0E0,0E0,0E0,0E0,0E0,0E0,0E0,0E0,0E0,0E0,0E0,0E0,0E0,0E0,0E0,0E0,0E0],"parents":[2147483647,0,0,1,1,2,2,3,3,4,4,5,5,6,6,7,7,8,8,9,9,10,10,11,11,12,12,13,13,14,14,15,15,16,16,17,17,18,18,19,19,20,20,21,21,22,22,23,23,24,24,25,25,26,26,27,27,28,28,29,29,30,30,31,31,32,32,33,33,34,34,35,35,36,36,37,37,38,38,39,39,40,40,41,41,42,42,43,43,44,44,45,45,46,46,47,47,48,48,49,49,50,50,51,51,52,52,53,53,54,54,55,55,56,56,58,58,59,59,60,60,61,61,62,62],"right_children":[2,4,6,8,10,12,14,16,18,20,22,24,26,28,30,32,34,36,38,40,42,44,46,48,50,52,54,56,58,60,62,64,66,68,70,72,74,76,78,80,82,84,86,88,90,92,94,96,98,100,102,104,106,108,110,112,114,-1,116,118,120,122,124,-1,-1,-1,-1,-1,-1,-1,-1,-1,-1,-1,-1,-1,-1,-1,-1,-1,-1,-1,-1,-1,-1,-1,-1,-1,-1,-1,-1,-1,-1,-1,-1,-1,-1,-1,-1,-1,-1,-1,-1,-1,-1,-1,-1,-1,-1,-1,-1,-1,-1,-1,-1,-1,-1,-1,-1,-1,-1,-1,-1,-1,-1],"split_conditions":[1E0,1E0,1.0266528E4,2.349011E3,1.0420431E4,9.039168E3,1.3556619E4,1.102085E3,3.6908474E1,9.871528E3,3.3677967E1,9.239575E3,1.3684537E4,1.6655645E4,5.1717228E1,2.68255E2,6.42567E3,9.204255E0,4.130698E3,9.208431E3,1.3691529E4,6.457466E1,1.6836975E4,1.0361455E4,3.8094593E1,1.4403727E4,2.8593334E1,4.97034E1,5.2497967E1,2.7761017E1,1.4521473E4,2.048322E1,3.6740383E1,6.15541E2,2.66588E2,2.21844E2,3.1147959E1,8.1307E1,5.5329056E1,3.599356E1,5.8895607E1,5.2997635E1,6.457466E1,6.457466E1,2.6267273E1,4.8244747E1,4.692196E1,5.049322E1,4.4766556E1,1.4179859E4,1.3925941E4,5.2202034E1,5.123627E1,7.565463E3,3.2128845E1,1.3925941E4,5.1717228E1,-8.850421E1,4.2553898E1,1E0,8.1307E1,8.611799E3,1.2795875E4,-6.0398792E1,-4.1667976E1,-4.292113E0,-2.5207678E1,-2.0964453E1,2.2543669E1,4.0851765E0,3.6273655E1,-2.8816725E1,6.1232443E0,4.955393E1,1.3944101E1,-3.5685677E1,-8.172594E0,2.8147556E1,-2.2290943E1,6.7268996E0,-2.1071648E1,5.1575653E1,-2.078848E0,4.605752E1,1.888185E1,6.3183834E1,-4.8683514E1,5.4966908E1,-8.400295E1,-9.045919E1,7.667389E0,6.9578606E1,1.4136599E1,-2.2626066E0,1.1931158E2,5.886485E0,-1.9327967E1,4.5858036E1,-2.0870466E1,4.22736E1,6.96062E1,-1.5348291E1,6.405007E1,4.3400227E1,1.7989822E1,8.2412704E1,3.8342777E1,7.1003136E1,9.664059E1,-3.7853878E1,5.7447304E1,4.200106E1,7.408273E1,4.0402416E1,1.0159873E1,1.04760826E2,6.2856445E1,-5.0594635E0,7.403787E1,1.1136953E2,7.228063E1,1.020518E2,3.4871652E0,9.523331E0,8.084435E1],"split_indices":[477,242,445,295,205,80,475,55,106,305,66,365,55,400,66,385,135,161,265,130,290,226,150,475,101,95,356,376,421,261,20,171,181,425,5,410,426,175,181,26,206,331,321,286,6,246,106,341,186,370,465,96,56,155,276,420,6,0,36,72,345,465,5,0,0,0,0,0,0,0,0,0,0,0,0,0,0,0,0,0,0,0,0,0,0,0,0,0,0,0,0,0,0,0,0,0,0,0,0,0,0,0,0,0,0,0,0,0,0,0,0,0,0,0,0,0,0,0,0,0,0,0,0,0,0],"split_type":[0,0,0,0,0,0,0,0,0,0,0,0,0,0,0,0,0,0,0,0,0,0,0,0,0,0,0,0,0,0,0,0,0,0,0,0,0,0,0,0,0,0,0,0,0,0,0,0,0,0,0,0,0,0,0,0,0,0,0,0,0,0,0,0,0,0,0,0,0,0,0,0,0,0,0,0,0,0,0,0,0,0,0,0,0,0,0,0,0,0,0,0,0,0,0,0,0,0,0,0,0,0,0,0,0,0,0,0,0,0,0,0,0,0,0,0,0,0,0,0,0,0,0,0,0],"sum_hessian":[3.735266E6,2.673014E6,1.062252E6,1.670989E6,1.002025E6,8.3233E5,2.29922E5,1.505341E6,1.65648E5,7.80691E5,2.21334E5,6.63241E5,1.69089E5,1.50589E5,7.9333E4,1.243687E6,2.61654E5,1.25617E5,4.0031E4,6.10845E5,1.69846E5,1.78015E5,4.3319E4,5.56875E5,1.06366E5,1.06305E5,6.2784E4,1.3826E5,1.2329E4,5.3898E4,2.5435E4,1.113661E6,1.30026E5,1.90148E5,7.1506E4,2.9385E4,9.6232E4,2.5129E4,1.4902E4,5.14834E5,9.6011E4,1.044E5,6.5446E4,1.76959E5,1.056E3,3.8663E4,4.656E3,4.81805E5,7.507E4,9.6245E4,1.0121E4,8.9172E4,1.7133E4,4.5006E4,1.7778E4,9.5798E4,4.2462E4,2.94E2,1.2035E4,4.2804E4,1.1094E4,1.1955E4,1.348E4,2.20473E5,8.93188E5,6.6087E4,6.3939E4,1.53986E5,3.6162E4,4.114E4,3.0366E4,9.519E3,1.9866E4,2.1722E4,7.451E4,2.1303E4,3.826E3,5.069E3,9.833E3,4.292E5,8.5634E4,8.516E4,1.0851E4,6.424E4,4.016E4,6.3773E4,1.673E3,1.76029E5,9.3E2,9.03E2,1.53E2,3.407E3,3.5256E4,6.22E2,4.034E3,4.14995E5,6.681E4,5.9262E4,1.5808E4,5.884E4,3.7405E4,8.736E3,1.385E3,5.5635E4,3.3537E4,1.1303E4,5.83E3,3.7975E4,7.031E3,4.14E3,1.3638E4,7.3059E4,2.2739E4,1.7486E4,2.4976E4,7.225E3,4.81E3,2.449E3,4.0355E4,9.09E3,2.004E3,6.13E2,1.1342E4,1.573E3,1.1907E4],"tree_param":{"num_deleted":"0","num_feature":"480","num_nodes":"125","size_leaf_vector":"1"}},{"base_weights":[-5.3367144E-3,-2.0415768E2,5.142026E2,-5.9585645E2,4.515519E2,3.337196E1,6.475395E2,-6.963993E2,-8.944915E0,3.0627646E2,8.860766E2,-1.0538165E2,9.053022E2,8.473596E2,1.608986E2,-8.125836E2,4.1911826E0,-1.6125189E2,5.39535E2,9.8740616E1,8.477299E2,8.475402E2,1.7960204E3,-1.3024669E2,1.4909797E3,5.86222E2,1.5251885E3,7.376047E2,1.0884446E3,-5.4622402E1,8.42609E2,-1.0996787E3,-7.2840625E2,2.144884E2,-3.4551648E2,-2.783173E2,5.435653E2,6.699161E2,-9.377993E2,2.6714449E1,7.0777985E2,9.047045E2,-2.358359E2,9.3921216E2,3.861271E2,2.1758804E3,1.3942336E3,-3.855035E2,-6.1622467E1,1.00024835E3,1.749988E3,4.23993E2,1.5318799E3,6.032829E2,1.5981292E3,8.4990796E2,1.5682985E2,1.1372307E3,-2.559427E2,-2.7075595E2,1.0044469E3,5.59825E2,1.2018613E3,-5.6560707E1,1.6812426E1,-1.6122883E1,-4.1357708E1,-7.6420703E0,2.5585213E1,-2.1681776E1,3.9185986E1,-3.0319169E0,-2.6896376E1,5.849723E1,3.4143772E0,3.6984722E1,-7.418473E1,-7.691916E1,-1.1980295E1,-1.3537016E0,3.200468E1,1.8305563E1,6.532556E1,1.7795553E1,5.0089134E1,4.692454E-1,-5.908542E1,4.3401585E1,7.7978165E1,1.0479972E1,5.344289E1,9.2077934E1,1.27313835E2,1.1072947E2,5.3504456E1,-1.0087297E1,-5.2252857E1,-4.330279E0,2.414904E1,3.8774826E1,5.842287E1,9.009483E1,7.854225E1,2.5312634E1,-1.4524691E1,8.298312E1,5.68482E1,2.8277166E1,3.747488E1,-2.0269935E0,8.1252304E1,2.8228928E1,5.0857082E1,3.5695694E1,-9.181738E0,4.6373108E1,6.930283E1,-2.569634E1,8.055745E1,7.5962267E0,-2.374565E1,1.2260024E2,3.971665E1,6.062021E-1,4.203726E1,5.343213E1,1.123106E2],"categories":[],"categories_nodes":[],"categories_segments":[],"categories_sizes":[],"default_left":[0,0,0,0,0,0,0,0,0,0,0,0,0,0,0,0,0,0,0,0,0,0,0,0,0,0,0,0,0,0,0,0,0,0,0,0,0,0,0,0,0,0,0,0,0,0,0,0,0,0,0,0,0,0,0,0,0,0,0,0,0,0,0,0,0,0,0,0,0,0,0,0,0,0,0,0,0,0,0,0,0,0,0,0,0,0,0,0,0,0,0,0,0,0,0,0,0,0,0,0,0,0,0,0,0,0,0,0,0,0,0,0,0,0,0,0,0,0,0,0,0,0,0,0,0,0,0],"id":6,"left_children":[1,3,5,7,9,11,13,15,17,19,21,23,25,27,29,31,33,35,37,39,41,43,45,47,49,51,53,55,57,59,61,63,65,67,69,71,73,75,77,79,81,83,85,87,89,91,93,95,97,99,101,103,105,107,109,111,113,115,117,119,121,123,125,-1,-1,-1,-1,-1,-1,-1,-1,-1,-1,-1,-1,-1,-1,-1,-1,-1,-1,-1,-1,-1,-1,-1,-1,-1,-1,-1,-1,-1,-1,-1,-1,-1,-1,-1,-1,-1,-1,-1,-1,-1,-1,-1,-1,-1,-1,-1,-1,-1,-1,-1,-1,-1,-1,-1,-1,-1,-1,-1,-1,-1,-1,-1,-1],"loss_changes":[3.9218433E11,6.86843E11,6.8069327E10,9.8790015E10,6.3129846E10,2.7887028E10,8.082797E10,1.163401E11,2.0454113E10,8.422107E10,8.785248E9,7.8935793E9,6.2582804E9,1.5591145E10,3.5549217E10,2.9627122E10,1.495223E10,1.5811898E10,1.0250713E10,2.3767783E10,1.2821185E10,1.0168173E10,1.5506678E9,3.4299236E9,3.859154E8,3.204611E9,7.2211456E8,2.6410074E10,1.2090622E10,4.208109E10,5.903786E9,1.2586975E10,3.800236E10,1.3861533E10,7.5977155E9,9.287097E9,8.126052E9,7.3495695E9,1.8094326E9,1.5985624E10,1.1721251E10,1.051104E10,2.4064678E9,8.854454E9,4.8021704E9,6.430761E8,1.3139036E9,5.02805E9,2.0997289E9,3.901613E7,1.5721472E7,1.04837094E9,1.5248077E8,3.935424E6,4.395561E8,1.6190177E10,1.2444776E10,9.283518E9,3.110554E9,1.3175404E10,9.475127E9,5.003984E9,3.5589734E9,0E0,0E0,0E0,0E0,0E0,0E0,0E0,0E0,0E0,0E0,0E0,0E0,0E0,0E0,0E0,0E0,0E0,0E0,0E0,0E0,0E0,0E0,0E0,0E0,0E0,0E0,0E0,0E0,0E0,0E0,0E0,0E0,0E0,0E0,0E0,0E0,0E0,0E0,0E0,0E0,0E0,0E0,0E0,0E0,0E0,0E0,0E0,0E0,0E0,0E0,0E0,0E0,0E0,0E0,0E0,0E0,0E0,0E0,0E0,0E0,0E0,0E0,0E0,0E0],"parents":[2147483647,0,0,1,1,2,2,3,3,4,4,5,5,6,6,7,7,8,8,9,9,10,10,11,11,12,12,13,13,14,14,15,15,16,16,17,17,18,18,19,19,20,20,21,21,22,22,23,23,24,24,25,25,26,26,27,27,28,28,29,29,30,30,31,31,32,32,33,33,34,34,35,35,36,36,37,37,38,38,39,39,40,40,41,41,42,42,43,43,44,44,45,45,46,46,47,47,48,48,49,49,50,50,51,51,52,52,53,53,54,54,55,55,56,56,57,57,58,58,59,59,60,60,61,61,62,62],"right_children":[2,4,6,8,10,12,14,16,18,20,22,24,26,28,30,32,34,36,38,40,42,44,46,48,50,52,54,56,58,60,62,64,66,68,70,72,74,76,78,80,82,84,86,88,90,92,94,96,98,100,102,104,106,108,110,112,114,116,118,120,122,124,126,-1,-1,-1,-1,-1,-1,-1,-1,-1,-1,-1,-1,-1,-1,-1,-1,-1,-1,-1,-1,-1,-1,-1,-1,-1,-1,-1,-1,-1,-1,-1,-1,-1,-1,-1,-1,-1,-1,-1,-1,-1,-1,-1,-1,-1,-1,-1,-1,-1,-1,-1,-1,-1,-1,-1,-1,-1,-1,-1,-1,-1,-1,-1,-1],"split_conditions":[1E0,1E0,1.2964103E1,8.66124E2,9.278026E3,1.0104464E4,3.3794735E1,1.34079E2,8.199483E3,9.287111E3,1.6655645E4,1.1707675E4,4.2564407E1,1.0977753E4,1E0,2.2916363E1,3.4288395E1,8.63066E2,6.1975E1,1.03332E4,3.6732075E1,4.9966667E1,2.6719257E1,1.441206E3,4.042931E1,1.379927E4,1.184E1,5.1717228E1,4.4766556E1,4.951479E3,1.2626248E4,5.4031082E1,3E1,1.5852381E1,6.000363E3,3.2441498E1,2.8796227E1,1.7090844E4,3.586892E1,8.961925E3,9.04644E2,4.190678E1,5.7395607E1,1.3265172E4,1.5855984E4,2.2138462E1,8.1307E1,2.5901695E1,1.0027406E4,1.212449E1,1.2469048E1,1.5573585E1,1.2707101E1,4.000275E1,3.8617966E1,2.1702389E1,2.8607407E1,8.38705E2,1.2344493E4,4.5481018E1,4.3505424E1,3.1705084E1,1.6836975E4,-5.6560707E1,1.6812426E1,-1.6122883E1,-4.1357708E1,-7.6420703E0,2.5585213E1,-2.1681776E1,3.9185986E1,-3.0319169E0,-2.6896376E1,5.849723E1,3.4143772E0,3.6984722E1,-7.418473E1,-7.691916E1,-1.1980295E1,-1.3537016E0,3.200468E1,1.8305563E1,6.532556E1,1.7795553E1,5.0089134E1,4.692454E-1,-5.908542E1,4.3401585E1,7.7978165E1,1.0479972E1,5.344289E1,9.2077934E1,1.27313835E2,1.1072947E2,5.3504456E1,-1.0087297E1,-5.2252857E1,-4.330279E0,2.414904E1,3.8774826E1,5.842287E1,9.009483E1,7.854225E1,2.5312634E1,-1.4524691E1,8.298312E1,5.68482E1,2.8277166E1,3.747488E1,-2.0269935E0,8.1252304E1,2.8228928E1,5.0857082E1,3.5695694E1,-9.181738E0,4.6373108E1,6.930283E1,-2.569634E1,8.055745E1,7.5962267E0,-2.374565E1,1.2260024E2,3.971665E1,6.062021E-1,4.203726E1,5.343213E1,1.123106E2],"split_indices":[477,247,281,170,180,420,266,415,80,300,130,15,471,475,92,356,201,275,121,215,66,111,411,460,36,410,211,16,181,360,65,51,16,246,355,446,456,130,291,140,335,316,436,125,125,1,35,11,400,246,286,176,231,6,436,286,281,105,35,11,466,356,85,0,0,0,0,0,0,0,0,0,0,0,0,0,0,0,0,0,0,0,0,0,0,0,0,0,0,0,0,0,0,0,0,0,0,0,0,0,0,0,0,0,0,0,0,0,0,0,0,0,0,0,0,0,0,0,0,0,0,0,0,0,0,0,0],"split_type":[0,0,0,0,0,0,0,0,0,0,0,0,0,0,0,0,0,0,0,0,0,0,0,0,0,0,0,0,0,0,0,0,0,0,0,0,0,0,0,0,0,0,0,0,0,0,0,0,0,0,0,0,0,0,0,0,0,0,0,0,0,0,0,0,0,0,0,0,0,0,0,0,0,0,0,0,0,0,0,0,0,0,0,0,0,0,0,0,0,0,0,0,0,0,0,0,0,0,0,0,0,0,0,0,0,0,0,0,0,0,0,0,0,0,0,0,0,0,0,0,0,0,0,0,0,0,0],"sum_hessian":[3.735914E6,2.674197E6,1.061717E6,1.674129E6,1.000068E6,2.30501E5,8.31216E5,1.429281E6,2.44848E5,7.49491E5,2.50577E5,1.98857E5,3.1644E4,5.89259E5,2.41957E5,1.225969E6,2.03312E5,1.91634E5,5.3214E4,5.41817E5,2.07674E5,2.40398E5,1.0179E4,1.95808E5,3.049E3,2.0892E4,1.0752E4,4.04921E5,1.84338E5,1.83838E5,5.8119E4,2.77957E5,9.48012E5,1.26963E5,7.6349E4,1.64339E5,2.7295E4,4.8899E4,4.315E3,4.84518E5,5.7299E4,1.973E5,1.0374E4,2.00552E5,3.9846E4,5.23E3,4.949E3,4.1487E4,1.54321E5,1.055E3,1.994E3,1.7834E4,3.058E3,7.89E2,9.963E3,3.39309E5,6.5612E4,1.77883E5,6.455E3,1.5268E5,3.1158E4,3.2522E4,2.5597E4,2.71984E5,5.973E3,1.85487E5,7.62525E5,5.6784E4,7.0179E4,7.0823E4,5.526E3,8.9389E4,7.495E4,1.1775E4,1.552E4,4.7365E4,1.534E3,2.319E3,1.996E3,4.45456E5,3.9062E4,3.6482E4,2.0817E4,2.9656E4,1.67644E5,8.239E3,2.135E3,1.79911E5,2.0641E4,3.1661E4,8.185E3,2.752E3,2.478E3,1.4E3,3.549E3,3.2448E4,9.039E3,1.47553E5,6.768E3,4.54E2,6.01E2,1.539E3,4.55E2,1.5993E4,1.841E3,2.308E3,7.5E2,6.31E2,1.58E2,1.61E2,9.802E3,1.25385E5,2.13924E5,2.4888E4,4.0724E4,9.6519E4,8.1364E4,5.672E3,7.83E2,4.9727E4,1.02953E5,3.948E3,2.721E4,1.1026E4,2.1496E4,2.2703E4,2.894E3],"tree_param":{"num_deleted":"0","num_feature":"480","num_nodes":"127","size_leaf_vector":"1"}},{"base_weights":[-7.277258E-1,-1.93082E2,4.8859305E2,-5.659003E2,4.3034418E2,3.806137E1,6.1297095E2,-6.748021E2,-1.7890154E0,-1.3326173E2,5.348842E2,-5.9471455E1,1.1426547E3,8.094516E2,1.5324274E2,-7.908819E2,-8.393246E1,-1.5021901E2,5.2252277E2,-2.0161569E2,1.00192566E3,6.4978375E2,-1.4314592E2,-8.467206E1,1.4790438E3,7.855521E2,1.5217971E3,6.432643E2,9.504843E2,-8.660389E0,8.685057E2,-8.344544E2,-2.1086728E2,9.4754105E1,-4.6814313E2,-1.9028336E2,8.966714E2,2.7086728E2,1.22907E3,-6.274628E2,-1.13317154E2,-1.9299869E2,1.3874424E3,4.8524478E2,8.959103E2,-3.7842038E2,6.1943463E2,-1.2477504E2,4.8182782E2,9.8280536E2,1.7116194E3,5.2106256E2,1.4818191E3,1.658651E3,1.0453597E3,7.532071E2,-1.9425914E2,1.0861947E3,7.10997E2,-2.555576E2,8.002155E2,2.3697856E3,6.817163E2,-5.6625843E1,-3.794229E1,7.1385207E0,-2.3679241E1,-1.1683446E1,1.2423071E1,-2.6285532E1,3.053649E1,4.655845E-1,-1.9906542E1,9.853536E1,2.4367805E1,1.8455877E1,-7.56976E1,2.708762E1,1.0039626E2,-5.8907593E1,-1.4609085E1,-6.7414737E0,7.949219E1,2.1762308E1,-6.56735E1,1.0357391E2,6.036506E1,1.5015398E1,5.223289E1,4.532362E1,-5.313023E1,-2.5456814E1,4.8796566E1,7.264249E1,2.322309E1,-1.9607826E1,-1.9373312E0,2.594498E1,-5.563677E1,4.0904743E1,5.9944447E1,8.000888E1,1.0135897E2,-7.369866E1,2.8520126E1,4.531017E1,7.767684E1,5.4055447E1,8.431421E1,4.272775E1,8.307752E1,2.0783339E1,4.5882034E1,2.375529E1,-2.7641117E1,3.6128075E1,5.83231E1,3.973621E1,-2.3220697E1,1.08610115E1,-2.095043E1,1.1760741E1,5.0692833E1,6.431805E1,1.25985E2,2.8286087E1,9.247543E1],"categories":[],"categories_nodes":[],"categories_segments":[],"categories_sizes":[],"default_left":[0,0,0,0,0,0,0,0,0,0,0,0,0,0,0,0,0,0,0,0,0,0,0,0,0,0,0,0,0,0,0,0,0,0,0,0,0,0,0,0,0,0,0,0,0,0,0,0,0,0,0,0,0,0,0,0,0,0,0,0,0,0,0,0,0,0,0,0,0,0,0,0,0,0,0,0,0,0,0,0,0,0,0,0,0,0,0,0,0,0,0,0,0,0,0,0,0,0,0,0,0,0,0,0,0,0,0,0,0,0,0,0,0,0,0,0,0,0,0,0,0,0,0,0,0,0,0],"id":7,"left_children":[1,3,5,7,9,11,13,15,17,19,21,23,25,27,29,31,33,35,37,39,41,43,45,47,49,51,53,55,57,59,61,63,65,67,69,71,73,75,77,79,81,83,85,87,89,91,93,95,97,99,101,103,105,107,109,111,113,115,117,119,121,123,125,-1,-1,-1,-1,-1,-1,-1,-1,-1,-1,-1,-1,-1,-1,-1,-1,-1,-1,-1,-1,-1,-1,-1,-1,-1,-1,-1,-1,-1,-1,-1,-1,-1,-1,-1,-1,-1,-1,-1,-1,-1,-1,-1,-1,-1,-1,-1,-1,-1,-1,-1,-1,-1,-1,-1,-1,-1,-1,-1,-1,-1,-1,-1,-1],"loss_changes":[3.5159458E11,6.232257E11,5.906627E10,1.030818E11,5.9122532E10,2.4568078E10,7.461346E10,9.646532E10,2.113043E10,1.218278E10,6.5942716E10,8.124385E9,2.5038418E9,1.3562937E10,2.8641636E10,2.970819E10,1.5854627E10,8.875766E9,1.0651343E10,5.568249E9,4.1080023E9,2.9311205E10,2.2006473E10,4.683809E9,3.8806784E8,1.7542282E9,5.833257E8,2.4462311E10,1.017335E10,4.027756E10,1.2799984E10,2.4639439E10,7.631341E9,7.95733E9,4.553396E9,8.4552105E9,3.42807E9,7.746864E9,8.421116E9,4.6953093E9,4.494201E9,1.532324E9,8.2826854E8,4.4878512E10,5.9998536E9,1.6595075E10,3.7345382E9,4.428799E9,8.062907E8,3.7457664E7,7.756851E7,6.808293E8,1.0687437E8,1.0939802E8,2.343122E8,1.3033726E10,7.3992786E9,5.8312294E9,1.1143868E10,1.1940549E10,5.692805E9,8.1714586E8,5.498665E9,0E0,0E0,0E0,0E0,0E0,0E0,0E0,0E0,0E0,0E0,0E0,0E0,0E0,0E0,0E0,0E0,0E0,0E0,0E0,0E0,0E0,0E0,0E0,0E0,0E0,0E0,0E0,0E0,0E0,0E0,0E0,0E0,0E0,0E0,0E0,0E0,0E0,0E0,0E0,0E0,0E0,0E0,0E0,0E0,0E0,0E0,0E0,0E0,0E0,0E0,0E0,0E0,0E0,0E0,0E0,0E0,0E0,0E0,0E0,0E0,0E0,0E0,0E0,0E0],"parents":[2147483647,0,0,1,1,2,2,3,3,4,4,5,5,6,6,7,7,8,8,9,9,10,10,11,11,12,12,13,13,14,14,15,15,16,16,17,17,18,18,19,19,20,20,21,21,22,22,23,23,24,24,25,25,26,26,27,27,28,28,29,29,30,30,31,31,32,32,33,33,34,34,35,35,36,36,37,37,38,38,39,39,40,40,41,41,42,42,43,43,44,44,45,45,46,46,47,47,48,48,49,49,50,50,51,51,52,52,53,53,54,54,55,55,56,56,57,57,58,58,59,59,60,60,61,61,62,62],"right_children":[2,4,6,8,10,12,14,16,18,20,22,24,26,28,30,32,34,36,38,40,42,44,46,48,50,52,54,56,58,60,62,64,66,68,70,72,74,76,78,80,82,84,86,88,90,92,94,96,98,100,102,104,106,108,110,112,114,116,118,120,122,124,126,-1,-1,-1,-1,-1,-1,-1,-1,-1,-1,-1,-1,-1,-1,-1,-1,-1,-1,-1,-1,-1,-1,-1,-1,-1,-1,-1,-1,-1,-1,-1,-1,-1,-1,-1,-1,-1,-1,-1,-1,-1,-1,-1,-1,-1,-1,-1,-1,-1,-1,-1,-1,-1,-1,-1,-1,-1,-1,-1,-1,-1,-1,-1,-1],"split_conditions":[1.34079E2,1E0,1.2964103E1,2.68255E2,1.1575E1,1.1556641E4,3.3792984E1,9.04937E2,3.421339E3,1.5776E1,3.599356E1,1.1813856E4,1.2949653E4,6.774602E3,6.15541E2,2.66588E2,3.497059E1,1.3265172E4,2.6542307E1,1.438065E3,9.489855E0,6.963078E3,5.178722E3,9.881307E3,3.7910812E1,1.379927E4,1.2469048E1,5.1717228E1,2.8602034E1,8.1307E1,4.3505424E1,1.9690102E1,-8.3146966E-1,9.489855E0,1.2880198E4,3.4396553E1,4.945574E1,6.0540676E1,9.659258E-1,1.348161E3,1.2484271E4,3.7408165E1,6.43615E2,1.1551301E4,6.457466E1,6.268361E3,5.221051E1,2.095474E3,1.4446E1,1.2626248E4,2.14E1,8.1307E1,7.972981E3,1.182781E3,9.711837E3,2.1418182E1,2.8608622E1,3.5345425E1,4.6371E2,4.4199326E1,5.2202034E1,2.2916363E1,1.6836975E4,-5.6625843E1,-3.794229E1,7.1385207E0,-2.3679241E1,-1.1683446E1,1.2423071E1,-2.6285532E1,3.053649E1,4.655845E-1,-1.9906542E1,9.853536E1,2.4367805E1,1.8455877E1,-7.56976E1,2.708762E1,1.0039626E2,-5.8907593E1,-1.4609085E1,-6.7414737E0,7.949219E1,2.1762308E1,-6.56735E1,1.0357391E2,6.036506E1,1.5015398E1,5.223289E1,4.532362E1,-5.313023E1,-2.5456814E1,4.8796566E1,7.264249E1,2.322309E1,-1.9607826E1,-1.9373312E0,2.594498E1,-5.563677E1,4.0904743E1,5.9944447E1,8.000888E1,1.0135897E2,-7.369866E1,2.8520126E1,4.531017E1,7.767684E1,5.4055447E1,8.431421E1,4.272775E1,8.307752E1,2.0783339E1,4.5882034E1,2.375529E1,-2.7641117E1,3.6128075E1,5.83231E1,3.973621E1,-2.3220697E1,1.08610115E1,-2.095043E1,1.1760741E1,5.0692833E1,6.431805E1,1.25985E2,2.8286087E1,9.247543E1],"split_indices":[475,237,286,390,476,435,271,140,285,51,21,0,420,475,360,315,411,25,161,210,461,185,315,395,6,455,286,21,326,85,466,476,229,461,265,171,451,346,79,235,180,131,55,280,216,110,331,475,256,0,166,0,0,20,0,291,276,86,175,11,71,206,355,0,0,0,0,0,0,0,0,0,0,0,0,0,0,0,0,0,0,0,0,0,0,0,0,0,0,0,0,0,0,0,0,0,0,0,0,0,0,0,0,0,0,0,0,0,0,0,0,0,0,0,0,0,0,0,0,0,0,0,0,0,0,0,0],"split_type":[0,0,0,0,0,0,0,0,0,0,0,0,0,0,0,0,0,0,0,0,0,0,0,0,0,0,0,0,0,0,0,0,0,0,0,0,0,0,0,0,0,0,0,0,0,0,0,0,0,0,0,0,0,0,0,0,0,0,0,0,0,0,0,0,0,0,0,0,0,0,0,0,0,0,0,0,0,0,0,0,0,0,0,0,0,0,0,0,0,0,0,0,0,0,0,0,0,0,0,0,0,0,0,0,0,0,0,0,0,0,0,0,0,0,0,0,0,0,0,0,0,0,0,0,0,0,0],"sum_hessian":[3.73548E6,2.681407E6,1.054073E6,1.677961E6,1.003446E6,2.28042E5,8.26031E5,1.406446E6,2.71515E5,1.57002E5,8.46444E5,2.09541E5,1.8501E4,5.78702E5,2.47329E5,1.17551E6,2.30936E5,2.1161E5,5.9905E4,1.48086E5,8.916E3,7.2379E5,1.22654E5,2.06165E5,3.376E3,9.529E3,8.972E3,2.65662E5,3.1304E5,2.01679E5,4.565E4,1.093372E6,8.2138E4,1.57628E5,7.3308E4,2.03811E5,7.799E3,4.4173E4,1.5732E4,2.5431E4,1.22655E5,2.175E3,6.741E3,4.33795E5,2.89995E5,9.3735E4,2.8919E4,1.92536E5,1.3629E4,1.079E3,2.297E3,6.907E3,2.622E3,6.968E3,2.004E3,2.34835E5,3.0827E4,1.9981E5,1.1323E5,1.54516E5,4.7163E4,5.05E3,4.06E4,2.2123E5,8.72142E5,3.5011E4,4.7127E4,5.0253E4,1.07375E5,6.9595E4,3.713E3,1.0397E5,9.9841E4,2.151E3,5.648E3,4.1869E4,2.304E3,8.358E3,7.374E3,9.623E3,1.5808E4,1.21126E5,1.529E3,1.394E3,7.81E2,1.403E3,5.338E3,3.26018E5,1.07777E5,2.8844E5,1.555E3,8.5485E4,8.25E3,4.533E3,2.4386E4,4.6867E4,1.45669E5,1.332E4,3.09E2,6.15E2,4.64E2,1.702E3,5.95E2,1.66E2,6.741E3,2.92E2,2.33E3,3.2E2,6.648E3,1.532E3,4.72E2,7.6927E4,1.57908E5,1.0753E4,2.0074E4,3.6132E4,1.63678E5,1.05701E5,7.529E3,3.9696E4,1.1482E5,1.2941E4,3.4222E4,6.15E2,4.435E3,3.6933E4,3.667E3],"tree_param":{"num_deleted":"0","num_feature":"480","num_nodes":"127","size_leaf_vector":"1"}},{"base_weights":[1.646743E0,-1.8141739E2,4.6756497E2,-5.362264E2,4.128791E2,3.432032E2,8.9735675E2,-6.33829E2,-1.7880857E1,2.837698E2,8.260845E2,1.7998392E2,8.096696E2,7.823991E2,1.1374093E3,-7.477962E2,-4.270983E0,-1.7208055E2,3.7007678E2,1.3264641E2,8.018113E2,6.9938434E2,1.1082053E3,-1.26470055E2,3.154234E2,8.696885E2,-2.9854175E2,5.503166E2,1.0314698E3,1.3300914E3,5.9673175E2,-7.936271E2,-2.5561922E2,1.5274731E2,-3.913496E2,-2.8973865E2,4.534458E2,4.4706467E2,-8.721838E2,4.1463497E1,7.839244E2,5.5229706E2,9.860174E2,4.707468E2,1.0358052E3,1.4690918E3,8.3811786E2,-2.782241E2,2.7348757E1,5.80272E2,-6.636894E1,7.483164E2,1.1896323E3,-4.837734E2,1.7081234E3,6.6844073E2,1.5141461E2,1.0725101E3,-1.202195E3,1.1180092E3,1.7058196E3,2.0691108E3,4.2027197E2,-5.3627735E1,-3.622085E1,2.9834723E0,-2.2270786E1,-3.9417596E0,2.4723558E1,-2.1858534E1,8.111618E1,-1.7880156E1,6.128595E0,6.753312E1,1.3860524E1,6.9062867E0,3.5710796E1,-7.34504E1,-6.4711914E0,-4.0215983E0,1.5725351E1,4.7763535E1,8.580481E0,2.9910498E1,-1.0308093E2,5.9641567E1,2.900174E1,3.5158234E1,6.5909953E0,5.4718624E1,-5.10909E1,5.899711E1,1.0202017E2,2.6716856E1,7.974155E1,-2.775366E1,-8.943435E0,1.6814833E1,-1.8633708E0,3.6204414E1,4.2796717E0,-1.1157294E1,4.701648E1,2.3363913E1,5.484454E1,6.994568E1,2.929582E1,-1.52998705E1,-4.7133656E1,1.01444115E2,5.596708E0,2.1190262E1,4.971288E1,3.5363914E1,-3.573042E0,5.503776E1,-8.163336E1,-9.3085014E1,3.745842E0,6.3419624E1,-6.1999744E1,9.02586E1,3.0020247E1,1.13942345E2,4.1904114E1,-6.5804954E0,4.452415E1],"categories":[],"categories_nodes":[],"categories_segments":[],"categories_sizes":[],"default_left":[0,0,0,0,0,0,0,0,0,0,0,0,0,0,0,0,0,0,0,0,0,0,0,0,0,0,0,0,0,0,0,0,0,0,0,0,0,0,0,0,0,0,0,0,0,0,0,0,0,0,0,0,0,0,0,0,0,0,0,0,0,0,0,0,0,0,0,0,0,0,0,0,0,0,0,0,0,0,0,0,0,0,0,0,0,0,0,0,0,0,0,0,0,0,0,0,0,0,0,0,0,0,0,0,0,0,0,0,0,0,0,0,0,0,0,0,0,0,0,0,0,0,0,0,0,0,0],"id":8,"left_children":[1,3,5,7,9,11,13,15,17,19,21,23,25,27,29,31,33,35,37,39,41,43,45,47,49,51,53,55,57,59,61,63,65,67,69,71,73,75,77,79,81,83,85,87,89,91,93,95,97,99,101,103,105,107,109,111,113,115,117,119,121,123,125,-1,-1,-1,-1,-1,-1,-1,-1,-1,-1,-1,-1,-1,-1,-1,-1,-1,-1,-1,-1,-1,-1,-1,-1,-1,-1,-1,-1,-1,-1,-1,-1,-1,-1,-1,-1,-1,-1,-1,-1,-1,-1,-1,-1,-1,-1,-1,-1,-1,-1,-1,-1,-1,-1,-1,-1,-1,-1,-1,-1,-1,-1,-1,-1],"loss_changes":[3.186153E11,5.654945E11,5.6320508E10,8.495717E10,5.3485044E10,6.2221943E10,6.524764E9,1.0139343E11,1.5918711E10,5.9802833E10,8.5307884E9,2.5128208E10,1.409024E10,9.242567E9,7.9762964E9,2.6990543E10,1.3165335E10,1.4014268E10,7.2386365E9,3.5118666E10,7.9285535E9,1.2668895E10,7.2085996E9,4.3314186E9,4.2454475E10,7.8025523E9,4.0463862E9,3.9002993E9,7.071539E9,4.4964823E9,5.2266214E9,2.1130576E10,6.099707E9,1.2195171E10,5.7685125E9,4.484565E9,4.766348E9,5.881811E9,1.9578529E9,1.7265228E10,7.619707E9,8.794667E9,8.332116E9,7.7249065E9,8.032592E9,5.227815E9,9.724924E9,2.569169E9,1.8396658E9,1.7635688E10,2.7140633E10,1.4271578E10,6.981714E9,8.1266995E8,4.7080525E8,5.0899476E9,2.343151E9,5.788631E9,1.1725679E9,1.2798181E10,2.2356214E9,5.539758E8,4.66283E9,0E0,0E0,0E0,0E0,0E0,0E0,0E0,0E0,0E0,0E0,0E0,0E0,0E0,0E0,0E0,0E0,0E0,0E0,0E0,0E0,0E0,0E0,0E0,0E0,0E0,0E0,0E0,0E0,0E0,0E0,0E0,0E0,0E0,0E0,0E0,0E0,0E0,0E0,0E0,0E0,0E0,0E0,0E0,0E0,0E0,0E0,0E0,0E0,0E0,0E0,0E0,0E0,0E0,0E0,0E0,0E0,0E0,0E0,0E0,0E0,0E0,0E0,0E0,0E0],"parents":[2147483647,0,0,1,1,2,2,3,3,4,4,5,5,6,6,7,7,8,8,9,9,10,10,11,11,12,12,13,13,14,14,15,15,16,16,17,17,18,18,19,19,20,20,21,21,22,22,23,23,24,24,25,25,26,26,27,27,28,28,29,29,30,30,31,31,32,32,33,33,34,34,35,35,36,36,37,37,38,38,39,39,40,40,41,41,42,42,43,43,44,44,45,45,46,46,47,47,48,48,49,49,50,50,51,51,52,52,53,53,54,54,55,55,56,56,57,57,58,58,59,59,60,60,61,61,62,62],"right_children":[2,4,6,8,10,12,14,16,18,20,22,24,26,28,30,32,34,36,38,40,42,44,46,48,50,52,54,56,58,60,62,64,66,68,70,72,74,76,78,80,82,84,86,88,90,92,94,96,98,100,102,104,106,108,110,112,114,116,118,120,122,124,126,-1,-1,-1,-1,-1,-1,-1,-1,-1,-1,-1,-1,-1,-1,-1,-1,-1,-1,-1,-1,-1,-1,-1,-1,-1,-1,-1,-1,-1,-1,-1,-1,-1,-1,-1,-1,-1,-1,-1,-1,-1,-1,-1,-1,-1,-1,-1,-1,-1,-1,-1,-1,-1,-1,-1,-1,-1,-1,-1,-1,-1,-1,-1,-1],"split_conditions":[1.34079E2,1E0,9.932147E3,1.437003E3,9.913787E3,9.041936E3,1.3556619E4,4.36811E2,8.422837E3,9.871528E3,2.94996E2,1.3254717E1,4.502162E1,1.1556641E4,5.6721577E1,2.68255E2,3.7058445E1,7.28397E2,6.1975E1,1.0409793E4,6.73113E2,1.3044326E4,5.1474323E1,4.510768E3,3.356923E1,1.3684537E4,1.4170955E4,5.049322E1,6.457466E1,2.4437037E1,5.404E1,2.048919E1,3.3938984E1,3.1438597E1,8.1307E1,1.1324695E4,9.2387956E-1,5.14174E2,3.4498077E1,7.69037E2,2.8617966E1,1.6836975E4,5.220983E1,3.2553402E1,6.457466E1,2.3326666E1,1.6655645E4,1.441206E3,2.7007547E1,5.2769257E1,6.97577E2,8.454523E3,2.8603449E1,6.1975E1,4.254746E1,2.250351E1,3.71464E2,6.457466E1,5.299527E1,2.3829824E1,8.1307E1,6.0127117E1,2.7759588E1,-5.3627735E1,-3.622085E1,2.9834723E0,-2.2270786E1,-3.9417596E0,2.4723558E1,-2.1858534E1,8.111618E1,-1.7880156E1,6.128595E0,6.753312E1,1.3860524E1,6.9062867E0,3.5710796E1,-7.34504E1,-6.4711914E0,-4.0215983E0,1.5725351E1,4.7763535E1,8.580481E0,2.9910498E1,-1.0308093E2,5.9641567E1,2.900174E1,3.5158234E1,6.5909953E0,5.4718624E1,-5.10909E1,5.899711E1,1.0202017E2,2.6716856E1,7.974155E1,-2.775366E1,-8.943435E0,1.6814833E1,-1.8633708E0,3.6204414E1,4.2796717E0,-1.1157294E1,4.701648E1,2.3363913E1,5.484454E1,6.994568E1,2.929582E1,-1.52998705E1,-4.7133656E1,1.01444115E2,5.596708E0,2.1190262E1,4.971288E1,3.5363914E1,-3.573042E0,5.503776E1,-8.163336E1,-9.3085014E1,3.745842E0,6.3419624E1,-6.1999744E1,9.02586E1,3.0020247E1,1.13942345E2,4.1904114E1,-6.5804954E0,4.452415E1],"split_indices":[475,247,425,60,200,60,455,315,120,310,335,276,251,385,1,395,121,435,111,145,410,155,296,435,266,85,105,361,406,261,466,186,176,221,205,20,368,15,296,355,461,315,391,356,196,36,245,475,1,1,360,475,376,161,16,311,10,436,1,276,305,41,276,0,0,0,0,0,0,0,0,0,0,0,0,0,0,0,0,0,0,0,0,0,0,0,0,0,0,0,0,0,0,0,0,0,0,0,0,0,0,0,0,0,0,0,0,0,0,0,0,0,0,0,0,0,0,0,0,0,0,0,0,0,0,0,0],"split_type":[0,0,0,0,0,0,0,0,0,0,0,0,0,0,0,0,0,0,0,0,0,0,0,0,0,0,0,0,0,0,0,0,0,0,0,0,0,0,0,0,0,0,0,0,0,0,0,0,0,0,0,0,0,0,0,0,0,0,0,0,0,0,0,0,0,0,0,0,0,0,0,0,0,0,0,0,0,0,0,0,0,0,0,0,0,0,0,0,0,0,0,0,0,0,0,0,0,0,0,0,0,0,0,0,0,0,0,0,0,0,0,0,0,0,0,0,0,0,0,0,0,0,0,0,0,0,0],"sum_hessian":[3.73554E6,2.681824E6,1.053716E6,1.679264E6,1.00256E6,8.17245E5,2.36471E5,1.413169E6,2.66095E5,7.63881E5,2.38679E5,6.0541E5,2.11835E5,1.59901E5,7.657E4,1.196559E6,2.1661E5,1.90413E5,7.5682E4,5.91368E5,1.72513E5,1.64711E5,7.3968E4,1.85557E5,4.19853E5,2.00952E5,1.0883E4,8.2775E4,7.7126E4,5.6451E4,2.0119E4,1.094628E6,1.01931E5,1.541E5,6.251E4,1.60268E5,3.0145E4,7.1266E4,4.416E3,5.18742E5,7.2626E4,7.327E4,9.9243E4,9.8066E4,6.6645E4,3.166E4,4.2308E4,9.3405E4,9.2152E4,2.47891E5,1.71962E5,1.45688E5,5.5264E4,9.964E3,9.19E2,6.3863E4,1.8912E4,7.5735E4,1.391E3,3.6086E4,2.0365E4,2.152E3,1.7967E4,2.1761E5,8.77018E5,3.8303E4,6.3628E4,9.1853E4,6.2247E4,6.112E4,1.39E3,1.37617E5,2.2651E4,4.948E3,2.5197E4,3.3049E4,3.8217E4,2.448E3,1.968E3,3.58636E5,1.60106E5,5.6746E4,1.588E4,7.2006E4,1.264E3,6.5748E4,3.3495E4,5.8173E4,3.9893E4,6.4801E4,1.844E3,2.1023E4,1.0637E4,3.019E4,1.2118E4,2.4667E4,6.8738E4,1.5939E4,7.6213E4,1.92055E5,5.5836E4,1.48791E5,2.3171E4,8.0659E4,6.5029E4,4.1037E4,1.4227E4,7.183E3,2.781E3,7.65E2,1.54E2,3.6477E4,2.7386E4,5.412E3,1.35E4,7.4953E4,7.82E2,9.17E2,4.74E2,3.3923E4,2.163E3,1.8685E4,1.68E3,1.838E3,3.14E2,8.266E3,9.701E3],"tree_param":{"num_deleted":"0","num_feature":"480","num_nodes":"127","size_leaf_vector":"1"}},{"base_weights":[7.988171E-1,-1.7453716E2,4.4698874E2,-5.134233E2,3.9177448E2,3.2898495E2,8.5506244E2,-5.901554E2,1.4466069E2,-9.611446E1,4.916221E2,1.7395801E2,7.715482E2,8.280129E2,1.6748612E3,-6.883038E2,-2.7577984E1,2.8687836E2,-3.4066254E2,-1.7765558E2,9.157748E2,6.0320886E2,-1.5197453E2,-1.313509E2,3.0239075E2,5.3133203E2,1.0210856E3,9.349565E2,4.365881E2,1.8013789E3,-2.4762143E2,-7.4453705E2,-2.431356E2,-1.5798553E2,3.3721973E2,1.8247809E2,7.846362E2,-5.221385E2,-1.05216545E2,-2.0070352E2,1.6219393E3,-2.4936502E2,1.2404976E3,5.0948425E2,9.530531E2,-3.5975E2,5.2552594E2,-2.71088E2,1.0782602E1,5.516345E2,-6.5880516E1,1.480911E2,9.593591E2,9.661819E2,1.6916394E3,4.8431583E2,1.00816595E3,3.1690247E2,1.6896487E3,1.5580931E3,2.1836873E3,-4.091537E1,3.305776E1,-5.0502136E1,-3.3992397E1,-7.149708E1,-1.0329047E1,-1.5478366E1,2.2056845E1,2.072318E1,-4.30289E1,-5.7192283E0,1.877079E1,4.50159E1,-1.0097042E2,-4.723192E1,-2.0691648E1,3.231957E1,-1.7853018E1,-2.9851994E1,-6.4653296E0,6.701306E1,8.743874E1,2.6857553E1,-4.3288628E1,3.032285E1,6.923077E1,1.3860147E1,4.014137E1,4.8569714E1,-9.8673035E1,-2.3838024E1,4.1145256E1,3.7093246E1,-4.93774E0,-2.827825E1,-8.857036E0,-2.9749665E-1,8.007597E1,3.3137714E1,3.085808E-1,-1.018867E1,5.283548E1,1.8697824E1,-1.4049013E1,5.1218872E1,-2.1292326E1,5.49447E1,3.1341085E1,3.7682446E1,9.471561E1,2.09484E1,8.119024E1,5.497992E1,2.683721E1,9.051687E1,1.287957E1,5.21469E1,1.02667625E2,2.8380085E1,8.167501E1,7.953532E1,1.1290193E2,9.18899E-1,2.310133E0],"categories":[],"categories_nodes":[],"categories_segments":[],"categories_sizes":[],"default_left":[0,0,0,0,0,0,0,0,0,0,0,0,0,0,0,0,0,0,0,0,0,0,0,0,0,0,0,0,0,0,0,0,0,0,0,0,0,0,0,0,0,0,0,0,0,0,0,0,0,0,0,0,0,0,0,0,0,0,0,0,0,0,0,0,0,0,0,0,0,0,0,0,0,0,0,0,0,0,0,0,0,0,0,0,0,0,0,0,0,0,0,0,0,0,0,0,0,0,0,0,0,0,0,0,0,0,0,0,0,0,0,0,0,0,0,0,0,0,0,0,0,0,0,0,0],"id":9,"left_children":[1,3,5,7,9,11,13,15,17,19,21,23,25,27,29,31,33,35,37,39,41,43,45,47,49,51,53,55,57,59,61,63,65,67,69,71,73,75,77,79,81,83,85,87,89,91,93,95,97,99,101,103,105,107,109,111,113,115,117,119,121,-1,123,-1,-1,-1,-1,-1,-1,-1,-1,-1,-1,-1,-1,-1,-1,-1,-1,-1,-1,-1,-1,-1,-1,-1,-1,-1,-1,-1,-1,-1,-1,-1,-1,-1,-1,-1,-1,-1,-1,-1,-1,-1,-1,-1,-1,-1,-1,-1,-1,-1,-1,-1,-1,-1,-1,-1,-1,-1,-1,-1,-1,-1,-1],"loss_changes":[2.922297E11,5.146401E11,5.074318E10,8.4715995E10,4.8906207E10,5.6081105E10,5.240144E9,8.296104E10,1.209191E10,1.4072671E10,5.985085E10,2.37369E10,1.2710347E10,9.578136E9,1.8365747E9,3.2024625E10,1.0617685E10,7.0405806E9,1.6963661E9,6.546882E9,4.812511E9,2.3287546E10,1.733464E10,3.5601057E9,3.911192E10,1.7723292E10,3.8274417E9,5.928616E9,7.363757E9,6.553887E8,7.483096E7,1.950738E10,6.224209E9,1.4931657E10,5.4383683E9,6.4148393E9,7.6214303E9,1.0255734E9,3.2716915E9,4.409786E9,6.896691E7,1.3448556E9,9.0808115E8,3.8168707E10,8.057053E9,1.304175E10,3.9034696E9,2.500457E9,2.3652813E9,1.5402582E10,2.6623318E10,5.5246915E9,4.597293E9,4.329054E9,1.494698E9,1.8696847E9,6.663209E9,3.9699174E9,1.0047969E9,3.2262963E8,1.1774157E8,0E0,5.9741688E4,0E0,0E0,0E0,0E0,0E0,0E0,0E0,0E0,0E0,0E0,0E0,0E0,0E0,0E0,0E0,0E0,0E0,0E0,0E0,0E0,0E0,0E0,0E0,0E0,0E0,0E0,0E0,0E0,0E0,0E0,0E0,0E0,0E0,0E0,0E0,0E0,0E0,0E0,0E0,0E0,0E0,0E0,0E0,0E0,0E0,0E0,0E0,0E0,0E0,0E0,0E0,0E0,0E0,0E0,0E0,0E0,0E0,0E0,0E0,0E0,0E0,0E0],"parents":[2147483647,0,0,1,1,2,2,3,3,4,4,5,5,6,6,7,7,8,8,9,9,10,10,11,11,12,12,13,13,14,14,15,15,16,16,17,17,18,18,19,19,20,20,21,21,22,22,23,23,24,24,25,25,26,26,27,27,28,28,29,29,30,30,31,31,32,32,33,33,34,34,35,35,36,36,37,37,38,38,39,39,40,40,41,41,42,42,43,43,44,44,45,45,46,46,47,47,48,48,49,49,50,50,51,51,52,52,53,53,54,54,55,55,56,56,57,57,58,58,59,59,60,60,62,62],"right_children":[2,4,6,8,10,12,14,16,18,20,22,24,26,28,30,32,34,36,38,40,42,44,46,48,50,52,54,56,58,60,62,64,66,68,70,72,74,76,78,80,82,84,86,88,90,92,94,96,98,100,102,104,106,108,110,112,114,116,118,120,122,-1,124,-1,-1,-1,-1,-1,-1,-1,-1,-1,-1,-1,-1,-1,-1,-1,-1,-1,-1,-1,-1,-1,-1,-1,-1,-1,-1,-1,-1,-1,-1,-1,-1,-1,-1,-1,-1,-1,-1,-1,-1,-1,-1,-1,-1,-1,-1,-1,-1,-1,-1,-1,-1,-1,-1,-1,-1,-1,-1,-1,-1,-1,-1],"split_conditions":[1.34079E2,1E0,9.932147E3,2.351633E3,1.1866667E1,9.041936E3,1.6655645E4,2.009794E3,3.6908474E1,1.8878845E1,3.599356E1,1.2964103E1,6.972575E3,4.9966892E1,4.188919E1,1.34079E2,5.987538E3,1.1449309E4,4.64255E3,1.2484271E4,9.489855E0,1.1551301E4,5.16899E3,4.510768E3,3.3554718E1,1.1433387E4,1.6836975E4,4.2138645E1,1.6836975E4,6.0881016E1,2.66588E2,2.045283E1,2.2938095E1,6.15541E2,6.1434578E1,1.8970371E1,1.7642398E4,3.7767906E1,4.636081E1,1.287617E3,1.212449E1,2.6324074E1,9.405797E0,6.707207E3,6.457466E1,6.82621E3,5.5043583E1,1.441206E3,4.5027798E1,5.4342373E1,7.585507E3,2.8942308E1,5.8495934E1,5.3528137E1,4.692196E1,1.4179859E4,5.7395607E1,5.1717567E1,5.016632E3,5.297279E3,2.857755E1,-4.091537E1,1.390703E3,-5.0502136E1,-3.3992397E1,-7.149708E1,-1.0329047E1,-1.5478366E1,2.2056845E1,2.072318E1,-4.30289E1,-5.7192283E0,1.877079E1,4.50159E1,-1.0097042E2,-4.723192E1,-2.0691648E1,3.231957E1,-1.7853018E1,-2.9851994E1,-6.4653296E0,6.701306E1,8.743874E1,2.6857553E1,-4.3288628E1,3.032285E1,6.923077E1,1.3860147E1,4.014137E1,4.8569714E1,-9.8673035E1,-2.3838024E1,4.1145256E1,3.7093246E1,-4.93774E0,-2.827825E1,-8.857036E0,-2.9749665E-1,8.007597E1,3.3137714E1,3.085808E-1,-1.018867E1,5.283548E1,1.8697824E1,-1.4049013E1,5.1218872E1,-2.1292326E1,5.49447E1,3.1341085E1,3.7682446E1,9.471561E1,2.09484E1,8.119024E1,5.497992E1,2.683721E1,9.051687E1,1.287957E1,5.21469E1,1.02667625E2,2.8380085E1,8.167501E1,7.953532E1,1.1290193E2,9.18899E-1,2.310133E0],"split_indices":[470,232,420,285,476,55,355,45,96,61,16,281,475,351,26,370,130,345,260,170,461,270,310,430,261,90,35,436,385,376,0,136,406,420,121,211,335,386,121,210,411,241,11,180,301,115,251,475,461,1,355,371,51,11,1,380,1,426,465,300,51,0,0,0,0,0,0,0,0,0,0,0,0,0,0,0,0,0,0,0,0,0,0,0,0,0,0,0,0,0,0,0,0,0,0,0,0,0,0,0,0,0,0,0,0,0,0,0,0,0,0,0,0,0,0,0,0,0,0,0,0,0,0,0,0],"split_type":[0,0,0,0,0,0,0,0,0,0,0,0,0,0,0,0,0,0,0,0,0,0,0,0,0,0,0,0,0,0,0,0,0,0,0,0,0,0,0,0,0,0,0,0,0,0,0,0,0,0,0,0,0,0,0,0,0,0,0,0,0,0,0,0,0,0,0,0,0,0,0,0,0,0,0,0,0,0,0,0,0,0,0,0,0,0,0,0,0,0,0,0,0,0,0,0,0,0,0,0,0,0,0,0,0,0,0,0,0,0,0,0,0,0,0,0,0,0,0,0,0,0,0,0,0],"sum_hessian":[3.735368E6,2.6816E6,1.053768E6,1.677668E6,1.003932E6,8.174E5,2.36368E5,1.50248E6,1.75188E5,1.70553E5,8.33379E5,6.05351E5,2.12049E5,2.2882E5,7.548E3,1.279292E6,2.23188E5,1.35486E5,3.9702E4,1.57835E5,1.2718E4,7.10238E5,1.23141E5,1.79247E5,4.26104E5,1.08044E5,1.04005E5,1.79717E5,4.9103E4,7.082E3,4.66E2,1.135816E6,1.43476E5,1.64414E5,5.8774E4,1.11997E5,2.3489E4,2.242E4,1.7282E4,1.5584E5,1.995E3,2.772E3,9.946E3,5.60169E5,1.50069E5,9.424E4,2.8901E4,9.0385E4,8.8862E4,2.54118E5,1.71986E5,5.7005E4,5.1039E4,9.6136E4,7.869E3,2.5117E4,1.546E5,4.4823E4,4.28E3,4.331E3,2.751E3,1.53E2,3.13E2,2.22517E5,9.13299E5,4.286E3,1.3919E5,1.31216E5,3.3198E4,5.5214E4,3.56E3,4.4117E4,6.788E4,2.2559E4,9.3E2,4.573E3,1.7847E4,4.337E3,1.2945E4,2.3787E4,1.32053E5,6.23E2,1.372E3,1.218E3,1.554E3,1.843E3,8.103E3,3.12623E5,2.47546E5,1.49135E5,9.34E2,8.5756E4,8.484E3,2.1463E4,7.438E3,2.186E4,6.8525E4,8.7938E4,9.24E2,2.11111E5,4.3007E4,1.53172E5,1.8814E4,3.7346E4,1.9659E4,4.8751E4,2.288E3,6.9108E4,2.7028E4,1.399E3,6.47E3,2.3756E4,1.361E3,1.29485E5,2.5115E4,1.711E3,4.3112E4,1.542E3,2.738E3,3.07E2,4.024E3,3.09E2,2.442E3,1.49E2,1.64E2],"tree_param":{"num_deleted":"0","num_feature":"480","num_nodes":"125","size_leaf_vector":"1"}},{"base_weights":[1.3525294E0,-1.6596904E2,4.2705606E2,-4.9487375E2,3.8270193E2,2.9837634E2,7.665403E2,-5.7827905E2,4.7138332E1,-1.3615959E2,4.7158807E2,1.5336066E2,8.328572E2,2.5380026E2,9.0107556E2,-6.7326544E2,-4.322647E1,-3.5196037E1,7.424264E2,-1.8472081E2,1.0177504E3,5.7556165E2,-1.3967847E2,8.594287E1,8.7626544E2,7.783688E2,1.6970217E3,5.741499E2,-2.4312834E2,7.707426E2,1.1529291E3,-9.2802905E2,-6.006145E2,1.10147896E2,-4.0433694E2,-1.0793337E2,6.403169E2,1.00333545E3,-6.064317E2,-5.389437E2,-9.8693565E1,6.231685E2,1.7165437E3,4.349487E2,7.973076E2,-2.4429697E2,9.549209E2,2.8923092E1,6.3649646E2,9.7868427E2,-2.3019644E1,8.8224634E2,3.3958997E2,1.7681205E3,2.4907016E2,-3.467166E2,9.132212E2,-3.9341147E2,2.2491844E2,1.1661125E3,6.669416E2,1.2518569E3,5.6491125E2,-4.7883472E1,2.4917723E1,-1.12825575E1,-3.4804333E1,7.898932E-1,2.8197107E1,2.105955E1,-2.3051125E1,2.0088727E0,-1.7076725E1,2.3454424E1,7.557734E1,5.7707397E1,-9.916485E1,3.6498154E1,-7.415356E1,-6.410896E1,-1.2168911E1,1.3483614E0,-1.3308133E1,9.718636E1,2.8339787E1,8.828484E1,5.3973366E1,1.3211459E1,4.7752132E1,4.4114334E1,2.683582E1,-2.4054537E1,2.1155062E1,1.5611252E2,3.582816E1,6.182915E0,-1.2381598E1,2.4142649E1,7.6159966E1,3.4335064E1,6.019325E1,8.142336E1,-1.53775E1,3.9900528E1,7.294486E1,2.085625E1,-4.1559185E1,6.6972244E1,1.04753395E2,6.93673E1,-1.5577713E1,-3.118927E1,4.8112026E1,6.1838825E1,9.86191E-1,-1.3583915E1,-4.1985306E1,-7.9052776E-1,6.1207623E1,7.4323746E1,3.9523083E1,3.1245153E1,8.440719E1,7.4897896E1,5.5111507E1,-3.5510723E1,4.867294E1],"categories":[],"categories_nodes":[],"categories_segments":[],"categories_sizes":[],"default_left":[0,0,0,0,0,0,0,0,0,0,0,0,0,0,0,0,0,0,0,0,0,0,0,0,0,0,0,0,0,0,0,0,0,0,0,0,0,0,0,0,0,0,0,0,0,0,0,0,0,0,0,0,0,0,0,0,0,0,0,0,0,0,0,0,0,0,0,0,0,0,0,0,0,0,0,0,0,0,0,0,0,0,0,0,0,0,0,0,0,0,0,0,0,0,0,0,0,0,0,0,0,0,0,0,0,0,0,0,0,0,0,0,0,0,0,0,0,0,0,0,0,0,0,0,0,0,0],"id":10,"left_children":[1,3,5,7,9,11,13,15,17,19,21,23,25,27,29,31,33,35,37,39,41,43,45,47,49,51,53,55,57,59,61,63,65,67,69,71,73,75,77,79,81,83,85,87,89,91,93,95,97,99,101,103,105,107,109,111,113,115,117,119,121,123,125,-1,-1,-1,-1,-1,-1,-1,-1,-1,-1,-1,-1,-1,-1,-1,-1,-1,-1,-1,-1,-1,-1,-1,-1,-1,-1,-1,-1,-1,-1,-1,-1,-1,-1,-1,-1,-1,-1,-1,-1,-1,-1,-1,-1,-1,-1,-1,-1,-1,-1,-1,-1,-1,-1,-1,-1,-1,-1,-1,-1,-1,-1,-1,-1],"loss_changes":[2.6611363E11,4.8397654E11,4.604838E10,7.580058E10,4.6356857E10,5.9245535E10,1.9986022E10,7.385265E10,1.2800942E10,8.237822E9,5.4539436E10,2.9302831E10,7.6800164E9,9.586935E9,7.532806E9,2.2840476E10,1.2133864E10,9.823975E9,8.332888E9,4.298809E9,1.635946E9,2.2867018E10,1.4285679E10,1.7264636E10,4.723929E9,6.9941494E9,9.9557786E8,1.1433587E10,1.6605234E9,6.206374E9,4.5521306E9,1.1577541E10,3.437491E10,6.5837737E9,3.0564557E9,6.245176E9,2.8987407E9,8.938199E9,4.497439E9,6.0552433E9,2.3886825E9,2.8148608E8,6.5168896E7,3.984887E10,6.3017124E9,1.7994942E10,5.619917E9,1.3056553E10,7.030821E9,3.0265876E9,2.4651164E9,6.026027E9,2.6670715E9,1.2896973E9,2.9015018E8,3.5747246E9,7.737047E9,9.705746E8,1.3802642E9,3.7836554E9,5.141852E9,2.465284E9,5.8733553E9,0E0,0E0,0E0,0E0,0E0,0E0,0E0,0E0,0E0,0E0,0E0,0E0,0E0,0E0,0E0,0E0,0E0,0E0,0E0,0E0,0E0,0E0,0E0,0E0,0E0,0E0,0E0,0E0,0E0,0E0,0E0,0E0,0E0,0E0,0E0,0E0,0E0,0E0,0E0,0E0,0E0,0E0,0E0,0E0,0E0,0E0,0E0,0E0,0E0,0E0,0E0,0E0,0E0,0E0,0E0,0E0,0E0,0E0,0E0,0E0,0E0,0E0,0E0,0E0],"parents":[2147483647,0,0,1,1,2,2,3,3,4,4,5,5,6,6,7,7,8,8,9,9,10,10,11,11,12,12,13,13,14,14,15,15,16,16,17,17,18,18,19,19,20,20,21,21,22,22,23,23,24,24,25,25,26,26,27,27,28,28,29,29,30,30,31,31,32,32,33,33,34,34,35,35,36,36,37,37,38,38,39,39,40,40,41,41,42,42,43,43,44,44,45,45,46,46,47,47,48,48,49,49,50,50,51,51,52,52,53,53,54,54,55,55,56,56,57,57,58,58,59,59,60,60,61,61,62,62],"right_children":[2,4,6,8,10,12,14,16,18,20,22,24,26,28,30,32,34,36,38,40,42,44,46,48,50,52,54,56,58,60,62,64,66,68,70,72,74,76,78,80,82,84,86,88,90,92,94,96,98,100,102,104,106,108,110,112,114,116,118,120,122,124,126,-1,-1,-1,-1,-1,-1,-1,-1,-1,-1,-1,-1,-1,-1,-1,-1,-1,-1,-1,-1,-1,-1,-1,-1,-1,-1,-1,-1,-1,-1,-1,-1,-1,-1,-1,-1,-1,-1,-1,-1,-1,-1,-1,-1,-1,-1,-1,-1,-1,-1,-1,-1,-1,-1,-1,-1,-1,-1,-1,-1,-1,-1,-1,-1],"split_conditions":[1.34079E2,1E0,9.239575E3,1.34079E2,1.0321622E1,1.0361455E4,8.1307E1,9.04937E2,8.785825E3,1.1256941E4,3.599356E1,1.256554E4,1.6655645E4,5.7395607E1,1.3694405E4,2.2916363E1,3.497059E1,8.66124E2,8.743669E3,1.441206E3,1.2723122E4,7.17209E3,6.82621E3,1.0266528E4,4.447798E3,5.124088E1,4.211695E1,2.6718868E1,3.346599E1,7.5183994E-1,3.520345E1,5.4031082E1,2.9998333E1,7.28088E2,3.1831633E1,3.428793E1,1.2344493E4,6.457466E1,1.4648037E4,1.438065E3,3.29534E1,1E0,1E0,1.1551301E4,2.8618181E1,5.44327E2,4.4436844E1,4.823919E1,3.256264E3,1.4298278E4,4.101613E1,1.3270642E4,6.457466E1,2.4397287E1,-9.8078537E-1,8.1307E1,8.1307E1,5.974407E1,1.0854162E4,5.1717228E1,1.6655645E4,4.89402E1,5.556746E1,-4.7883472E1,2.4917723E1,-1.12825575E1,-3.4804333E1,7.898932E-1,2.8197107E1,2.105955E1,-2.3051125E1,2.0088727E0,-1.7076725E1,2.3454424E1,7.557734E1,5.7707397E1,-9.916485E1,3.6498154E1,-7.415356E1,-6.410896E1,-1.2168911E1,1.3483614E0,-1.3308133E1,9.718636E1,2.8339787E1,8.828484E1,5.3973366E1,1.3211459E1,4.7752132E1,4.4114334E1,2.683582E1,-2.4054537E1,2.1155062E1,1.5611252E2,3.582816E1,6.182915E0,-1.2381598E1,2.4142649E1,7.6159966E1,3.4335064E1,6.019325E1,8.142336E1,-1.53775E1,3.9900528E1,7.294486E1,2.085625E1,-4.1559185E1,6.6972244E1,1.04753395E2,6.93673E1,-1.5577713E1,-3.118927E1,4.8112026E1,6.1838825E1,9.86191E-1,-1.3583915E1,-4.1985306E1,-7.9052776E-1,6.1207623E1,7.4323746E1,3.9523083E1,3.1245153E1,8.440719E1,7.4897896E1,5.5111507E1,-3.5510723E1,4.867294E1],"split_indices":[455,217,475,400,476,370,40,140,285,115,6,75,335,46,475,341,416,475,400,180,130,165,95,400,450,316,6,226,381,214,346,31,6,260,116,181,15,331,325,220,221,52,3,260,466,295,191,6,30,70,161,325,386,106,3,105,170,116,95,106,405,46,431,0,0,0,0,0,0,0,0,0,0,0,0,0,0,0,0,0,0,0,0,0,0,0,0,0,0,0,0,0,0,0,0,0,0,0,0,0,0,0,0,0,0,0,0,0,0,0,0,0,0,0,0,0,0,0,0,0,0,0,0,0,0,0,0],"split_type":[0,0,0,0,0,0,0,0,0,0,0,0,0,0,0,0,0,0,0,0,0,0,0,0,0,0,0,0,0,0,0,0,0,0,0,0,0,0,0,0,0,0,0,0,0,0,0,0,0,0,0,0,0,0,0,0,0,0,0,0,0,0,0,0,0,0,0,0,0,0,0,0,0,0,0,0,0,0,0,0,0,0,0,0,0,0,0,0,0,0,0,0,0,0,0,0,0,0,0,0,0,0,0,0,0,0,0,0,0,0,0,0,0,0,0,0,0,0,0,0,0,0,0,0,0,0,0],"sum_hessian":[3.736007E6,2.681896E6,1.054111E6,1.676754E6,1.005142E6,7.64379E5,2.89732E5,1.453143E6,2.23611E5,1.47007E5,8.58135E5,6.01249E5,1.6313E5,6.0221E4,2.29511E5,1.234063E6,2.1908E5,1.99936E5,2.3675E4,1.41071E5,5.936E3,7.33389E5,1.24746E5,5.49961E5,5.1288E4,1.53456E5,9.674E3,3.6616E4,2.3605E4,1.51246E5,7.8265E4,2.73827E5,9.60236E5,1.5377E5,6.531E4,1.80501E5,1.9435E4,1.9838E4,3.837E3,2.7565E4,1.13506E5,3.795E3,2.141E3,4.488E5,2.84589E5,1.13864E5,1.0882E4,4.98349E5,5.1612E4,4.6044E4,5.244E3,1.2408E5,2.9376E4,9.221E3,4.53E2,9.854E3,2.6762E4,1.7868E4,5.737E3,3.1449E4,1.19797E5,6.6993E4,1.1272E4,2.68253E5,5.574E3,1.94875E5,7.65361E5,1.27303E5,2.6467E4,4.196E3,6.1114E4,1.10464E5,7.0037E4,1.6244E4,3.191E3,1.8885E4,9.53E2,1.52E3,2.317E3,7.842E3,1.9723E4,6.4848E4,4.8658E4,1.54E2,3.641E3,1.986E3,1.55E2,3.3789E5,1.1091E5,2.14604E5,6.9985E4,8.4045E4,2.9819E4,1.077E3,9.805E3,3.71195E5,1.27154E5,4.3991E4,7.621E3,2.005E4,2.5994E4,7.7E2,4.474E3,1.08267E5,1.5813E4,2.7552E4,1.824E3,3.992E3,5.229E3,1.49E2,3.04E2,8.133E3,1.721E3,1.9647E4,7.115E3,1.404E4,3.828E3,4.624E3,1.113E3,1.6972E4,1.4477E4,1.15062E5,4.735E3,2.5327E4,4.1666E4,2.735E3,8.537E3],"tree_param":{"num_deleted":"0","num_feature":"480","num_nodes":"127","size_leaf_vector":"1"}},{"base_weights":[-5.8514714E-1,-1.5969684E2,4.040377E2,-4.6227414E2,3.545099E2,2.9401425E2,7.7932574E2,-5.5120996E2,-6.889478E0,-9.134339E1,4.4910855E2,2.0486407E2,8.3577356E2,8.4599554E2,-1.5662602E2,-6.555764E2,-1.0074924E0,-1.4217871E2,3.363724E2,-1.6502657E2,9.8426056E2,5.490917E2,-1.3014076E2,7.4209885E1,7.681361E2,7.7473193E2,1.6397407E3,7.128892E2,1.1078439E3,-3.810134E2,8.3832666E2,-6.931078E2,-2.2000603E2,-1.3142815E2,3.744468E2,-2.3532535E2,4.8217657E2,8.018955E1,6.758967E2,-2.0458276E2,6.3273224E2,2.7220004E2,1.1915284E3,4.051097E2,7.4474945E2,-3.3350986E2,4.403543E2,-1.27930565E2,1.7478394E2,7.058153E2,1.4540435E3,8.97272E2,3.540365E2,9.617233E2,1.8591116E3,8.3010956E2,4.4445685E2,1.3403434E3,8.479752E2,-6.299328E2,5.045692E0,9.477354E1,1.3785978E3,-4.7002956E1,-3.1570118E1,4.392189E0,-2.1032959E1,-4.3926246E-2,-2.152972E1,1.1782812E1,6.2548176E1,-1.613442E1,-3.3274028E-1,1.3717086E1,6.498238E1,-1.1994885E0,2.7224485E1,5.6285492E1,4.1434693E0,-3.0475992E1,-7.225185E0,6.182799E1,-3.791965E1,2.528713E1,4.4195237E0,2.2722406E1,6.388989E1,1.2293521E1,4.2971905E1,3.589632E1,7.789738E1,-2.3684896E1,4.4329464E1,-1.3334473E1,2.9259064E1,-1.831018E1,-2.4149377E0,2.0783987E1,-5.1350265E0,4.0801586E1,1.301444E1,5.4518154E1,8.448984E1,3.7876247E1,6.0831093E1,-4.4674976E1,3.7911854E1,8.5133446E1,4.4952526E1,4.502888E1,9.6783485E1,2.762234E1,5.4011665E1,4.5850273E1,9.20629E0,5.7197693E1,9.13192E1,1.5026941E1,5.5699726E1,-5.9099476E1,-2.366532E1,5.0570602E1,-1.6092388E1,9.790084E1,-8.759965E0,-1.1820126E0,9.429286E1],"categories":[],"categories_nodes":[],"categories_segments":[],"categories_sizes":[],"default_left":[0,0,0,0,0,0,0,0,0,0,0,0,0,0,0,0,0,0,0,0,0,0,0,0,0,0,0,0,0,0,0,0,0,0,0,0,0,0,0,0,0,0,0,0,0,0,0,0,0,0,0,0,0,0,0,0,0,0,0,0,0,0,0,0,0,0,0,0,0,0,0,0,0,0,0,0,0,0,0,0,0,0,0,0,0,0,0,0,0,0,0,0,0,0,0,0,0,0,0,0,0,0,0,0,0,0,0,0,0,0,0,0,0,0,0,0,0,0,0,0,0,0,0,0,0,0,0],"id":11,"left_children":[1,3,5,7,9,11,13,15,17,19,21,23,25,27,29,31,33,35,37,39,41,43,45,47,49,51,53,55,57,59,61,63,65,67,69,71,73,75,77,79,81,83,85,87,89,91,93,95,97,99,101,103,105,107,109,111,113,115,117,119,121,123,125,-1,-1,-1,-1,-1,-1,-1,-1,-1,-1,-1,-1,-1,-1,-1,-1,-1,-1,-1,-1,-1,-1,-1,-1,-1,-1,-1,-1,-1,-1,-1,-1,-1,-1,-1,-1,-1,-1,-1,-1,-1,-1,-1,-1,-1,-1,-1,-1,-1,-1,-1,-1,-1,-1,-1,-1,-1,-1,-1,-1,-1,-1,-1,-1],"loss_changes":[2.4046515E11,4.171091E11,4.352862E10,6.835359E10,4.1887277E10,3.937303E10,1.4913421E10,8.107989E10,1.2806197E10,1.3777188E10,4.744962E10,5.151734E10,5.651882E9,7.7752074E9,3.5485087E9,1.9401933E10,1.1024088E10,1.1503544E10,6.780844E9,5.1340247E9,1.6445348E9,1.9682722E10,1.3992404E10,1.1552023E10,5.633016E9,5.519155E9,1.2071485E9,4.653949E9,4.5416694E9,1.2462931E9,1.1749009E9,1.6650207E10,5.816089E9,6.525913E9,7.0606474E9,3.4385603E9,4.3624786E9,2.1493066E9,8.943017E9,3.7709117E9,6.457177E9,1.0787469E8,5.4830694E8,2.9119574E10,6.4595886E9,1.5207539E10,3.2455905E9,3.5820485E9,2.536338E10,5.9328717E9,9.393152E8,3.6993802E9,1.2179942E10,9.083277E7,4.4882944E8,7.149699E9,5.531013E9,3.785687E9,5.1704996E9,6.812301E8,1.6731611E9,6.2006995E8,1.2049843E9,0E0,0E0,0E0,0E0,0E0,0E0,0E0,0E0,0E0,0E0,0E0,0E0,0E0,0E0,0E0,0E0,0E0,0E0,0E0,0E0,0E0,0E0,0E0,0E0,0E0,0E0,0E0,0E0,0E0,0E0,0E0,0E0,0E0,0E0,0E0,0E0,0E0,0E0,0E0,0E0,0E0,0E0,0E0,0E0,0E0,0E0,0E0,0E0,0E0,0E0,0E0,0E0,0E0,0E0,0E0,0E0,0E0,0E0,0E0,0E0,0E0,0E0,0E0,0E0],"parents":[2147483647,0,0,1,1,2,2,3,3,4,4,5,5,6,6,7,7,8,8,9,9,10,10,11,11,12,12,13,13,14,14,15,15,16,16,17,17,18,18,19,19,20,20,21,21,22,22,23,23,24,24,25,25,26,26,27,27,28,28,29,29,30,30,31,31,32,32,33,33,34,34,35,35,36,36,37,37,38,38,39,39,40,40,41,41,42,42,43,43,44,44,45,45,46,46,47,47,48,48,49,49,50,50,51,51,52,52,53,53,54,54,55,55,56,56,57,57,58,58,59,59,60,60,61,61,62,62],"right_children":[2,4,6,8,10,12,14,16,18,20,22,24,26,28,30,32,34,36,38,40,42,44,46,48,50,52,54,56,58,60,62,64,66,68,70,72,74,76,78,80,82,84,86,88,90,92,94,96,98,100,102,104,106,108,110,112,114,116,118,120,122,124,126,-1,-1,-1,-1,-1,-1,-1,-1,-1,-1,-1,-1,-1,-1,-1,-1,-1,-1,-1,-1,-1,-1,-1,-1,-1,-1,-1,-1,-1,-1,-1,-1,-1,-1,-1,-1,-1,-1,-1,-1,-1,-1,-1,-1,-1,-1,-1,-1,-1,-1,-1,-1,-1,-1,-1,-1,-1,-1,-1,-1,-1,-1,-1,-1],"split_conditions":[1.34079E2,1.32718E2,1.0439348E4,1.348161E3,1.2721052E1,1.0760925E4,4.4766556E1,2.66588E2,9.04938E2,1.1256941E4,3.599356E1,1.0361455E4,1.6836975E4,9.85976E2,1.2795168E4,2.68255E2,1.617037E3,6.15541E2,1.1256941E4,1.3962585E1,9.4915495E0,6.708228E3,5.41607E2,1.3254717E1,1.6655645E4,2.8603449E1,5.5329056E1,5.2202034E1,4.9964745E1,3.1705084E1,1.4634547E4,2.0490566E1,3.587069E1,3.776041E1,1.135739E3,6.620002E3,1.2070413E4,2.175577E1,5.0241096E1,1.285129E3,3.918846E1,1.1466666E1,7.343493E0,1.1351608E4,1.6655645E4,5.79549E3,3.169322E1,2.095474E3,3.3561905E1,5.124088E1,2.42E1,1.4298278E4,3.1835295E1,1.3898255E4,4.5481018E1,1.3380675E4,5.124088E1,2.595E1,1.2941819E4,5.4342373E1,5.2997635E1,5.249662E1,6.1975E1,-4.7002956E1,-3.1570118E1,4.392189E0,-2.1032959E1,-4.3926246E-2,-2.152972E1,1.1782812E1,6.2548176E1,-1.613442E1,-3.3274028E-1,1.3717086E1,6.498238E1,-1.1994885E0,2.7224485E1,5.6285492E1,4.1434693E0,-3.0475992E1,-7.225185E0,6.182799E1,-3.791965E1,2.528713E1,4.4195237E0,2.2722406E1,6.388989E1,1.2293521E1,4.2971905E1,3.589632E1,7.789738E1,-2.3684896E1,4.4329464E1,-1.3334473E1,2.9259064E1,-1.831018E1,-2.4149377E0,2.0783987E1,-5.1350265E0,4.0801586E1,1.301444E1,5.4518154E1,8.448984E1,3.7876247E1,6.0831093E1,-4.4674976E1,3.7911854E1,8.5133446E1,4.4952526E1,4.502888E1,9.6783485E1,2.762234E1,5.4011665E1,4.5850273E1,9.20629E0,5.7197693E1,9.13192E1,1.5026941E1,5.5699726E1,-5.9099476E1,-2.366532E1,5.0570602E1,-1.6092388E1,9.790084E1,-8.759965E0,-1.1820126E0,9.429286E1],"split_indices":[475,245,465,65,476,85,176,320,195,165,26,385,95,105,30,400,265,445,120,36,476,195,325,281,360,376,91,26,86,361,45,191,201,131,215,15,10,471,171,230,191,1,36,290,130,115,101,475,281,331,131,55,306,80,56,435,416,241,10,56,471,1,46,0,0,0,0,0,0,0,0,0,0,0,0,0,0,0,0,0,0,0,0,0,0,0,0,0,0,0,0,0,0,0,0,0,0,0,0,0,0,0,0,0,0,0,0,0,0,0,0,0,0,0,0,0,0,0,0,0,0,0,0,0,0,0,0],"split_type":[0,0,0,0,0,0,0,0,0,0,0,0,0,0,0,0,0,0,0,0,0,0,0,0,0,0,0,0,0,0,0,0,0,0,0,0,0,0,0,0,0,0,0,0,0,0,0,0,0,0,0,0,0,0,0,0,0,0,0,0,0,0,0,0,0,0,0,0,0,0,0,0,0,0,0,0,0,0,0,0,0,0,0,0,0,0,0,0,0,0,0,0,0,0,0,0,0,0,0,0,0,0,0,0,0,0,0,0,0,0,0,0,0,0,0,0,0,0,0,0,0,0,0,0,0,0,0],"sum_hessian":[3.735076E6,2.680867E6,1.054209E6,1.687741E6,9.93126E5,8.15214E5,2.38995E5,1.411983E6,2.75758E5,1.73833E5,8.19293E5,7.00022E5,1.15192E5,2.23103E5,1.5892E4,1.186852E6,2.25131E5,1.978E5,7.7958E4,1.62689E5,1.1144E4,6.98693E5,1.206E5,5.68221E5,1.31801E5,1.07065E5,8.127E3,1.47916E5,7.5187E4,1.2968E4,2.924E3,1.092698E6,9.4154E4,1.6709E5,5.8041E4,1.72122E5,2.5678E4,4.4433E4,3.3525E4,1.55004E5,7.685E3,2.513E3,8.631E3,4.02501E5,2.96192E5,8.8907E4,3.1693E4,1.88786E5,3.79435E5,1.20825E5,1.0976E4,8.2913E4,2.4152E4,1.988E3,6.139E3,1.02955E5,4.4961E4,3.9681E4,3.5506E4,7.884E3,5.084E3,1.231E3,1.693E3,2.18445E5,8.74253E5,3.7153E4,5.7001E4,1.16328E5,5.0762E4,5.0108E4,7.933E3,1.24541E5,4.7581E4,2.0474E4,5.204E3,3.6291E4,8.142E3,1.9064E4,1.4461E4,2.0025E4,1.34979E5,5.359E3,2.326E3,1.106E3,1.407E3,9.05E2,7.726E3,2.98041E5,1.0446E5,2.86736E5,9.456E3,7.9745E4,9.162E3,5.388E3,2.6305E4,4.7288E4,1.41498E5,2.03108E5,1.76327E5,9.6862E4,2.3963E4,4.319E3,6.657E3,5.7677E4,2.5236E4,5.91E3,1.8242E4,1.53E2,1.835E3,4.55E2,5.684E3,4.8793E4,5.4162E4,1.597E4,2.8991E4,2.8264E4,1.1417E4,1.1612E4,2.3894E4,1.741E3,6.143E3,1.246E3,3.838E3,1.55E2,1.076E3,4.5E2,1.243E3],"tree_param":{"num_deleted":"0","num_feature":"480","num_nodes":"127","size_leaf_vector":"1"}},{"base_weights":[-3.2773015E-1,-1.515617E2,3.8431268E2,-4.4403186E2,3.3981686E2,2.1511446E1,4.845167E2,-5.111326E2,1.19715866E2,-8.9477394E1,4.2410025E2,-6.2912468E1,9.888763E2,6.086585E2,5.917686E0,-5.9826544E2,-1.6289902E1,2.3366666E2,-3.2663614E2,-1.5873645E2,6.955659E2,5.2138586E2,-1.5269235E2,-8.175385E1,1.18724E3,6.9634E2,1.2591273E3,7.0920435E2,3.5763605E2,-1.3664731E2,6.265539E2,-6.4530725E2,-2.067804E2,-1.450471E2,2.8038327E2,1.3726724E2,7.1253296E2,-1.0823672E3,-2.7856616E2,-4.633044E2,-7.3174965E1,-1.5091618E2,1.0937732E3,4.3919955E2,8.2751166E2,-3.7316302E2,3.3915994E2,-1.5623358E2,1.2990863E2,5.572805E2,1.3031112E3,4.2004697E2,1.2032168E3,7.709281E2,1.3540245E3,6.0238983E2,8.710604E2,8.176372E1,7.301045E2,-2.5368343E2,8.8123376E2,5.46196E2,1.9284652E3,-3.4126354E1,-1.3151149E1,-6.074762E1,-8.359811E0,-1.45048895E1,2.0152906E1,2.7888362E0,4.518807E1,-7.003345E0,1.643605E1,4.105656E1,-9.899269E1,4.0969433E1,-6.1536476E1,-2.0409985E1,4.6154385E0,-5.8458675E1,-1.2000014E1,-4.482742E0,6.634009E1,-8.0240524E1,4.3438106E0,8.114864E1,4.6529526E1,1.2192E1,3.504709E1,4.219801E1,-9.4476616E1,-2.3316078E1,3.9515083E1,6.8131775E1,1.1017146E1,-2.8909468E1,-4.1445856E0,3.2829583E0,3.3227646E1,3.2181713E1,1.9423763E1,5.1494427E1,6.797199E1,2.8705679E1,-2.6394947E0,6.7096825E1,3.1923563E1,1.175011E1,5.00691E1,7.384893E1,4.891134E1,2.5771006E1,5.3838833E1,9.727192E0,4.5188496E1,2.9117186E1,-5.1501884E0,1.5689397E1,4.716531E1,4.668556E1,-1.518131E1,5.5167152E1,-9.346509E0,5.549421E1,2.0517736E1,1.0569057E2,8.681689E1],"categories":[],"categories_nodes":[],"categories_segments":[],"categories_sizes":[],"default_left":[0,0,0,0,0,0,0,0,0,0,0,0,0,0,0,0,0,0,0,0,0,0,0,0,0,0,0,0,0,0,0,0,0,0,0,0,0,0,0,0,0,0,0,0,0,0,0,0,0,0,0,0,0,0,0,0,0,0,0,0,0,0,0,0,0,0,0,0,0,0,0,0,0,0,0,0,0,0,0,0,0,0,0,0,0,0,0,0,0,0,0,0,0,0,0,0,0,0,0,0,0,0,0,0,0,0,0,0,0,0,0,0,0,0,0,0,0,0,0,0,0,0,0,0,0,0,0],"id":12,"left_children":[1,3,5,7,9,11,13,15,17,19,21,23,25,27,29,31,33,35,37,39,41,43,45,47,49,51,53,55,57,59,61,63,65,67,69,71,73,75,77,79,81,83,85,87,89,91,93,95,97,99,101,103,105,107,109,111,113,115,117,119,121,123,125,-1,-1,-1,-1,-1,-1,-1,-1,-1,-1,-1,-1,-1,-1,-1,-1,-1,-1,-1,-1,-1,-1,-1,-1,-1,-1,-1,-1,-1,-1,-1,-1,-1,-1,-1,-1,-1,-1,-1,-1,-1,-1,-1,-1,-1,-1,-1,-1,-1,-1,-1,-1,-1,-1,-1,-1,-1,-1,-1,-1,-1,-1,-1,-1],"loss_changes":[2.1738396E11,3.854899E11,3.8341E10,6.3607996E10,3.62128E10,1.8640947E10,4.9100095E10,6.4790004E10,9.097079E9,8.930553E9,4.694429E10,4.944915E9,1.4475489E9,1.6561668E10,1.5060349E10,2.3529783E10,8.593892E9,6.5772165E9,1.321129E9,3.933199E9,4.4886595E9,1.8009997E10,1.3093162E10,3.2603535E9,2.2679654E8,1.2319037E9,4.400988E8,8.09966E9,1.9283628E10,1.6489442E10,3.3253028E9,1.6229171E10,5.4695813E9,1.2473189E10,9.533557E9,6.297682E9,6.982692E9,6.1468186E8,1.6443476E9,5.2173716E9,2.718695E9,1.4732736E9,7.805317E8,2.8856918E10,6.772744E9,9.036674E9,4.5442493E9,4.7343206E9,1.8491185E9,6.834368E6,3.910707E7,4.150476E8,2.4231475E8,1.914462E8,3.668613E8,1.1644731E10,4.12169E9,9.972058E9,7.087497E9,7.3621233E9,3.3867008E9,2.2927258E9,6.2137344E7,0E0,0E0,0E0,0E0,0E0,0E0,0E0,0E0,0E0,0E0,0E0,0E0,0E0,0E0,0E0,0E0,0E0,0E0,0E0,0E0,0E0,0E0,0E0,0E0,0E0,0E0,0E0,0E0,0E0,0E0,0E0,0E0,0E0,0E0,0E0,0E0,0E0,0E0,0E0,0E0,0E0,0E0,0E0,0E0,0E0,0E0,0E0,0E0,0E0,0E0,0E0,0E0,0E0,0E0,0E0,0E0,0E0,0E0,0E0,0E0,0E0,0E0,0E0,0E0],"parents":[2147483647,0,0,1,1,2,2,3,3,4,4,5,5,6,6,7,7,8,8,9,9,10,10,11,11,12,12,13,13,14,14,15,15,16,16,17,17,18,18,19,19,20,20,21,21,22,22,23,23,24,24,25,25,26,26,27,27,28,28,29,29,30,30,31,31,32,32,33,33,34,34,35,35,36,36,37,37,38,38,39,39,40,40,41,41,42,42,43,43,44,44,45,45,46,46,47,47,48,48,49,49,50,50,51,51,52,52,53,53,54,54,55,55,56,56,57,57,58,58,59,59,60,60,61,61,62,62],"right_children":[2,4,6,8,10,12,14,16,18,20,22,24,26,28,30,32,34,36,38,40,42,44,46,48,50,52,54,56,58,60,62,64,66,68,70,72,74,76,78,80,82,84,86,88,90,92,94,96,98,100,102,104,106,108,110,112,114,116,118,120,122,124,126,-1,-1,-1,-1,-1,-1,-1,-1,-1,-1,-1,-1,-1,-1,-1,-1,-1,-1,-1,-1,-1,-1,-1,-1,-1,-1,-1,-1,-1,-1,-1,-1,-1,-1,-1,-1,-1,-1,-1,-1,-1,-1,-1,-1,-1,-1,-1,-1,-1,-1,-1,-1,-1,-1,-1,-1,-1,-1,-1,-1,-1,-1,-1,-1],"split_conditions":[1.34079E2,8.1307E1,1.2964103E1,2.504809E3,1.1575E1,1.1556641E4,3.587415E1,2.009794E3,3.6905453E1,1.8217106E1,3.599356E1,1.1813856E4,4.1915092E1,5.1717228E1,5.18482E3,2.68255E2,7.901696E3,1.1355345E4,2.8741072E1,1.441206E3,9.750725E0,1.1551301E4,5.41607E2,6.42567E3,1.184E1,1.3465279E4,3.1837036E1,7.182901E3,1.183271E4,6.832782E3,1.7090844E4,7.67141E2,2.1735495E1,6.15541E2,2.7908813E1,1.9287233E1,1.7642398E4,2.306E1,4.44589E3,1.285129E3,1.2484271E4,5.987538E3,6.43615E2,6.710714E3,6.457466E1,5.79549E3,2.8618708E1,1.441206E3,9.299165E3,3.7556896E1,3.6893536E1,1.5266666E1,1.2707101E1,1.307226E4,1.2707101E1,1.4061864E4,1.3797334E1,2.8603704E1,8.968728E-1,2.6332314E1,3.7757824E1,8.1307E1,1.719214E3,-3.4126354E1,-1.3151149E1,-6.074762E1,-8.359811E0,-1.45048895E1,2.0152906E1,2.7888362E0,4.518807E1,-7.003345E0,1.643605E1,4.105656E1,-9.899269E1,4.0969433E1,-6.1536476E1,-2.0409985E1,4.6154385E0,-5.8458675E1,-1.2000014E1,-4.482742E0,6.634009E1,-8.0240524E1,4.3438106E0,8.114864E1,4.6529526E1,1.2192E1,3.504709E1,4.219801E1,-9.4476616E1,-2.3316078E1,3.9515083E1,6.8131775E1,1.1017146E1,-2.8909468E1,-4.1445856E0,3.2829583E0,3.3227646E1,3.2181713E1,1.9423763E1,5.1494427E1,6.797199E1,2.8705679E1,-2.6394947E0,6.7096825E1,3.1923563E1,1.175011E1,5.00691E1,7.384893E1,4.891134E1,2.5771006E1,5.3838833E1,9.727192E0,4.5188496E1,2.9117186E1,-5.1501884E0,1.5689397E1,4.716531E1,4.668556E1,-1.518131E1,5.5167152E1,-9.346509E0,5.549421E1,2.0517736E1,1.0569057E2,8.681689E1],"split_indices":[465,225,271,285,476,420,251,40,91,61,6,0,466,1,80,370,95,340,16,190,456,260,305,390,221,395,391,475,470,340,85,115,421,415,341,201,330,1,250,230,160,150,60,170,291,95,476,470,445,1,1,166,226,445,266,365,251,291,229,421,91,0,460,0,0,0,0,0,0,0,0,0,0,0,0,0,0,0,0,0,0,0,0,0,0,0,0,0,0,0,0,0,0,0,0,0,0,0,0,0,0,0,0,0,0,0,0,0,0,0,0,0,0,0,0,0,0,0,0,0,0,0,0,0,0,0,0],"split_type":[0,0,0,0,0,0,0,0,0,0,0,0,0,0,0,0,0,0,0,0,0,0,0,0,0,0,0,0,0,0,0,0,0,0,0,0,0,0,0,0,0,0,0,0,0,0,0,0,0,0,0,0,0,0,0,0,0,0,0,0,0,0,0,0,0,0,0,0,0,0,0,0,0,0,0,0,0,0,0,0,0,0,0,0,0,0,0,0,0,0,0,0,0,0,0,0,0,0,0,0,0,0,0,0,0,0,0,0,0,0,0,0,0,0,0,0,0,0,0,0,0,0,0,0,0,0,0],"sum_hessian":[3.736999E6,2.682347E6,1.054652E6,1.681508E6,1.000839E6,2.28249E5,8.26403E5,1.502653E6,1.78855E5,1.64248E5,8.36591E5,2.09929E5,1.832E4,6.56195E5,1.70208E5,1.277677E6,2.24976E5,1.42481E5,3.6374E4,1.50933E5,1.3315E4,7.15851E5,1.2074E5,2.06813E5,3.116E3,8.799E3,9.521E3,4.68527E5,1.87668E5,1.38414E5,3.1794E4,1.140617E6,1.3706E5,1.56887E5,6.8089E4,1.18606E5,2.3875E4,2.174E3,3.42E4,3.3101E4,1.17832E5,4.26E3,9.055E3,5.64343E5,1.51508E5,8.337E4,3.737E4,1.52982E5,5.3831E4,4.85E2,2.631E3,5.696E3,3.103E3,1.551E3,7.97E3,2.82259E5,1.86268E5,1.07815E5,7.9853E4,1.24141E5,1.4273E4,2.9947E4,1.847E3,1.039417E6,1.012E5,5.177E3,1.31883E5,1.24057E5,3.283E4,5.0055E4,1.8034E4,4.8439E4,7.0167E4,2.295E4,9.25E2,1.57E2,2.017E3,2.5342E4,8.858E3,7.954E3,2.5147E4,1.16462E5,1.37E3,5.98E2,3.662E3,2.132E3,6.923E3,3.23151E5,2.41192E5,1.50597E5,9.11E2,7.719E4,6.18E3,3.886E3,3.3484E4,2.2652E4,1.3033E5,4.8057E4,5.774E3,3.19E2,1.66E2,4.53E2,2.178E3,4.296E3,1.4E3,2.49E3,6.13E2,4.67E2,1.084E3,6.003E3,1.967E3,2.38531E5,4.3728E4,8.591E3,1.77677E5,2.9066E4,7.8749E4,2.7045E4,5.2808E4,5.01E3,1.19131E5,1.1816E4,2.457E3,5.814E3,2.4133E4,9.35E2,9.12E2],"tree_param":{"num_deleted":"0","num_feature":"480","num_nodes":"127","size_leaf_vector":"1"}},{"base_weights":[7.2538406E-1,-1.420361E2,3.6392926E2,-4.2665262E2,3.32906E2,2.074388E1,4.5704276E2,-4.9830457E2,3.8409515E1,-1.0636516E2,4.105018E2,-8.109071E1,7.0878143E2,5.7539996E2,-1.487479E0,-5.811558E2,-3.1676792E1,-3.362878E1,6.48327E2,-1.4610455E2,8.2645465E2,5.0226288E2,-1.2656389E2,-1.0666806E2,8.773679E2,4.736061E2,1.222675E3,4.569148E2,7.578732E2,-1.361974E2,5.5878265E2,-8.180649E2,-5.13679E2,1.25933975E2,-3.4275024E2,-1.0185862E2,6.0045483E2,8.6950476E2,-6.959417E2,-4.4505704E2,-7.035664E1,4.8895316E2,1.4542468E3,3.806833E2,6.9248645E2,-2.1805275E2,8.2407227E2,-3.7383292E2,-5.8209072E1,6.089757E2,1.3440918E3,2.9026266E2,1.2048848E3,1.3693762E3,8.899103E2,5.9312585E2,3.9846447E1,6.843794E2,1.0113523E3,-2.4911621E2,8.342739E2,4.7339032E2,1.7792456E3,-4.2256218E1,2.3433193E1,-7.47224E0,-3.0176111E1,1.5315555E0,3.1420252E1,-1.96189E1,3.6921963E1,-9.372579E0,1.0321883E1,2.1273405E1,7.355591E1,5.051517E1,-9.987866E1,2.9429197E1,-7.0932495E1,-5.804626E1,-1.0378818E1,2.1107824E0,-1.29457655E1,2.1197702E1,6.443483E1,6.963167E1,9.0420364E1,1.1486259E1,